svm_type c_svc
kernel_type rbf
gamma 0.015625
nr_class 2
total_sv 3080
rho 8.83591
label 1 -1
probA -1.47425
probB -0.0879152
nr_sv 1541 1539
SV
10.55606328618315 1:0.46218142 2:0.2119581 3:0.40380201 4:0.42497501 5:0.58034635 6:0.91689312 7:0.30784646 8:0.41416481 9:0.20650408 10:0.89998055 11:0.45036519 12:0.45018256 13:0.41704035 14:0.50345761 15:0.41378599 16:0.43737701 17:0.45010525 18:0.52544379 19:0.47681451 20:0.3458308 21:0.93025064 22:0.2937746 23:0.31882951 24:0.25388205 25:0.55578738 26:0.49251929 27:0.47306797 28:0.28257674 29:0.15438281 30:0.34960988 31:0.42879581 32:0.023754211 33:0.69367373 34:0.024116717 35:0.33902055 36:0.39430261 37:0.024931584 38:0.36585853 39:0.02693289 40:0.45182502 41:0.41653571 42:0.30718219 43:0.70435059 44:0.041431252 45:0.12337313 46:0.037105735 47:0.49376544 48:0.05503482 49:0.2451784 50:0.34519193 
10.55606328618315 1:0.15625419 2:0.20097469 3:0.39661154 4:0.41149953 5:0.62827224 6:0.91362906 7:0.29852042 8:0.59864879 9:0.14146341 10:0.89852881 11:0.05449377 12:0.054537475 13:0.28251123 14:0.21408699 15:0.16900361 16:0.30957779 17:0.21426822 18:0.47337279 19:0.18641846 20:0.035516545 21:0.92460072 22:0.52872443 23:0.64002168 24:0.48913905 25:0.17561755 26:0.41272229 27:0.34413198 28:0.37811771 29:0.53589314 30:0.66486073 31:0.12491061 32:0.097179428 33:0.68119961 34:0.071134105 35:0.42429975 36:0.39008817 37:0.11271326 38:0.55929732 39:0.11711403 40:0.042924505 41:0.38253668 42:0.3293688 43:0.69315046 44:0.046395738 45:0.52241272 46:0.020841185 47:0.53605634 48:0.050389469 49:0.71693319 50:0.035249852 
10.55606328618315 1:0.28806567 2:0.19725931 3:0.44245985 4:0.40899011 5:0.67780906 6:0.88717562 7:0.25485846 8:0.54271555 9:0.094308935 10:0.8901419 11:0.16141137 12:0.16062033 13:0.20179373 14:0.46368089 15:0.31384277 16:0.45335653 17:0.37185046 18:0.41775146 19:0.41936213 20:0.061781883 21:0.89446622 22:0.61039716 23:0.6142059 24:0.31012788 25:0.39365882 26:0.74357867 27:0.47713411 28:0.36760801 29:0.28691685 30:0.63661468 31:0.25814003 32:0.07346908 33:0.72953069 34:0.081240758 35:0.41845021 36:0.42710665 37:0.073954053 38:0.50571722 39:0.028015532 40:0.11984175 41:0.37615865 42:0.3567304 43:0.72158551 44:0.081314474 45:0.27293637 46:0.031288922 47:0.54798067 48:0.041553788 49:0.42516711 50:0.06442111 
10.55606328618315 1:0.32822824 2:0.22080104 3:0.47987756 4:0.43853495 5:0.55336285 6:0.92434496 7:0.33554474 8:0.58042949 9:0.2406504 10:0.89514118 11:0.16896334 12:0.16862056 13:0.50672644 14:0.28268841 15:0.32639158 16:0.42027825 17:0.37732977 18:0.63313615 19:0.24550354 20:0.069737874 21:0.93183386 22:0.29101089 23:0.44059816 24:0.3779448 25:0.28323755 26:0.3614569 27:0.45798239 28:0.37058228 29:0.3630552 30:0.46691656 31:0.28670537 32:0.035789177 33:0.65888554 34:0.047456894 35:0.42743203 36:0.38955319 37:0.047480665 38:0.53964442 39:0.05680906 40:0.10494042 41:0.4668754 42:0.39628673 43:0.67275685 44:0.052998424 45:0.29972616 46:0.035093822 47:0.48837769 48:0.064494036 49:0.33398625 50:0.070308045 
10.55606328618315 1:0.311207 2:0.1752314 3:0.45643318 4:0.38321459 5:0.49013287 6:0.88036513 7:0.26007113 8:0.40343612 9:0.23739837 10:0.86853355 11:0.097031519 12:0.096504331 13:0.3721973 14:0.24547218 15:0.17735679 16:0.34833941 17:0.23190139 18:0.54911244 19:0.20643993 20:0.047641955 21:0.8883546 22:0.31749812 23:0.3557733 24:0.28198272 25:0.33559409 26:0.39067715 27:0.38207603 28:0.25072071 29:0.25036976 30:0.37656748 31:0.27331725 32:0.045931105 33:0.69126922 34:0.048570961 35:0.29945078 36:0.45775568 37:0.029318675 38:0.37082207 39:0.14787729 40:0.068603031 41:0.40933433 42:0.2024544 43:0.68594331 44:0.011244372 45:0.28872424 46:0.17386377 47:0.49958831 48:0.052748971 49:0.33866772 50:0.050204854 
10.55606328618315 1:0.20822775 2:0.13046025 3:0.34495401 4:0.32274473 5:0.4297221 6:0.87291729 7:0.24753177 8:0.18883255 9:0.25203252 10:0.86536843 11:0.13105701 12:0.13317126 13:0.39013454 14:0.13529602 15:0.10652431 16:0.14214532 17:0.16588828 18:0.66390532 19:0.090151206 20:0.049595851 21:0.87983954 22:0.12920065 23:0.14893159 24:0.16286504 25:0.21551311 26:0.18417826 27:0.19828512 28:0.099096783 29:0.10077897 30:0.18024863 31:0.17323369 32:0.10902981 33:0.63123226 34:0.034707524 35:0.18694659 36:0.43453363 37:0.041227069 38:0.13478692 39:0.036516812 40:0.08568421 41:0.42914984 42:0.21279262 43:0.64067578 44:0.041034475 45:0.097406954 46:0.053222824 47:0.48484689 48:0.15071048 49:0.16038741 50:0.050534591 
10.55606328618315 1:0.13770838 2:0.2253485 3:0.47689602 4:0.44492173 5:0.54893267 6:0.91772759 7:0.30553216 8:0.42107829 9:0.23577236 10:0.90860015 11:0.060145974 12:0.059798937 13:0.47982064 14:0.17173067 15:0.145757 16:0.2002662 17:0.19926737 18:0.53254437 19:0.13555704 20:0.028322052 21:0.92029935 22:0.30185434 23:0.33085519 24:0.35899907 25:0.12590192 26:0.195997 27:0.24092455 28:0.25905368 29:0.51408029 30:0.35780787 31:0.10801651 32:0.066342533 33:0.69405317 34:0.052407622 35:0.31763759 36:0.37984067 37:0.056466326 38:0.37988266 39:0.030911654 40:0.038487211 41:0.40136144 42:0.32186761 43:0.70700204 44:0.16198674 45:0.43233082 46:0.042553522 47:0.54363966 48:0.046510104 49:0.39569807 50:0.028998427 
10.55606328618315 1:0.047068361 2:0.12158019 3:0.27584818 4:0.31076884 5:0.43133304 6:0.88181394 7:0.27433619 8:0.056173567 9:0.27642274 10:0.86966056 11:0.031625465 12:0.031930972 13:0.57623321 14:0.045065537 15:0.016299635 16:0.01312068 17:0.064252429 18:0.66745561 19:0.011527336 20:0.011983549 21:0.89210737 22:0.030659862 23:0.014846863 24:0.056918118 25:0.040687546 26:0.012012306 27:0.064133286 28:0.013674738 29:0.032736156 30:0.038485538 31:0.014324761 32:0.047371987 33:0.57156682 34:0.099835508 35:0.084011249 36:0.38829133 37:0.047683649 38:0.018074052 39:0.052106082 40:0.024495285 41:0.25070816 42:0.32714787 43:0.58787417 44:0.070194855 45:0.024813628 46:0.058705065 47:0.56933445 48:0.082709156 49:0.041209139 50:0.012235363 
10.55606328618315 1:0.18338023 2:0.21145031 3:0.40296879 4:0.42708981 5:0.50825614 6:0.92352986 7:0.29443556 8:0.11229928 9:0.25691056 10:0.90722024 11:0.385052 12:0.38361692 13:0.5044843 14:0.25575665 15:0.18966991 16:0.081134342 17:0.239481 18:0.67337281 19:0.22056946 20:0.23625328 21:0.92805272 22:0.11818252 23:0.066107459 24:0.097538196 25:0.21268165 26:0.088251606 27:0.1309552 28:0.095595926 29:0.084399074 30:0.086319767 31:0.14694059 32:0.063941889 33:0.64807081 34:0.040740773 35:0.16299434 36:0.35649395 37:0.047039196 38:0.076203831 39:0.053818393 40:0.32042241 41:0.32923865 42:0.32299751 43:0.66933358 44:0.029479198 45:0.07024195 46:0.047100198 47:0.52945334 48:0.06810043 49:0.084273674 50:0.23723109 
10.55606328618315 1:0.24585037 2:0.20058253 3:0.4544459 4:0.41399887 5:0.47563428 6:0.89844978 7:0.28278714 8:0.14944395 9:0.23089431 10:0.89496875 11:0.35309076 12:0.35332581 13:0.34977576 14:0.20598985 15:0.16660014 16:0.1527205 17:0.21626852 18:0.62603551 19:0.16845785 20:0.13192876 21:0.8979218 22:0.19687077 23:0.12792164 24:0.14996189 25:0.27990952 26:0.21071558 27:0.19670638 28:0.13429302 29:0.089031152 30:0.14790043 31:0.21261837 32:0.057116821 33:0.71861833 34:0.028149767 35:0.20555648 36:0.42529374 37:0.035782486 38:0.11253808 39:0.030778097 40:0.24501266 41:0.40897277 42:0.24300267 43:0.72181582 44:0.021198494 45:0.09559118 46:0.038588889 47:0.54221028 48:0.088504396 49:0.17354165 50:0.13214514 
10.55606328618315 1:0.20204404 2:0.19048877 3:0.42984727 4:0.40185043 5:0.50100684 6:0.89640158 7:0.28213277 8:0.12300125 9:0.22764228 10:0.89188343 11:0.26699483 12:0.26751491 13:0.31165922 14:0.21409398 15:0.14513683 16:0.10962609 17:0.19795008 18:0.67810649 19:0.17418155 20:0.11314171 21:0.8969506 22:0.17996117 23:0.087381676 24:0.13050285 25:0.24950422 26:0.15293477 27:0.15984596 28:0.11431118 29:0.078638665 30:0.11021661 31:0.16824378 32:0.058326408 33:0.7016117 34:0.03737434 35:0.18913044 36:0.42251959 37:0.037597734 38:0.080274291 39:0.058267336 40:0.18870357 41:0.39064249 42:0.2404881 43:0.70641035 44:0.020974863 45:0.082039028 46:0.064014859 47:0.53035814 48:0.060402695 49:0.14264767 50:0.11351769 
10.55606328618315 1:0.24247931 2:0.18307574 3:0.38463542 4:0.39375064 5:0.49859041 6:0.90079486 7:0.26527765 8:0.1490695 9:0.18373983 10:0.88301641 11:0.25213686 12:0.25153252 13:0.30493274 14:0.12905729 15:0.10753111 16:0.1233824 17:0.16194959 18:0.61183435 19:0.091946214 20:0.11327004 21:0.90853304 22:0.083240353 23:0.11481047 24:0.13585222 25:0.25699455 26:0.15167715 27:0.16788544 28:0.073546216 29:0.092767373 30:0.14181744 31:0.21437564 32:0.084680393 33:0.68604851 34:0.12772405 35:0.14911252 36:0.4318532 37:0.033801921 38:0.10792354 39:0.046957321 40:0.18482661 41:0.38090307 42:0.19788273 43:0.69396347 44:0.025965666 45:0.077776492 46:0.092270784 47:0.53541249 48:0.11785669 49:0.11446574 50:0.11356086 
10.55606328618315 1:0.14273763 2:0.17921853 3:0.3817386 4:0.38754076 5:0.57873535 6:0.90596658 7:0.27062815 8:0.43771759 9:0.18211381 10:0.8850646 11:0.083780997 12:0.083250135 13:0.42376679 14:0.14409301 15:0.10876993 16:0.21344772 17:0.17837638 18:0.62603551 19:0.096114971 20:0.06987536 21:0.91153359 22:0.28193039 23:0.36766779 24:0.45984864 25:0.12234756 26:0.20672786 27:0.26063773 28:0.24707709 29:0.42025346 30:0.39968759 31:0.10771341 32:0.075914279 33:0.66033667 34:0.22225252 35:0.32122388 36:0.411715 37:0.074435219 38:0.39129531 39:0.078252256 40:0.085538991 41:0.28802997 42:0.17952427 43:0.67475086 44:0.14759757 45:0.37777841 46:0.059519023 47:0.54093266 48:0.060883649 49:0.53912848 50:0.071928769 
10.55606328618315 1:0.33961138 2:0.24174644 3:0.49870771 4:0.46377954 5:0.54893267 6:0.91444361 7:0.24550107 8:0.20075257 9:0.1902439 10:0.91569042 11:0.5427748 12:0.54064542 13:0.33856502 14:0.43216878 15:0.38853002 16:0.22126278 17:0.43462482 18:0.49112427 19:0.40108019 20:0.27021122 21:0.9165374 22:0.27111676 23:0.15372393 24:0.19754504 25:0.41171405 26:0.27735537 27:0.25761652 28:0.2439196 29:0.13051295 30:0.17582139 31:0.30864546 32:0.056978572 33:0.76529908 34:0.040433493 35:0.30351537 36:0.40192443 37:0.029804664 38:0.16810454 39:0.035375711 40:0.43122071 41:0.48772553 42:0.30483216 43:0.76943153 44:0.046679925 45:0.11368523 46:0.021802407 47:0.5831064 48:0.086058594 49:0.19084984 50:0.27101332 
10.55606328618315 1:0.045751955 2:0.097271711 3:0.26993194 4:0.27455658 5:0.40877968 6:0.85813659 7:0.15374379 8:0.064543977 9:0.27154472 10:0.8657648 11:0.036784027 12:0.036301978 13:0.53811657 14:0.043219216 15:0.019019736 16:0.014935917 17:0.0740574 18:0.60591716 19:0.012059217 20:0.01415063 21:0.85415095 22:0.03730556 23:0.020390825 24:0.074197248 25:0.034805465 26:0.013570645 27:0.065498702 28:0.017632093 29:0.039715271 30:0.046165913 31:0.014934065 32:0.097435571 33:0.58158195 34:0.14842896 35:0.10087883 36:0.40185872 37:0.068886027 38:0.024566984 39:0.043892868 40:0.021373397 41:0.18243992 42:0.34694484 43:0.59828311 44:0.10095862 45:0.028092844 46:0.075244196 47:0.63199949 48:0.076127768 49:0.062222775 50:0.013848975 
10.55606328618315 1:0.055637777 2:0.10149336 3:0.27650788 4:0.27824906 5:0.41602898 6:0.85682058 7:0.15806301 8:0.079133406 9:0.23577236 10:0.86346334 11:0.044884562 12:0.044444513 13:0.47982064 14:0.053171113 15:0.015451026 16:0.02360717 17:0.077733129 18:0.66508883 19:0.01385521 20:0.016343495 21:0.85080177 22:0.044937104 23:0.025476595 24:0.086452529 25:0.044171017 26:0.022859102 27:0.083065696 28:0.019840615 29:0.056599673 30:0.053855926 31:0.017486572 32:0.063235886 33:0.59068519 34:0.10459775 35:0.10693949 36:0.4113327 37:0.10849573 38:0.033125397 39:0.040368918 40:0.026965449 41:0.11752325 42:0.33551952 43:0.60715789 44:0.079049669 45:0.03913527 46:0.056738097 47:0.58557975 48:0.098325409 49:0.064989343 50:0.017483575 
10.55606328618315 1:0.05514605 2:0.10424805 3:0.28083688 4:0.28528529 5:0.38622633 6:0.84754896 7:0.16893861 8:0.077830322 9:0.23902439 10:0.85571969 11:0.055740867 12:0.056333154 13:0.52690583 14:0.062459305 15:0.029133834 16:0.022420406 17:0.082427524 18:0.73136097 19:0.02612708 20:0.022791799 21:0.84255004 22:0.050012708 23:0.024232147 24:0.08652404 25:0.047487911 26:0.021787491 27:0.08033067 28:0.030647097 29:0.068772659 30:0.0528998 31:0.020026274 32:0.049590569 33:0.601915 34:0.086192034 35:0.10945845 36:0.43163404 37:0.071754038 38:0.030618448 39:0.056803845 40:0.042041287 41:0.071049348 42:0.37325409 43:0.611893 44:0.082660839 45:0.054158267 46:0.092673413 47:0.58614218 48:0.08162871 49:0.066736825 50:0.022823269 
10.55606328618315 1:0.10146973 2:0.11506137 3:0.31797841 4:0.30342945 5:0.42529199 6:0.88637912 7:0.15574618 8:0.12093464 9:0.31219512 10:0.89653718 11:0.28959253 12:0.2884357 13:0.44843048 14:0.13050014 15:0.11091808 16:0.066812299 17:0.16766529 18:0.67337281 19:0.096493371 20:0.10310108 21:0.88268828 22:0.11982372 23:0.060832985 24:0.15992306 25:0.0918115 26:0.066647135 27:0.12184945 28:0.10549901 29:0.062473848 30:0.098161891 31:0.069857009 32:0.094347715 33:0.60725844 34:0.089731 35:0.18857312 36:0.35500836 37:0.061121121 38:0.070199624 39:0.026393957 40:0.19780776 41:0.16595107 42:0.47970396 43:0.63769674 44:0.045131937 45:0.048558343 46:0.044154074 47:0.6120491 48:0.16443446 49:0.1472809 50:0.10350765 
10.55606328618315 1:0.095173143 2:0.09937048 3:0.29718086 4:0.27977476 5:0.44542888 6:0.87919813 7:0.13069458 8:0.10672364 9:0.29268292 10:0.88949257 11:0.2902163 12:0.29048106 13:0.48654708 14:0.1248475 15:0.10785654 16:0.056729939 17:0.16643396 18:0.66508883 19:0.084219888 20:0.10658868 21:0.87564719 22:0.09384416 23:0.054599382 24:0.14150536 25:0.079858087 26:0.051830631 27:0.10464904 28:0.080336884 29:0.069374405 30:0.084517777 31:0.068126425 32:0.19801703 33:0.58134782 34:0.07052885 35:0.1691322 36:0.35388988 37:0.065075882 38:0.062844716 39:0.023695963 40:0.20775741 41:0.17368458 42:0.47889757 43:0.61410284 44:0.053192448 45:0.058963247 46:0.036816973 47:0.65654534 48:0.091611862 49:0.12550683 50:0.10688893 
10.55606328618315 1:0.12115584 2:0.097666569 3:0.284152 4:0.2774272 5:0.42247277 6:0.88185298 7:0.13022812 8:0.1041654 9:0.28292683 10:0.89232785 11:0.36350259 12:0.36197138 13:0.52242148 14:0.16659473 15:0.13531125 16:0.053241618 17:0.20785613 18:0.60000002 19:0.11707215 20:0.18907525 21:0.87760764 22:0.08187715 23:0.051996712 24:0.11664728 25:0.11139052 26:0.044337194 27:0.10911738 28:0.070252791 29:0.066558875 30:0.080269262 31:0.085252456 32:0.091585882 33:0.57363468 34:0.056963813 35:0.16059668 36:0.34328666 37:0.053125829 38:0.059331194 39:0.029945599 40:0.30544454 41:0.17940958 42:0.50283194 43:0.60915375 44:0.058318216 45:0.056474589 46:0.036540605 47:0.64257431 48:0.10418057 49:0.10309176 50:0.19202976 
10.55606328618315 1:0.29382542 2:0.17427939 3:0.42551515 4:0.38611567 5:0.50060409 6:0.87905639 7:0.20922925 8:0.38882598 9:0.18211381 10:0.88331932 11:0.12258982 12:0.12259763 13:0.31390136 14:0.36382791 15:0.28228799 16:0.33041134 17:0.34796932 18:0.60591716 19:0.31771228 20:0.048580028 21:0.8783465 22:0.44400036 23:0.3485505 24:0.28495508 25:0.3239682 26:0.40320098 27:0.38390437 28:0.33496228 29:0.16995668 30:0.38648412 31:0.25170225 32:0.12946391 33:0.71558607 34:0.10975242 35:0.41296652 36:0.44369507 37:0.10391545 38:0.33067188 39:0.073599063 40:0.077592283 41:0.4313955 42:0.32520226 43:0.71074659 44:0.069664985 45:0.18040836 46:0.064887993 47:0.52647543 48:0.080086902 49:0.31323525 50:0.049896237 
10.55606328618315 1:0.3638826 2:0.18347363 3:0.40887496 4:0.39489818 5:0.49375752 6:0.88912129 7:0.23728821 8:0.34640473 9:0.21626016 10:0.88635355 11:0.2008048 12:0.19978805 13:0.367713 14:0.43728468 15:0.36006406 16:0.36630416 17:0.41279361 18:0.63550293 19:0.40046644 20:0.087010071 21:0.89690775 22:0.40925404 23:0.27778962 24:0.26799324 25:0.42386022 26:0.44431722 27:0.41540653 28:0.34952974 29:0.1223008 30:0.31227234 31:0.32068995 32:0.14486755 33:0.71317482 34:0.086474195 35:0.40425441 36:0.43605748 37:0.096948512 38:0.29393226 39:0.089610629 40:0.14589646 41:0.3603214 42:0.29553378 43:0.71065909 44:0.061185982 45:0.10953246 46:0.075883865 47:0.52471292 48:0.088643983 49:0.28310114 50:0.088540718 
10.55606328618315 1:0.34153628 2:0.18351355 3:0.39505661 4:0.39540869 5:0.52557385 6:0.88183999 7:0.26229081 8:0.33300906 9:0.18699187 10:0.86822897 11:0.19552802 12:0.19493018 13:0.36098656 14:0.49467194 15:0.34086117 16:0.35788164 17:0.39966467 18:0.59526628 19:0.45160654 20:0.088098042 21:0.89705014 22:0.48788875 23:0.30953729 24:0.2266767 25:0.4597992 26:0.55200535 27:0.41232142 28:0.31631348 29:0.11437179 30:0.34072044 31:0.29361656 32:0.055197515 33:0.69305086 34:0.065976545 35:0.38128892 36:0.45513684 37:0.11157233 38:0.27813312 39:0.032120254 40:0.15343572 41:0.35521904 42:0.24148092 43:0.68218493 44:0.10646678 45:0.10727545 46:0.035266943 47:0.49503303 48:0.02889655 49:0.26681343 50:0.089968361 
10.55606328618315 1:0.17791447 2:0.1473081 3:0.37555355 4:0.34989691 5:0.47925892 6:0.8785823 7:0.17838553 8:0.12210305 9:0.18536586 10:0.88604581 11:0.37539202 12:0.37378231 13:0.43946189 14:0.23329806 15:0.19381048 16:0.068255574 17:0.25291917 18:0.65325445 19:0.19500285 20:0.2419949 21:0.87509948 22:0.10135835 23:0.065513432 24:0.097370282 25:0.20291567 26:0.064085402 27:0.13083452 28:0.092235565 29:0.07400392 30:0.094812006 31:0.13668346 32:0.068435535 33:0.67275906 34:0.053905424 35:0.17201255 36:0.41617814 37:0.049427345 38:0.072465882 39:0.10841432 40:0.32671499 41:0.32907912 42:0.30556083 43:0.68281513 44:0.024896378 45:0.068450093 46:0.086060017 47:0.56922126 48:0.067398377 49:0.086686984 50:0.24288532 
10.55606328618315 1:0.28077683 2:0.17654848 3:0.42756921 4:0.38904905 5:0.49295205 6:0.88163 7:0.21402602 8:0.44706652 9:0.21300814 10:0.8846516 11:0.09140218 12:0.091459632 13:0.28026909 14:0.30926877 15:0.25290725 16:0.35499024 17:0.31549022 18:0.6106509 19:0.26614055 20:0.033313375 21:0.88325101 22:0.4611356 23:0.40134093 24:0.33799425 25:0.29486188 26:0.42898619 27:0.40694317 28:0.35584301 29:0.20719305 30:0.44022077 31:0.23847856 32:0.11690641 33:0.71385723 34:0.10000197 35:0.42804039 36:0.4407261 37:0.1033877 38:0.3891634 39:0.080657192 40:0.049113289 41:0.4290854 42:0.30804759 43:0.71067691 44:0.07505367 45:0.20522515 46:0.075053096 47:0.52300769 48:0.080130994 49:0.39266393 50:0.034057409 
10.55606328618315 1:0.24121042 2:0.24211016 3:0.42471829 4:0.46091944 5:0.58074903 6:0.93059397 7:0.23310554 8:0.44900703 9:0.18048781 10:0.93012053 11:0.18408218 12:0.18480252 13:0.42825115 14:0.21786362 15:0.21366414 16:0.26495638 17:0.27440959 18:0.53254437 19:0.17395125 20:0.069869548 21:0.92983979 22:0.18594912 23:0.29978472 24:0.23886015 25:0.20780353 26:0.21501054 27:0.32643029 28:0.2000446 29:0.39343628 30:0.33291698 31:0.19297276 32:0.069336608 33:0.73680252 34:0.069117561 35:0.28657177 36:0.35173047 37:0.059610441 38:0.39203566 39:0.047025155 40:0.11424184 41:0.45678467 42:0.21895035 43:0.7560699 44:0.059666533 45:0.32043043 46:0.092476696 47:0.51719755 48:0.060403466 49:0.20630972 50:0.070285067 
10.55606328618315 1:0.34198347 2:0.20178717 3:0.38982317 4:0.41650805 5:0.56383401 6:0.91221851 7:0.22609013 8:0.38652119 9:0.17073171 10:0.9034735 11:0.24527466 12:0.24854466 13:0.35426012 14:0.32560584 15:0.27795136 16:0.30836207 17:0.33040065 18:0.60236692 19:0.28656793 20:0.10732881 21:0.9125405 22:0.26568118 23:0.26054069 24:0.27010795 25:0.32567233 26:0.28304958 27:0.37842786 28:0.23169024 29:0.18135186 30:0.30965444 31:0.29613957 32:0.087750308 33:0.70068932 34:0.019575989 35:0.31762034 36:0.39258301 37:0.037976921 38:0.30874366 39:0.053994447 40:0.18723036 41:0.40065837 42:0.21926381 43:0.71337217 44:0.039394893 45:0.16623102 46:0.050884806 47:0.50929403 48:0.054050047 49:0.28396583 50:0.10678616 
10.55606328618315 1:0.24444239 2:0.1708028 3:0.33969447 4:0.37945223 5:0.47402334 6:0.89922422 7:0.22336294 8:0.43062302 9:0.22439025 10:0.89442641 11:0.07256823 12:0.07437101 13:0.45067263 14:0.27125105 15:0.22489603 16:0.30649015 17:0.293309 18:0.60118347 19:0.22261433 20:0.02903991 21:0.9041307 22:0.43397805 23:0.3508465 24:0.4099746 25:0.23886244 26:0.34945261 27:0.37954348 28:0.35632113 29:0.20366895 30:0.39728975 31:0.19043976 32:0.063573807 33:0.68597716 34:0.018591272 35:0.44307521 36:0.40395889 37:0.021417649 38:0.35725427 39:0.066694289 40:0.04747783 41:0.34483719 42:0.28360012 43:0.69765127 44:0.037904624 45:0.18632925 46:0.056242526 47:0.51021791 48:0.056510746 49:0.48028362 50:0.029614432 
10.55606328618315 1:0.26877478 2:0.17694899 3:0.33684319 4:0.38642505 5:0.53040677 6:0.88686317 7:0.22793621 8:0.3115792 9:0.18536586 10:0.88509858 11:0.15774547 12:0.15707503 13:0.40134528 14:0.30823165 15:0.22281708 16:0.26224765 17:0.28163293 18:0.53609467 19:0.26829535 20:0.13685492 21:0.88703746 22:0.34200552 23:0.30469859 24:0.23466673 25:0.31428298 26:0.32172477 27:0.30871633 28:0.25944 29:0.1847997 30:0.32840878 31:0.22549592 32:0.079165436 33:0.70802444 34:0.14948288 35:0.31556219 36:0.43558481 37:0.14793985 38:0.27276778 39:0.11864384 40:0.15212813 41:0.31591028 42:0.18597306 43:0.70737773 44:0.073099479 45:0.21678938 46:0.093264788 47:0.5737257 48:0.031136561 49:0.30760583 50:0.13929386 
10.55606328618315 1:0.19622922 2:0.1730264 3:0.32641912 4:0.38251418 5:0.51913005 6:0.88347685 7:0.23087585 8:0.38801447 9:0.19512196 10:0.88062954 11:0.083402671 12:0.083895728 13:0.43946189 14:0.29563668 15:0.22967234 16:0.24644431 17:0.27770755 18:0.50059175 19:0.2601555 20:0.047963824 21:0.88699841 22:0.40307474 23:0.32894227 24:0.33212435 25:0.21099892 26:0.29218766 27:0.29770187 28:0.32399684 29:0.29260814 30:0.36616078 31:0.16284415 32:0.073512815 33:0.69590616 34:0.22250985 35:0.37871751 36:0.43794623 37:0.10887659 38:0.32960731 39:0.078638569 40:0.061499517 41:0.27807537 42:0.18275274 43:0.69306344 44:0.10205251 45:0.30348101 46:0.053709708 47:0.5609293 48:0.04005814 49:0.37318584 50:0.048543476 
10.55606328618315 1:0.23905593 2:0.11176915 3:0.24269609 4:0.29786903 5:0.52275473 6:0.85226524 7:0.18213177 8:0.20895658 9:0.19186991 10:0.84479237 11:0.055245381 12:0.055694532 13:0.34977576 14:0.10872076 15:0.05359919 16:0.16494283 17:0.12599273 18:0.55976331 19:0.065241836 20:0.033688318 21:0.85672998 22:0.11317131 23:0.14119683 24:0.12160782 25:0.25970259 26:0.1905733 27:0.24378225 28:0.056002222 29:0.056720115 30:0.18500586 31:0.18630414 32:0.18069825 33:0.60989857 34:0.1265236 35:0.16739467 36:0.45505723 37:0.07312268 38:0.13826287 39:0.16216652 40:0.047051445 41:0.31911317 42:0.21447392 43:0.61712617 44:0.049286231 45:0.053161763 46:0.1494237 47:0.52985144 48:0.053316481 49:0.11798749 50:0.033470511 
10.55606328618315 1:0.24255137 2:0.14176722 3:0.29823473 4:0.34222212 5:0.47724527 6:0.86828792 7:0.19759153 8:0.18501636 9:0.18699187 10:0.86535174 11:0.17330129 12:0.17416289 13:0.37892377 14:0.22839957 15:0.13957533 16:0.14309129 17:0.20259058 18:0.64260358 19:0.1823795 20:0.10001756 21:0.86712033 22:0.18458968 23:0.14887474 24:0.12370088 25:0.29342386 26:0.20297645 27:0.2139446 28:0.10383555 29:0.078963004 30:0.18546212 31:0.19657989 32:0.16093566 33:0.66899961 34:0.11102565 35:0.19490445 36:0.45236644 37:0.052332383 38:0.12116149 39:0.12630983 40:0.14992921 41:0.32583207 42:0.17878531 43:0.67197955 44:0.03056887 45:0.078161247 46:0.12724817 47:0.54514873 48:0.052835993 49:0.14437653 50:0.1009513 
10.55606328618315 1:0.26598707 2:0.16553667 3:0.33638138 4:0.37441814 5:0.45227543 6:0.89788032 7:0.2176127 8:0.39854237 9:0.21138212 10:0.89372569 11:0.10446464 12:0.10626128 13:0.50672644 14:0.30405247 15:0.2550213 16:0.30458176 17:0.32377154 18:0.60355037 19:0.25354058 20:0.041976675 21:0.90045464 22:0.42775351 23:0.30930206 24:0.36380941 25:0.26634768 26:0.34583229 27:0.37810129 28:0.34957755 29:0.17847809 30:0.35693339 31:0.21354711 32:0.085910901 33:0.67808723 34:0.019115461 35:0.43724364 36:0.40179294 37:0.039369069 38:0.32275376 39:0.067413099 40:0.069713756 41:0.34255829 42:0.28026578 43:0.69166833 44:0.053863585 45:0.16573691 46:0.062616736 47:0.51135737 48:0.048920151 49:0.41016403 50:0.042855475 
10.55606328618315 1:0.27817008 2:0.17353073 3:0.44170132 4:0.38385981 5:0.57954085 6:0.8988325 7:0.24056403 8:0.6125561 9:0.18536586 10:0.89748299 11:0.098400153 12:0.098853603 13:0.36995515 14:0.27682322 15:0.26880151 16:0.44217741 17:0.31869566 18:0.47455624 19:0.24105269 20:0.046880383 21:0.89727479 22:0.46739614 23:0.55137694 24:0.46632516 25:0.27247235 26:0.49751574 27:0.47538015 28:0.43376565 29:0.3259646 30:0.58691573 31:0.24683928 32:0.10205425 33:0.68857539 34:0.082301699 35:0.48423585 36:0.40115312 37:0.063175626 38:0.56318176 39:0.19217293 40:0.059787102 41:0.43077001 42:0.31592724 43:0.69873834 44:0.13693003 45:0.28246573 46:0.13942759 47:0.52452356 48:0.085746042 49:0.50866926 50:0.047181357 
10.55606328618315 1:0.3636536 2:0.16262488 3:0.39296797 4:0.3667829 5:0.59363669 6:0.88932973 7:0.2455543 8:0.33886856 9:0.12520325 10:0.88425159 11:0.14114583 12:0.14091286 13:0.29820627 14:0.19565879 15:0.13524655 16:0.37343854 17:0.17161389 18:0.53136098 19:0.16978726 20:0.04010766 21:0.88957089 22:0.24149343 23:0.26419783 24:0.1347528 25:0.42314771 26:0.4363625 27:0.38887507 28:0.14686072 29:0.14822654 30:0.2889269 31:0.34881219 32:0.041043065 33:0.67828298 34:0.16538087 35:0.19281644 36:0.41982713 37:0.15071815 38:0.30498299 39:0.071134835 40:0.082222246 41:0.44183052 42:0.23167543 43:0.68576473 44:0.10255779 45:0.11715966 46:0.06169109 47:0.58464587 48:0.024910942 49:0.16942178 50:0.040644038 
10.55606328618315 1:0.4132345 2:0.2074853 3:0.48294774 4:0.42198554 5:0.68103099 6:0.892313 7:0.26657566 8:0.31516689 9:0.10081301 10:0.89667016 11:0.41305879 12:0.41140732 13:0.27802688 14:0.43266353 15:0.41905522 16:0.38680053 17:0.46114981 18:0.45443788 19:0.40612289 20:0.18629533 21:0.8896029 22:0.2913096 23:0.32009199 24:0.21028 25:0.49659061 26:0.56422919 27:0.41235912 28:0.29491699 29:0.12325196 30:0.34193373 31:0.38453999 32:0.28411847 33:0.74951291 34:0.03366014 35:0.34478536 36:0.4279156 37:0.024918044 38:0.28158176 39:0.20662743 40:0.31584358 41:0.49565664 42:0.25901547 43:0.7419979 44:0.029462852 45:0.10415103 46:0.14237483 47:0.5439347 48:0.14456929 49:0.18821178 50:0.18668059 
10.55606328618315 1:0.079899557 2:0.11745757 3:0.29116356 4:0.30516323 5:0.48489732 6:0.87983334 7:0.23092262 8:0.05842948 9:0.21788618 10:0.85680479 11:0.10614219 12:0.10594788 13:0.45067263 14:0.076509804 15:0.058951914 16:0.02913307 17:0.099100694 18:0.63786983 19:0.048744652 20:0.055500761 21:0.8970741 22:0.043967247 23:0.019435536 24:0.06257318 25:0.066344112 26:0.022450358 27:0.07002832 28:0.037841801 29:0.038439184 30:0.039642267 31:0.054652207 32:0.11341739 33:0.56920034 34:0.062681846 35:0.097655997 36:0.40907469 37:0.063797541 38:0.026369393 39:0.13789257 40:0.076363772 41:0.34198794 42:0.33662683 43:0.58727932 44:0.026756587 45:0.026840318 46:0.15386194 47:0.5539667 48:0.084209606 49:0.046769708 50:0.055567484 
10.55606328618315 1:0.31926253 2:0.1719097 3:0.43907392 4:0.38224426 5:0.57390249 6:0.89711523 7:0.2397287 8:0.57323933 9:0.19186991 10:0.89560354 11:0.12385416 12:0.1242243 13:0.36995515 14:0.31855026 15:0.30739072 16:0.45543638 17:0.35656258 18:0.51242602 19:0.28271368 20:0.045116588 21:0.89665544 22:0.47597575 23:0.50049555 24:0.43103415 25:0.32314056 26:0.51342863 27:0.48923662 28:0.44163054 29:0.27823153 30:0.53712744 31:0.28738195 32:0.12357715 33:0.68907082 34:0.07653489 35:0.49169379 36:0.40606904 37:0.096535675 38:0.52261293 39:0.19836679 40:0.071475543 41:0.42373154 42:0.32060355 43:0.69750762 44:0.13243251 45:0.23634477 46:0.13421956 47:0.52090359 48:0.079231158 49:0.45508552 50:0.045486402 
10.55606328618315 1:0.23302962 2:0.045393247 3:0.20479944 4:0.1669466 5:0.47764802 6:0.76745623 7:0.095818639 8:0.24620008 9:0.28780487 10:0.76313555 11:0.18231872 12:0.18236692 13:0.49775782 14:0.21061319 15:0.1978305 16:0.20418267 17:0.26193592 18:0.64852077 19:0.16751412 20:0.058689002 21:0.79232353 22:0.18467797 23:0.14880033 24:0.18333609 25:0.21056774 26:0.18899448 27:0.26910287 28:0.16850948 29:0.075157337 30:0.18874831 31:0.18909074 32:0.053416647 33:0.45404488 34:0.05305041 35:0.26281422 36:0.48418072 37:0.02110308 38:0.183139 39:0.026610784 40:0.11619814 41:0.16860434 42:0.10931486 43:0.48142755 44:0.029538969 45:0.05888224 46:0.036364853 47:0.469872 48:0.057793748 49:0.17176658 50:0.058950644 
10.55606328618315 1:0.19827159 2:0.046091862 3:0.18453261 4:0.17084481 5:0.48127267 6:0.77811682 7:0.090650298 8:0.20480172 9:0.26504067 10:0.77451795 11:0.14819971 12:0.148228 13:0.60538119 14:0.18906359 15:0.16930005 16:0.16306813 17:0.23879631 18:0.70177519 19:0.14194401 20:0.039983023 21:0.78770059 22:0.173043 23:0.11969312 24:0.17505288 25:0.17893493 26:0.15569286 27:0.22985739 28:0.15216534 29:0.067249618 30:0.15776119 31:0.15285382 32:0.021782247 33:0.45322871 34:0.061036061 35:0.25103226 36:0.46762258 37:0.030377738 38:0.14413704 39:0.020093985 40:0.088853732 41:0.13910316 42:0.1100788 43:0.48344335 44:0.044543844 45:0.055271666 46:0.055505741 47:0.47558105 48:0.048358224 49:0.16094847 50:0.040680457 
10.55606328618315 1:0.19735104 2:0.038191099 3:0.18056759 4:0.15125559 5:0.47643977 6:0.75003886 7:0.079542689 8:0.10981367 9:0.26991871 10:0.748478 11:0.17412691 12:0.17322206 13:0.68834078 14:0.15245184 15:0.12653342 16:0.097996064 17:0.19068971 18:0.70650893 19:0.11174364 20:0.06696029 21:0.74757487 22:0.095578469 23:0.047613826 24:0.11215594 25:0.17681824 26:0.082357571 27:0.15466711 28:0.078958027 29:0.032707259 30:0.077197485 31:0.15948579 32:0.016247725 33:0.42519587 34:0.04958161 35:0.16964304 36:0.48307341 37:0.0085486341 38:0.062690355 39:0.013005112 40:0.12337591 41:0.15420826 42:0.094537124 43:0.45447427 44:0.029758377 45:0.02756758 46:0.043041039 47:0.55929404 48:0.062035691 49:0.097109869 50:0.067881696 
10.55606328618315 1:0.24688172 2:0.35056809 3:0.72374421 4:0.57373732 5:0.56262583 6:0.96561986 7:0.27569619 8:0.39177066 9:0.18211381 10:0.96978915 11:0.19853389 12:0.19888517 13:0.38565022 14:0.21862747 15:0.27246583 16:0.28260735 17:0.30113068 18:0.55029589 19:0.19358729 20:0.053894814 21:0.96074611 22:0.27214643 23:0.3404904 24:0.39272571 25:0.20912139 26:0.23240058 27:0.27263907 28:0.33406103 29:0.34861732 30:0.33519143 31:0.24418287 32:0.026945487 33:0.80458331 34:0.046723347 35:0.36140269 36:0.27402064 37:0.030334817 38:0.39270484 39:0.055295579 40:0.11320753 41:0.67195082 42:0.18171974 43:0.85864139 44:0.031767417 45:0.29430181 46:0.033173919 47:0.66713291 48:0.037657715 49:0.38031071 50:0.053914577 
10.55606328618315 1:0.30579889 2:0.11029558 3:0.45796144 4:0.29600266 5:0.55819571 6:0.89862382 7:0.14430298 8:0.30890602 9:0.21300814 10:0.89806592 11:0.20729081 12:0.20760401 13:0.41255605 14:0.20476805 15:0.23781987 16:0.27520797 17:0.26730129 18:0.57869822 19:0.17787886 20:0.056214899 21:0.89824563 22:0.17513758 23:0.19955435 24:0.2635484 25:0.25748456 26:0.21846737 27:0.30035412 28:0.22590505 29:0.18678431 30:0.22296058 31:0.28789625 32:0.033658847 33:0.59659743 34:0.067155115 35:0.26158813 36:0.3505064 37:0.051291689 38:0.27233171 39:0.030554619 40:0.12010004 41:0.47013959 42:0.13527116 43:0.64364707 44:0.027605815 45:0.14711754 46:0.038641408 47:0.55167168 48:0.022593904 49:0.22651154 50:0.05647295 
10.55606328618315 1:0.34295046 2:0.21178585 3:0.60658383 4:0.43228006 5:0.57390249 6:0.94564754 7:0.22835717 8:0.4248243 9:0.18373983 10:0.94957721 11:0.11078681 12:0.11053526 13:0.46412557 14:0.22177002 15:0.22004201 16:0.37217766 17:0.28264508 18:0.56923079 19:0.17339122 20:0.035133891 21:0.94155407 22:0.22949557 23:0.28846923 24:0.31533399 25:0.27526233 26:0.29610303 27:0.38474682 28:0.27153233 29:0.24946401 30:0.30710486 31:0.32581174 32:0.031762458 33:0.71322811 34:0.12704128 35:0.33908373 36:0.29102725 37:0.024762651 38:0.39908633 39:0.06994947 40:0.064791508 41:0.67687893 42:0.16981651 43:0.7689811 44:0.037315972 45:0.17234917 46:0.10635164 47:0.56833529 48:0.02916418 49:0.24697347 50:0.0371968 
10.55606328618315 1:0.24670622 2:0.076769628 3:0.44409421 4:0.23700447 5:0.51832455 6:0.86279571 7:0.12970154 8:0.27220351 9:0.20487803 10:0.84832102 11:0.18956861 12:0.18873012 13:0.52690583 14:0.22588602 15:0.25107706 16:0.22916701 17:0.29961917 18:0.72899407 19:0.18731458 20:0.038022656 21:0.86816579 22:0.22696009 23:0.16791481 24:0.28311232 25:0.20380209 26:0.18497731 27:0.27224529 28:0.28624359 29:0.13031043 30:0.18974312 31:0.21133348 32:0.034952167 33:0.51381814 34:0.088635921 35:0.33235392 36:0.39209953 37:0.035047594 38:0.23205654 39:0.0258903 40:0.097976029 41:0.44683835 42:0.11879004 43:0.5518949 44:0.032439847 45:0.088470265 46:0.053076442 47:0.51136994 48:0.058813132 49:0.22049609 50:0.039605353 
10.55606328618315 1:0.28858134 2:0.20330226 3:0.61377078 4:0.41877428 5:0.5195328 6:0.94783014 7:0.23779389 8:0.29420757 9:0.20487803 10:0.95119268 11:0.12575302 12:0.12689109 13:0.43946189 14:0.16340666 15:0.18181077 16:0.27365121 17:0.22607875 18:0.52899408 19:0.12460291 20:0.037884086 21:0.94246835 22:0.16599564 23:0.19941401 24:0.27157518 25:0.25540167 26:0.21558763 27:0.28003258 28:0.21910033 29:0.20097622 30:0.20895083 31:0.27602229 32:0.038359571 33:0.69569999 34:0.094744109 35:0.2701996 36:0.2755816 37:0.026812298 38:0.28173241 39:0.053276435 40:0.070682205 41:0.69858003 42:0.12898901 43:0.75764602 44:0.022125943 45:0.14055905 46:0.05769936 47:0.6025238 48:0.030306902 49:0.21071915 50:0.039032947 
10.55606328618315 1:0.092990071 2:0.1272845 3:0.43181521 4:0.31879011 5:0.50261784 6:0.92561376 7:0.17431903 8:0.10931234 9:0.22439025 10:0.92608398 11:0.20556273 12:0.20646593 13:0.49327353 14:0.11040124 15:0.10119639 16:0.058762383 17:0.14987256 18:0.58106512 19:0.07152658 20:0.068344131 21:0.92120671 22:0.071057387 23:0.058701918 24:0.12558089 25:0.080668949 26:0.041050654 27:0.10143249 28:0.082763672 29:0.08758793 30:0.074885629 31:0.062235374 32:0.026236752 33:0.59864712 34:0.041433606 35:0.14978617 36:0.2833783 37:0.023883015 38:0.07864362 39:0.01336735 40:0.12896819 41:0.33977062 42:0.090295874 43:0.65844172 44:0.023619598 45:0.069670714 46:0.027562683 47:0.52455473 48:0.022731265 49:0.095662333 50:0.068894871 
10.55606328618315 1:0.084047332 2:0.125255 3:0.47884592 4:0.31724703 5:0.52396291 6:0.91052353 7:0.20936991 8:0.32457402 9:0.21951219 10:0.9140746 11:0.094220079 12:0.093637548 13:0.44618833 14:0.098458916 15:0.10784198 16:0.14202796 17:0.13108099 18:0.59526628 19:0.082831331 20:0.042355791 21:0.90749085 22:0.12759848 23:0.27227762 24:0.33977824 25:0.073544383 26:0.11772766 27:0.1438408 28:0.18461142 29:0.46006477 30:0.27326968 31:0.076409243 32:0.025139121 33:0.62228459 34:0.051581059 35:0.19894066 36:0.32968268 37:0.044964023 38:0.32423419 39:0.029035311 40:0.075214259 41:0.41650489 42:0.096513905 43:0.67369109 44:0.019739427 45:0.3819496 46:0.02610301 47:0.62301093 48:0.017230138 49:0.2939615 50:0.043009054 
10.55606328618315 1:0.13109833 2:0.13633987 3:0.52083892 4:0.33528161 5:0.53846151 6:0.91576993 7:0.1900128 8:0.11476107 9:0.20487803 10:0.91741544 11:0.30549017 12:0.30468202 13:0.4103139 14:0.15380293 15:0.14633749 16:0.082709894 17:0.20142213 18:0.67218935 19:0.10982821 20:0.096811824 21:0.91225797 22:0.09074001 23:0.074975058 24:0.13596596 25:0.11690142 26:0.067194052 27:0.10615164 28:0.10334796 29:0.11869653 30:0.09112189 31:0.11576701 32:0.042949125 33:0.63529158 34:0.034914125 35:0.17066203 36:0.33048448 37:0.016064191 38:0.094387874 39:0.0467439 40:0.18780221 41:0.51675415 42:0.13930672 43:0.68533617 44:0.018243678 45:0.096774921 46:0.048714042 47:0.57289273 48:0.051848073 49:0.11016136 50:0.099239729 
10.55606328618315 1:0.11057152 2:0.1315183 3:0.49189484 4:0.3265928 5:0.50624239 6:0.91897786 7:0.18448204 8:0.099014953 9:0.22601627 10:0.91989994 11:0.24522886 12:0.24984632 13:0.55605382 14:0.14271373 15:0.11424566 16:0.078690782 17:0.15396075 18:0.60000002 19:0.10512827 20:0.10338601 21:0.91464829 22:0.11484115 23:0.066749513 24:0.1272054 25:0.11430306 26:0.079135649 27:0.095700465 28:0.094495736 29:0.10956707 30:0.071439505 31:0.096396931 32:0.042168602 33:0.61679697 34:0.046325102 35:0.15397932 36:0.31219372 37:0.015626421 38:0.087740049 39:0.043816518 40:0.17265588 41:0.41615066 42:0.094740883 43:0.67052305 44:0.018113319 45:0.085380815 46:0.060297217 47:0.58320254 48:0.060542054 49:0.10712138 50:0.10398065 
10.55606328618315 1:0.17987241 2:0.084144212 3:0.46163461 4:0.2478403 5:0.50181234 6:0.86216938 7:0.1414634 8:0.15204565 9:0.24227645 10:0.86294454 11:0.36897177 12:0.36766386 13:0.45964125 14:0.2388491 15:0.30910909 16:0.16142814 17:0.32312155 18:0.72899407 19:0.23045848 20:0.091785774 21:0.85764146 22:0.17767918 23:0.11640008 24:0.17232421 25:0.16015966 26:0.13457631 27:0.16309009 28:0.23839986 29:0.089370534 30:0.12487487 31:0.17935808 32:0.061100751 33:0.56244886 34:0.043406598 35:0.26158768 36:0.39917743 37:0.018658515 38:0.14126037 39:0.027074186 40:0.20595969 41:0.46209586 42:0.10904951 43:0.60210657 44:0.014614071 45:0.078120194 46:0.047787618 47:0.65341073 48:0.055772688 49:0.14915182 50:0.090295061 
10.55606328618315 1:0.11065573 2:0.25320831 3:0.5819965 4:0.47509328 5:0.44502613 6:0.94870484 7:0.22214535 8:0.20938167 9:0.31544718 10:0.95169383 11:0.039357714 12:0.040064152 13:0.67937219 14:0.060272675 15:0.051015895 16:0.13380401 17:0.085681215 18:0.56686395 19:0.036185957 20:0.010737775 21:0.94555169 22:0.067996733 23:0.14190091 24:0.14061919 25:0.092882618 26:0.10275063 27:0.14205079 28:0.072626516 29:0.2402069 30:0.14154187 31:0.10171593 32:0.039479334 33:0.75547034 34:0.07526689 35:0.12474558 36:0.31145734 37:0.047908995 38:0.20070061 39:0.032764703 40:0.021248048 41:0.72677183 42:0.16170545 43:0.80495441 44:0.028481103 45:0.17060201 46:0.033638526 47:0.64239597 48:0.036542308 49:0.11506679 50:0.010334682 
10.55606328618315 1:0.22055677 2:0.31324416 3:0.65655327 4:0.53395844 5:0.58477646 6:0.96706367 7:0.21991022 8:0.28008658 9:0.27154472 10:0.96853304 11:0.14688116 12:0.14613962 13:0.573991 14:0.13112593 15:0.1462744 16:0.22059555 17:0.16575217 18:0.58934909 19:0.12128093 20:0.037751801 21:0.96361947 22:0.15920053 23:0.22104856 24:0.16631795 25:0.18291514 26:0.20214246 27:0.23039041 28:0.15180793 29:0.20491549 30:0.23060621 31:0.20800725 32:0.030300679 33:0.7596482 34:0.23204094 35:0.18129262 36:0.25352079 37:0.059900582 38:0.266433 39:0.39119217 40:0.081719898 41:0.83863628 42:0.2106882 43:0.82101989 44:0.095470332 45:0.14981814 46:0.348571 47:0.65955687 48:0.048055936 49:0.18293749 50:0.03642232 
10.55606328618315 1:0.18536736 2:0.076679438 3:0.35489222 4:0.23357166 5:0.52275473 6:0.86863381 7:0.11074913 8:0.28181595 9:0.25853658 10:0.86152703 11:0.16825159 12:0.16774188 13:0.50672644 14:0.16152509 15:0.18472914 16:0.21076436 17:0.21311222 18:0.47692311 19:0.14168711 20:0.052895728 21:0.86927587 22:0.18073069 23:0.21499778 24:0.25586513 25:0.15092285 26:0.17219408 27:0.21832474 28:0.22380665 29:0.18534631 30:0.22379863 31:0.172273 32:0.02125255 33:0.51693082 34:0.037928976 35:0.24215898 36:0.36972889 37:0.0080917627 38:0.27296302 39:0.044458408 40:0.096696064 41:0.35921317 42:0.12991112 43:0.56074369 44:0.051852707 45:0.1421895 46:0.061657034 47:0.61413807 48:0.014734595 49:0.24114265 50:0.053949524 
10.55606328618315 1:0.03937545 2:0.076314971 3:0.30922017 4:0.2342346 5:0.47362059 6:0.87004316 7:0.13318416 8:0.052982736 9:0.24390244 10:0.8634693 11:0.028067611 12:0.02759869 13:0.52466363 14:0.03543463 15:0.016077166 16:0.016530961 17:0.057574786 18:0.69822484 19:0.011030294 20:0.0071550692 21:0.87898707 22:0.027258335 23:0.018917205 24:0.058113936 25:0.028041167 26:0.010177194 27:0.05224371 28:0.016227651 29:0.1002802 30:0.035054509 31:0.015274085 32:0.023987716 33:0.51323026 34:0.034664653 35:0.074344575 36:0.36311427 37:0.033243928 38:0.028627772 39:0.045900647 40:0.016038556 41:0.33440447 42:0.14123687 43:0.55748391 44:0.04278934 45:0.06930916 46:0.040136952 47:0.54873157 48:0.030919233 49:0.046071194 50:0.0070958505 
10.55606328618315 1:0.015211714 2:0.067214735 3:0.3001073 4:0.21438594 5:0.52718484 6:0.84473264 7:0.10511914 8:0.014880742 9:0.17235772 10:0.84029359 11:0.027499719 12:0.028385928 13:0.46636772 14:0.030148076 15:0.0085710753 16:0.0076557491 17:0.040097076 18:0.55739641 19:0.0066731623 20:0.010933739 21:0.84591085 22:0.018194547 23:0.0087497104 24:0.035174176 25:0.012429236 26:0.0051723826 27:0.017579736 28:0.0060099107 29:0.014378457 30:0.009056679 31:0.0088366484 32:0.066449508 33:0.50643736 34:0.013113989 35:0.055604964 36:0.40095136 37:0.032960139 38:0.010876545 39:0.02490722 40:0.021992024 41:0.3235698 42:0.13688214 43:0.54539424 44:0.017650682 45:0.014060968 46:0.021704091 47:0.63360429 48:0.030962754 49:0.024342149 50:0.010774504 
10.55606328618315 1:0.080522954 2:0.1163929 3:0.40303016 4:0.30447087 5:0.44744259 6:0.88085014 7:0.17531338 8:0.18184173 9:0.32682925 10:0.87705779 11:0.065372407 12:0.066091001 13:0.61883408 14:0.06536705 15:0.061196059 16:0.10947952 17:0.096856646 18:0.59644973 19:0.045333374 20:0.014811661 21:0.88653463 22:0.071978211 23:0.14888406 24:0.13734509 25:0.072039425 26:0.096401274 27:0.11195919 28:0.067920253 29:0.23852021 30:0.1508401 31:0.077723972 32:0.065498717 33:0.62351507 34:0.12268727 35:0.13306648 36:0.41335255 37:0.061060403 38:0.17678532 39:0.044800729 40:0.034538243 41:0.37240696 42:0.1440547 43:0.65502203 44:0.034027811 45:0.19283623 46:0.07098151 47:0.59203243 48:0.033515699 49:0.12076085 50:0.013415476 
10.55606328618315 1:0.38539824 2:0.13726172 3:0.50428784 4:0.33589137 5:0.67780906 6:0.92044717 7:0.13213441 8:0.59790879 9:0.24878049 10:0.92184722 11:0.075126305 12:0.075377136 13:0.45515695 14:0.19520113 15:0.19328099 16:0.4770602 17:0.23739488 18:0.47692311 19:0.1605798 20:0.020570638 21:0.91629767 22:0.27018198 23:0.43746787 24:0.40365571 25:0.32966459 26:0.41167369 27:0.49493483 28:0.30383381 29:0.37140155 30:0.4666338 31:0.36662653 32:0.043297172 33:0.62814069 34:0.11912394 35:0.34765869 36:0.31428346 37:0.035500858 38:0.55573869 39:0.25619578 40:0.043104354 41:0.57095933 42:0.14171633 43:0.68108845 44:0.057236671 45:0.27008075 46:0.20507364 47:0.55997181 48:0.038062736 49:0.36051503 50:0.02136603 
10.55606328618315 1:0.45267898 2:0.12791924 3:0.56048661 4:0.32443571 5:0.58236003 6:0.90983242 7:0.15232004 8:0.7633186 9:0.24227645 10:0.91317171 11:0.088007979 12:0.087935254 13:0.68385649 14:0.21504258 15:0.22493871 16:0.60121489 17:0.26768821 18:0.59881657 19:0.18104342 20:0.022968737 21:0.90449989 22:0.32619843 23:0.55930626 24:0.53186566 25:0.38878515 26:0.51591974 27:0.61914098 28:0.38345787 29:0.48373213 30:0.58870548 31:0.4269883 32:0.025696535 33:0.62917262 34:0.059803348 35:0.41756177 36:0.33637285 37:0.062117122 38:0.71883339 39:0.021429872 40:0.049963396 41:0.58243132 42:0.18600415 43:0.6775502 44:0.043501373 45:0.35217944 46:0.035473678 47:0.56462377 48:0.037881281 49:0.47875637 50:0.023871752 
10.55606328618315 1:0.078079924 2:0.2142531 3:0.67600214 4:0.43475783 5:0.59162301 6:0.94826669 7:0.18577251 8:0.33846578 9:0.23252033 10:0.95166206 11:0.071362756 12:0.071197256 13:0.55605382 14:0.06843701 15:0.071099907 16:0.10732311 17:0.10642761 18:0.67218935 19:0.045366641 20:0.018724808 21:0.94755781 22:0.067176677 23:0.20745732 24:0.15442954 25:0.060814947 26:0.07371518 27:0.12945053 28:0.083865218 29:0.75775951 30:0.21911329 31:0.061599489 32:0.027916133 33:0.70366335 34:0.027675619 35:0.13657865 36:0.276526 37:0.05335344 38:0.31960344 39:0.025768194 40:0.040739819 41:0.66082054 42:0.16893294 43:0.76221323 44:0.034382533 45:0.54798836 46:0.036837004 47:0.63493079 48:0.015746923 49:0.12322757 50:0.0180426 
10.55606328618315 1:0.48741725 2:0.14809315 3:0.60327399 4:0.35358697 5:0.60370517 6:0.92164934 7:0.1642849 8:0.73179793 9:0.2504065 10:0.9232083 11:0.1178693 12:0.11743862 13:0.6748879 14:0.33089763 15:0.37882075 16:0.61268735 17:0.42143366 18:0.57869822 19:0.29492077 20:0.029282091 21:0.9164865 22:0.48442793 23:0.54154098 24:0.68120772 25:0.42880589 26:0.53895533 27:0.63141042 28:0.59348685 29:0.39231399 30:0.57153708 31:0.45796984 32:0.014683502 33:0.64976251 34:0.030871099 35:0.61191505 36:0.32480967 37:0.041666996 38:0.69003057 39:0.029875126 40:0.063147351 41:0.61084867 42:0.1775368 43:0.69969738 44:0.080124244 45:0.28616887 46:0.034919426 47:0.55837637 48:0.02006096 49:0.62221187 50:0.031028043 
10.55606328618315 1:0.036781292 2:0.13793947 3:0.57180905 4:0.33711526 5:0.69230765 6:0.9150117 7:0.10951309 8:0.051345751 9:0.14796747 10:0.91346276 11:0.045398328 12:0.045279805 13:0.3878924 14:0.033660442 15:0.011413701 16:0.011045092 17:0.056146264 18:0.50059175 19:0.008836301 20:0.014207393 21:0.91564268 22:0.02220154 23:0.017647626 24:0.039784674 25:0.030146988 26:0.0073236939 27:0.047353972 28:0.007970538 29:0.083785199 30:0.032681696 31:0.014130493 32:0.045181468 33:0.62972403 34:0.020306524 35:0.066691078 36:0.3361727 37:0.025740044 38:0.024713237 39:0.0079933833 40:0.031933967 41:0.72595191 42:0.16962162 43:0.67740703 44:0.041942809 45:0.056061022 46:0.0066637462 47:0.61374921 48:0.059320208 49:0.035484996 50:0.014651293 
10.55606328618315 1:0.43058819 2:0.15397982 3:0.55774683 4:0.35644096 5:0.61860651 6:0.92449391 7:0.16173896 8:0.50850564 9:0.21951219 10:0.92819446 11:0.12746963 12:0.12877773 13:0.51121074 14:0.23629951 15:0.25220528 16:0.43410328 17:0.29145756 18:0.4994083 19:0.19850129 20:0.03742554 21:0.9191916 22:0.29083115 23:0.35500544 24:0.44637614 25:0.3589282 26:0.3446193 27:0.46022379 28:0.35189256 29:0.28542894 30:0.38073084 31:0.40600902 32:0.05320679 33:0.65962625 34:0.050229967 35:0.38531026 36:0.3190214 37:0.038983807 38:0.46515471 39:0.043358777 40:0.07840354 41:0.62841988 42:0.16405326 43:0.71108598 44:0.03625413 45:0.2202023 46:0.049449068 47:0.56408983 48:0.051949538 49:0.41067451 50:0.038942661 
10.55606328618315 1:0.35396564 2:0.3257435 3:0.77019602 4:0.54541188 5:0.619412 6:0.96567798 7:0.23943916 8:0.6019659 9:0.24227645 10:0.96736169 11:0.20083641 12:0.20052454 13:0.56502241 14:0.33953625 15:0.38819847 16:0.41224307 17:0.45759404 18:0.57633138 19:0.28443468 20:0.048089609 21:0.96196675 22:0.41402161 23:0.40550226 24:0.69011849 25:0.2957049 26:0.32347584 27:0.44649324 28:0.53248185 29:0.47573209 30:0.4388251 31:0.32275522 32:0.025864402 33:0.77418637 34:0.03671661 35:0.59448153 36:0.26522782 37:0.029233865 38:0.55529958 39:0.028826039 40:0.11640476 41:0.78552532 42:0.19513106 43:0.83260989 44:0.029802164 45:0.37330213 46:0.034376506 47:0.54516959 48:0.031594291 49:0.57726842 50:0.05078752 
10.55606328618315 1:0.42321417 2:0.1678793 3:0.6150189 4:0.37364805 5:0.66894883 6:0.92645705 7:0.16815078 8:0.60038483 9:0.20650408 10:0.92792749 11:0.094873935 12:0.095090315 13:0.42376679 14:0.23042238 15:0.256192 16:0.46361119 17:0.30854619 18:0.48520708 19:0.18623869 20:0.034173511 21:0.92288268 22:0.29747999 23:0.39987043 24:0.55110592 25:0.33653936 26:0.34982601 27:0.4979063 28:0.40368271 29:0.383156 30:0.42788187 31:0.38760644 32:0.019245895 33:0.67679799 34:0.039446376 35:0.44719899 36:0.33004427 37:0.031781476 38:0.5549174 39:0.013081234 40:0.060830679 41:0.62108016 42:0.18744873 43:0.72555327 44:0.040976305 45:0.28343147 46:0.039616954 47:0.53830171 48:0.020277021 49:0.45347777 50:0.036314007 
10.55606328618315 1:0.14426838 2:0.14920363 3:0.43811539 4:0.35095593 5:0.48248082 6:0.92072105 7:0.19326507 8:0.33079469 9:0.23252033 10:0.92294443 11:0.11316644 12:0.11267955 13:0.4304933 14:0.17090306 15:0.15181835 16:0.19222404 17:0.19491574 18:0.60473371 19:0.14687361 20:0.038803656 21:0.92238051 22:0.24383746 23:0.33405212 24:0.26403132 25:0.15787825 26:0.24741474 27:0.2197233 28:0.19511871 29:0.28159064 30:0.35571554 31:0.12710194 32:0.018607488 33:0.65400261 34:0.060156006 35:0.25682476 36:0.3276628 37:0.041241501 38:0.2956205 39:0.035217993 40:0.071489073 41:0.27415815 42:0.15787414 43:0.70311183 44:0.032797497 45:0.26651987 46:0.060539976 47:0.55634433 48:0.020129822 49:0.27521068 50:0.037933942 
10.55606328618315 1:0.10683127 2:0.20025635 3:0.56626719 4:0.41630042 5:0.5195328 6:0.94379991 7:0.21572588 8:0.28772789 9:0.19837399 10:0.94782031 11:0.17941391 12:0.17935123 13:0.38116592 14:0.12078153 15:0.12208799 16:0.11322471 17:0.13965108 18:0.70769238 19:0.10596322 20:0.10255951 21:0.94231725 22:0.12203901 23:0.23064505 24:0.20311938 25:0.098653823 26:0.10250942 27:0.14657244 28:0.12964921 29:0.44112024 30:0.25063372 31:0.083313838 32:0.023683932 33:0.7005735 34:0.097962461 35:0.15184912 36:0.2883651 37:0.071057506 38:0.258809 39:0.076039083 40:0.15046765 41:0.40621257 42:0.1651551 43:0.7582587 44:0.044239171 45:0.39324594 46:0.083249927 47:0.58295369 48:0.026514012 49:0.21283872 50:0.10232322 
10.55606328618315 1:0.054390006 2:0.1209271 3:0.43493098 4:0.31114265 5:0.48610547 6:0.90322751 7:0.15198964 8:0.071104757 9:0.22113821 10:0.90639001 11:0.063261166 12:0.063046798 13:0.46860987 14:0.052036602 15:0.029452393 16:0.032580826 17:0.073775247 18:0.64023668 19:0.021030018 20:0.021370301 21:0.90601355 22:0.033066798 23:0.042711545 24:0.059281971 25:0.049619969 26:0.029342365 27:0.061367698 28:0.022050809 29:0.098469369 30:0.056043975 31:0.036413141 32:0.013031937 33:0.62062323 34:0.014205188 35:0.083888769 36:0.34593695 37:0.012828722 38:0.049057916 39:0.010479985 40:0.040649988 41:0.3474564 42:0.16084771 43:0.66771728 44:0.019816678 45:0.089614175 46:0.018865203 47:0.59745115 48:0.018732268 49:0.050193965 50:0.021968672 
10.55606328618315 1:0.23862836 2:0.16979331 3:0.5109573 4:0.37876001 5:0.50745064 6:0.93729174 7:0.16873325 8:0.35892859 9:0.20325202 10:0.9385249 11:0.11363851 12:0.1131284 13:0.49327353 14:0.207234 15:0.22576375 16:0.29659089 17:0.25244239 18:0.6130178 19:0.18562356 20:0.04126149 21:0.93567365 22:0.25157025 23:0.28932491 24:0.32751963 25:0.22162528 26:0.28050777 27:0.30166855 28:0.29940966 29:0.24429527 30:0.29946834 31:0.22599262 32:0.035375409 33:0.66053712 34:0.13965276 35:0.31827572 36:0.29166067 37:0.12798259 38:0.34576386 39:0.017186085 40:0.074628189 41:0.58148324 42:0.17711392 43:0.71897215 44:0.083231114 45:0.18719396 46:0.01722003 47:0.63325632 48:0.025658345 49:0.29729125 50:0.041576084 
10.55606328618315 1:0.2641741 2:0.31819189 3:0.56588018 4:0.5386681 5:0.67740631 6:0.9812783 7:0.25666854 8:0.23332182 9:0.19837399 10:0.9665997 11:0.39008904 12:0.38870797 13:0.52914798 14:0.20825213 15:0.24927191 16:0.19863594 17:0.29858249 18:0.51242602 19:0.1721586 20:0.087726161 21:0.97871536 22:0.13000317 23:0.12994951 24:0.15324345 25:0.21826924 26:0.16439697 27:0.2411191 28:0.16287573 29:0.13694498 30:0.1583045 31:0.23601089 32:0.15956795 33:0.63711774 34:0.13686669 35:0.23046447 36:0.17651883 37:0.056452051 38:0.18831572 39:0.13271213 40:0.22090429 41:0.64188188 42:0.19897819 43:0.70797616 44:0.057138909 45:0.091679417 46:0.14356628 47:0.59189814 48:0.079700597 49:0.11807563 50:0.088521004 
10.55606328618315 1:0.209245 2:0.25926787 3:0.50558913 4:0.48416707 5:0.6069271 6:0.97295892 7:0.25793618 8:0.30120856 9:0.23414634 10:0.96565861 11:0.21691999 12:0.21638013 13:0.49103138 14:0.17201617 15:0.19443178 16:0.21238819 17:0.2361566 18:0.50887573 19:0.1406585 20:0.10757655 21:0.971407 22:0.13918813 23:0.1882 24:0.17842866 25:0.18277717 26:0.16347903 27:0.24389291 28:0.17244925 29:0.23287433 30:0.20728812 31:0.1867775 32:0.026566168 33:0.65595597 34:0.060113892 35:0.22753039 36:0.1960506 37:0.05153051 38:0.26507556 39:0.035415567 40:0.14486167 41:0.48380581 42:0.13838898 43:0.72817647 44:0.0561276 45:0.16960594 46:0.064874955 47:0.57719374 48:0.11217009 49:0.14579321 50:0.10827959 
10.55606328618315 1:0.21762441 2:0.21720393 3:0.48235431 4:0.43466899 5:0.60209417 6:0.96553224 7:0.21197988 8:0.21809527 9:0.20487803 10:0.9610768 11:0.18426754 12:0.18346144 13:0.62331837 14:0.11316825 15:0.14121026 16:0.17506738 17:0.18526419 18:0.47455624 19:0.085924961 20:0.039234392 21:0.96407872 22:0.071617559 23:0.11824486 24:0.10784882 25:0.16782291 26:0.12458248 27:0.22234952 28:0.1057543 29:0.11225718 30:0.14891057 31:0.18283102 32:0.037521258 33:0.64720905 34:0.056258075 35:0.16007882 36:0.20759752 37:0.069579698 38:0.17528324 39:0.032312799 40:0.090592422 41:0.42536774 42:0.15718715 43:0.71992588 44:0.041096106 45:0.082957767 46:0.048389692 47:0.55458272 48:0.090514682 49:0.0765232 50:0.039843585 
10.55606328618315 1:0.159794 2:0.20947002 3:0.44267666 4:0.42741436 5:0.63471603 6:0.96657109 7:0.22989391 8:0.27287361 9:0.19674797 10:0.96536279 11:0.16427898 12:0.16343217 13:0.47757849 14:0.13560462 15:0.17322077 16:0.16103874 17:0.21309955 18:0.5443787 19:0.10543454 20:0.045706917 21:0.96569556 22:0.12461078 23:0.1568803 24:0.22781628 25:0.13653123 26:0.12037404 27:0.2060452 28:0.1894515 29:0.19629544 30:0.18787883 31:0.13161179 32:0.056885097 33:0.64284384 34:0.076371409 35:0.2335304 36:0.1883665 37:0.039672103 38:0.22615092 39:0.034588885 40:0.093867086 41:0.39068201 42:0.15249275 43:0.71920037 44:0.025739381 45:0.14308649 46:0.026021563 47:0.56427693 48:0.044124626 49:0.17163788 50:0.046670381 
10.55606328618315 1:0.1952793 2:0.17437765 3:0.40725642 4:0.38367012 5:0.56987518 6:0.95615149 7:0.19284067 8:0.17533784 9:0.2682927 10:0.95228422 11:0.15925997 12:0.15865314 13:0.5919283 14:0.10546925 15:0.075825214 16:0.13369866 17:0.15678257 18:0.59526628 19:0.048949115 20:0.044314269 21:0.95784187 22:0.067975819 23:0.089854568 24:0.10220838 25:0.15859069 26:0.094834805 27:0.19284436 28:0.052253239 29:0.079025649 30:0.11918993 31:0.15242146 32:0.041348469 33:0.61763984 34:0.068493806 35:0.15843429 36:0.21704361 37:0.050306249 38:0.12697294 39:0.043837875 40:0.085720077 41:0.47393107 42:0.1961721 43:0.68805242 44:0.047923908 45:0.067244776 46:0.057885777 47:0.52478653 48:0.074090935 49:0.073168375 50:0.046335679 
10.55606328618315 1:0.17243212 2:0.17535724 3:0.42894161 4:0.38646993 5:0.62062019 6:0.95977771 7:0.1935778 8:0.24312696 9:0.19674797 10:0.95882529 11:0.10770646 12:0.11010449 13:0.64573991 14:0.15411699 15:0.14808521 16:0.14463232 17:0.21486832 18:0.5656805 19:0.10372218 20:0.016864095 21:0.95804 22:0.14213286 23:0.13163984 24:0.17951293 25:0.15836838 26:0.12586302 27:0.20281379 28:0.14338283 29:0.20361681 30:0.15888377 31:0.13305314 32:0.056277078 33:0.61494344 34:0.054824937 35:0.24056149 36:0.19197807 37:0.049532026 38:0.19080266 39:0.039095644 40:0.049328573 41:0.49715841 42:0.23157583 43:0.68849778 44:0.051867448 45:0.14251408 46:0.039420035 47:0.54879385 48:0.061954286 49:0.13159582 50:0.01774789 
10.55606328618315 1:0.23343575 2:0.19631863 3:0.47900811 4:0.41245922 5:0.62263387 6:0.96142864 7:0.18578947 8:0.27732956 9:0.18048781 10:0.96249312 11:0.19468044 12:0.19582771 13:0.41255605 14:0.30835104 15:0.31300443 16:0.24266493 17:0.36451694 18:0.46863908 19:0.26144803 20:0.052477702 21:0.95768565 22:0.27951282 23:0.20502755 24:0.27778819 25:0.24537964 26:0.25691012 27:0.27462703 28:0.3069247 29:0.16113147 30:0.22150846 31:0.20978592 32:0.056623157 33:0.64674515 34:0.047326017 35:0.36389562 36:0.19930841 37:0.038523741 38:0.23892242 39:0.038937945 40:0.11590516 41:0.45963469 42:0.19326493 43:0.72091496 44:0.039252803 45:0.12240173 46:0.039228093 47:0.65050948 48:0.068478629 49:0.22580306 50:0.05433578 
10.55606328618315 1:0.15330654 2:0.17627022 3:0.3866744 4:0.38616961 5:0.5203383 6:0.95974332 7:0.20455517 8:0.12623081 9:0.21463415 10:0.95027655 11:0.047302693 12:0.048601553 13:0.62331837 14:0.07962089 15:0.019699654 16:0.073798783 17:0.11372978 18:0.59526628 19:0.013334366 20:0.013303479 21:0.96450156 22:0.055145893 23:0.041547004 24:0.099030577 25:0.11823586 26:0.054282524 27:0.14957601 28:0.013175353 29:0.047836192 30:0.082695663 31:0.10718951 32:0.058267567 33:0.59786695 34:0.060284305 35:0.14777668 36:0.2091051 37:0.065383568 38:0.059943214 39:0.053973082 40:0.030011129 41:0.48333272 42:0.15906636 43:0.66792822 44:0.041703098 45:0.032474417 46:0.051498219 47:0.47345668 48:0.033517253 49:0.067559294 50:0.015185622 
10.55606328618315 1:0.23406085 2:0.1972611 3:0.47307971 4:0.41176391 5:0.63189685 6:0.96129894 7:0.18347999 8:0.28518498 9:0.18048781 10:0.96261203 11:0.18136613 12:0.18140328 13:0.4529148 14:0.300834 15:0.28919154 16:0.24275161 17:0.34349811 18:0.44852075 19:0.25650302 20:0.064664498 21:0.95730007 22:0.29731447 23:0.20718981 24:0.29638454 25:0.24023727 26:0.24673229 27:0.27756548 28:0.30836591 29:0.16148083 30:0.22763431 31:0.20853288 32:0.047319468 33:0.64836293 34:0.047404531 35:0.36702332 36:0.20097712 37:0.03580131 38:0.24451146 39:0.037014436 40:0.11874681 41:0.46787569 42:0.1915551 43:0.72220916 44:0.039172057 45:0.12638831 46:0.038825214 47:0.64313483 48:0.061117537 49:0.26685739 50:0.066276506 
10.55606328618315 1:0.12155773 2:0.24950555 3:0.4650487 4:0.47291112 5:0.59927505 6:0.97385842 7:0.2646406 8:0.11872536 9:0.18861789 10:0.96365976 11:0.10798681 12:0.10996333 13:0.53587443 14:0.063663557 15:0.02583738 16:0.067491561 17:0.082848914 18:0.56804734 19:0.022043025 20:0.029867284 21:0.97497153 22:0.045193776 23:0.056340862 24:0.079899982 25:0.098912656 26:0.062874682 27:0.12291022 28:0.015972741 29:0.099007688 30:0.088213801 31:0.088539653 32:0.05781395 33:0.63627404 34:0.065297909 35:0.10526688 36:0.19049917 37:0.046716612 38:0.069475248 39:0.037980642 40:0.065347061 41:0.44952178 42:0.14579912 43:0.70990819 44:0.032054774 45:0.062314268 46:0.050002616 47:0.5466938 48:0.043531612 49:0.062891014 50:0.030237421 
10.55606328618315 1:0.21346833 2:0.23020661 3:0.49370733 4:0.45107761 5:0.62545305 6:0.96630579 7:0.23005226 8:0.25638708 9:0.19349594 10:0.96142888 11:0.22574085 12:0.22463332 13:0.57174885 14:0.12914132 15:0.15591922 16:0.1886898 17:0.19452755 18:0.50414199 19:0.10729875 20:0.061487392 21:0.96486914 22:0.10598715 23:0.15663204 24:0.13242383 25:0.17172535 26:0.140848 27:0.22468801 28:0.11934458 29:0.19531439 30:0.17947873 31:0.18362908 32:0.026878249 33:0.65855205 34:0.05150678 35:0.17788106 36:0.21414831 37:0.063188277 38:0.22459431 39:0.035912611 40:0.12141401 41:0.4603321 42:0.13394164 43:0.72984505 44:0.04013909 45:0.14408787 46:0.054590233 47:0.57857406 48:0.072349712 49:0.12458617 50:0.060636342 
10.55606328618315 1:0.34934509 2:0.27670556 3:0.60892606 4:0.50395644 5:0.6862666 6:0.97033834 7:0.23343085 8:0.37001291 9:0.14796747 10:0.96495515 11:0.43916655 12:0.43886763 13:0.42376679 14:0.30831107 15:0.37767828 16:0.32175899 17:0.41857335 18:0.48284024 19:0.27838483 20:0.14740624 21:0.9693079 22:0.20916283 23:0.24064936 24:0.2322453 25:0.31415507 26:0.26868433 27:0.35148695 28:0.27257526 29:0.24111369 30:0.26963511 31:0.32894114 32:0.047765289 33:0.68374157 34:0.12477263 35:0.33637473 36:0.21732119 37:0.065330781 38:0.32505998 39:0.055482212 40:0.27677873 41:0.56472981 42:0.1998225 43:0.74970174 44:0.066865407 45:0.17862798 46:0.049893729 47:0.58883715 48:0.065432854 49:0.18536796 50:0.14697449 
10.55606328618315 1:0.26112825 2:0.20649588 3:0.52052087 4:0.42455724 5:0.63511878 6:0.95738763 7:0.18785021 8:0.21332544 9:0.16097561 10:0.95852596 11:0.22259288 12:0.22151124 13:0.5964126 14:0.16425034 15:0.15558738 16:0.21945134 17:0.21286799 18:0.42011833 19:0.12322068 20:0.05165625 21:0.953394 22:0.1277349 23:0.12720022 24:0.11023179 25:0.22100826 26:0.17464602 27:0.24719565 28:0.12090674 29:0.099456511 30:0.14339848 31:0.23543467 32:0.03233302 33:0.66742998 34:0.047107562 35:0.19009228 36:0.23036952 37:0.047396444 38:0.18709756 39:0.044664819 40:0.12147356 41:0.45877215 42:0.20179288 43:0.73416162 44:0.076846734 45:0.060043164 46:0.037425276 47:0.61890227 48:0.060129546 49:0.095693946 50:0.053571858 
10.55606328618315 1:0.27254474 2:0.17275541 3:0.48101684 4:0.37938562 5:0.62464756 6:0.94901973 7:0.14874247 8:0.25023836 9:0.16910569 10:0.94882023 11:0.31182724 12:0.31050164 13:0.52466363 14:0.13426977 15:0.16600007 16:0.22907385 17:0.20347968 18:0.5443787 19:0.1102469 20:0.093814403 21:0.94747305 22:0.082215264 23:0.15048954 24:0.10893399 25:0.2277329 26:0.1763396 27:0.26664367 28:0.10673909 29:0.11993261 30:0.17511691 31:0.2430661 32:0.059753925 33:0.631598 34:0.061966978 35:0.16249011 36:0.23694932 37:0.042854309 38:0.21203595 39:0.05346233 40:0.17485158 41:0.52291447 42:0.27911255 43:0.69458568 44:0.046622273 45:0.082315013 46:0.04836477 47:0.58900535 48:0.031858612 49:0.087708376 50:0.093791746 
10.55606328618315 1:0.27396035 2:0.20057413 3:0.523682 4:0.41768378 5:0.69714051 6:0.95506555 7:0.18341345 8:0.19902997 9:0.17723578 10:0.9561435 11:0.23252988 12:0.23199888 13:0.43497759 14:0.17318179 15:0.15033169 16:0.19584736 17:0.21395095 18:0.46035504 19:0.12281717 20:0.059128635 21:0.9505412 22:0.099198975 23:0.10469355 24:0.091634482 25:0.2257473 26:0.13386908 27:0.23632593 28:0.092393376 29:0.093331017 30:0.12083605 31:0.2366704 32:0.038310703 33:0.66419953 34:0.041508388 35:0.17178842 36:0.23661898 37:0.067631193 38:0.16899173 39:0.052412659 40:0.13755117 41:0.48011312 42:0.18510893 43:0.72949803 44:0.068558872 45:0.066380128 46:0.038374331 47:0.59203047 48:0.061471939 49:0.064623676 50:0.062047351 
10.55606328618315 1:0.28628618 2:0.21129306 3:0.54140025 4:0.43144989 5:0.63914615 6:0.95656669 7:0.1751989 8:0.26733333 9:0.18536586 10:0.95508939 11:0.3795583 12:0.37893695 13:0.52690583 14:0.23057099 15:0.28687671 16:0.22720632 17:0.32090303 18:0.51360953 19:0.20827012 20:0.10474618 21:0.95301622 22:0.16534598 23:0.15486078 24:0.18021815 25:0.24402745 26:0.17276222 27:0.26338491 28:0.20280229 29:0.20079428 30:0.17958613 31:0.25898933 32:0.032270141 33:0.66684365 34:0.042395789 35:0.26062614 36:0.24168687 37:0.05323837 38:0.22921054 39:0.034382511 40:0.21845362 41:0.51015335 42:0.18519114 43:0.73061204 44:0.062442489 45:0.15163799 46:0.029234134 47:0.5854013 48:0.071430407 49:0.15348463 50:0.10333598 
10.55606328618315 1:0.34451902 2:0.35132849 3:0.68979442 4:0.57187074 5:0.73378974 6:0.97445428 7:0.26634651 8:0.27549425 9:0.19349594 10:0.97122335 11:0.54384768 12:0.54268378 13:0.50224215 14:0.20904458 15:0.29365414 16:0.2791658 17:0.32517949 18:0.40236685 19:0.18582764 20:0.12285621 21:0.96900839 22:0.10710036 23:0.18403533 24:0.11925212 25:0.29259065 26:0.24153627 27:0.29294395 28:0.16474023 29:0.19010782 30:0.19609591 31:0.32710597 32:0.13127801 33:0.72981739 34:0.12807587 35:0.1947373 36:0.22086483 37:0.07437066 38:0.25723293 39:0.074145272 40:0.30586705 41:0.75093299 42:0.24934129 43:0.79214293 44:0.068623871 45:0.12613508 46:0.14258897 47:0.63659501 48:0.093209706 49:0.091195039 50:0.12453049 
10.55606328618315 1:0.36883089 2:0.33532241 3:0.68646318 4:0.55831784 5:0.705598 6:0.97264296 7:0.27427265 8:0.3324748 9:0.18536586 10:0.97072697 11:0.47718406 12:0.47701761 13:0.35874441 14:0.20831643 15:0.2710034 16:0.32151812 17:0.31280714 18:0.42603549 19:0.18284352 20:0.12937072 21:0.96769512 22:0.10732084 23:0.22015542 24:0.10687044 25:0.30619484 26:0.24723659 27:0.33794907 28:0.15292561 29:0.22585827 30:0.22876655 31:0.33865383 32:0.18344887 33:0.73042399 34:0.087804139 35:0.19708128 36:0.22465879 37:0.050392006 38:0.32157621 39:0.075998992 40:0.28222251 41:0.66707927 42:0.24931176 43:0.79253888 44:0.046611901 45:0.14408764 46:0.076335363 47:0.60381776 48:0.11763091 49:0.085554883 50:0.1308102 
10.55606328618315 1:0.25117624 2:0.23329005 3:0.51834977 4:0.45643246 5:0.63713253 6:0.95325267 7:0.24507196 8:0.28519642 9:0.2504065 10:0.95133442 11:0.28549865 12:0.28579542 13:0.42376679 14:0.20970376 15:0.26551116 16:0.27492395 17:0.29096755 18:0.45680472 19:0.19663143 20:0.066714369 21:0.94960624 22:0.16628543 23:0.19785573 24:0.15278882 25:0.21629336 26:0.21175382 27:0.25951606 28:0.21745093 29:0.18999878 30:0.19898397 31:0.25536591 32:0.037429966 33:0.69958776 34:0.039011836 35:0.23900066 36:0.27644867 37:0.015097786 38:0.28654826 39:0.054600857 40:0.16294019 41:0.40195975 42:0.23717609 43:0.752698 44:0.030389957 45:0.13034932 46:0.076787584 47:0.66447842 48:0.030832596 49:0.14110975 50:0.066676319 
10.55606328618315 1:0.14032187 2:0.29154998 3:0.59914809 4:0.51502228 5:0.60652435 6:0.95378208 7:0.26515555 8:0.19642605 9:0.1902439 10:0.95199764 11:0.10881332 12:0.10821034 13:0.41255605 14:0.13232654 15:0.13475813 16:0.12359971 17:0.18532285 18:0.46035504 19:0.10677035 20:0.047858939 21:0.94989634 22:0.16354068 23:0.146253 24:0.25180009 25:0.12133978 26:0.1124731 27:0.15944299 28:0.16552481 29:0.18060881 30:0.16530514 31:0.11175381 32:0.026362592 33:0.75200588 34:0.059717305 35:0.23327607 36:0.30690458 37:0.034082323 38:0.16862811 39:0.030664194 40:0.073245138 41:0.53949016 42:0.2689549 43:0.79122984 44:0.015393276 45:0.1454588 46:0.055199649 47:0.58773512 48:0.090943843 49:0.2626017 50:0.047454372 
10.55606328618315 1:0.11651199 2:0.28140953 3:0.56214452 4:0.50370759 5:0.50463146 6:0.92551666 7:0.27167889 8:0.20109153 9:0.17398374 10:0.93769038 11:0.12765969 12:0.12796286 13:0.43946189 14:0.11912546 15:0.091241725 16:0.089430198 17:0.14216276 18:0.53846157 19:0.085567683 20:0.039035175 21:0.92692029 22:0.12461422 23:0.14947392 24:0.20416865 25:0.12401182 26:0.092016265 27:0.13272732 28:0.10930463 29:0.21206526 30:0.17690413 31:0.089151084 32:0.038190119 33:0.78327227 34:0.039941084 35:0.1846448 36:0.36589184 37:0.034834906 38:0.16278093 39:0.042859539 40:0.081194334 41:0.3799817 42:0.39005831 43:0.79775119 44:0.034377992 45:0.18325199 46:0.028004814 47:0.56191635 48:0.032689784 49:0.19492319 50:0.038332772 
10.55606328618315 1:0.17176811 2:0.20503055 3:0.47837728 4:0.42685339 5:0.57672173 6:0.92266506 7:0.22615911 8:0.25619906 9:0.21951219 10:0.92844534 11:0.25748456 12:0.26140887 13:0.48654708 14:0.17225522 15:0.19196001 16:0.143218 17:0.21333458 18:0.54911244 19:0.15226062 20:0.087987542 21:0.92277223 22:0.15958479 23:0.14997515 24:0.30847648 25:0.16294709 26:0.11575282 27:0.18497239 28:0.20108578 29:0.3736712 30:0.17338128 31:0.14290139 32:0.085082963 33:0.69655347 34:0.063788295 35:0.24004541 36:0.34124786 37:0.043287911 38:0.21787575 39:0.026841002 40:0.16322392 41:0.28792748 42:0.38405269 43:0.72504777 44:0.04003999 45:0.26574701 46:0.031185379 47:0.54611492 48:0.043294851 49:0.23810478 50:0.086715221 
10.55606328618315 1:0.10876331 2:0.23705015 3:0.49206913 4:0.45787391 5:0.50583971 6:0.92117256 7:0.26197025 8:0.21227188 9:0.25365853 10:0.93307793 11:0.14917597 12:0.15094043 13:0.50224215 14:0.12727563 15:0.10627383 16:0.10890119 17:0.14249976 18:0.5656805 19:0.095241807 20:0.061588496 21:0.92118764 22:0.11935225 23:0.15211757 24:0.20347016 25:0.11025071 26:0.096996889 27:0.14371155 28:0.13591887 29:0.21016584 30:0.16665898 31:0.084297605 32:0.035444267 33:0.73665804 34:0.043767944 35:0.18164547 36:0.35245001 37:0.038064796 38:0.18214327 39:0.061085444 40:0.093547374 41:0.32555667 42:0.39212561 43:0.75606024 44:0.036326241 45:0.1643056 46:0.061746411 47:0.55276698 48:0.03916911 49:0.17622277 50:0.062569037 
10.55606328618315 1:0.17820321 2:0.26403838 3:0.5460282 4:0.4859961 5:0.54772449 6:0.93581885 7:0.25404671 8:0.18019301 9:0.23252033 10:0.9455061 11:0.22202604 12:0.22245254 13:0.39013454 14:0.17974934 15:0.14866681 16:0.12977277 17:0.20895001 18:0.51005918 19:0.1414931 20:0.10862801 21:0.93303519 22:0.14780691 23:0.13047768 24:0.17924249 25:0.18631887 26:0.12584373 27:0.15942858 28:0.12267139 29:0.17778325 30:0.14489636 31:0.15842797 32:0.025548778 33:0.76837462 34:0.035724089 35:0.21967185 36:0.33525345 37:0.033898715 38:0.15135297 39:0.051059797 40:0.15129779 41:0.55063689 42:0.33485875 43:0.79564738 44:0.037171394 45:0.13720305 46:0.039380994 47:0.60099798 48:0.03174435 49:0.15458454 50:0.10796735 
10.55606328618315 1:0.12969577 2:0.26417744 3:0.56323427 4:0.48782828 5:0.62102294 6:0.94301558 7:0.26799664 8:0.17273772 9:0.20650408 10:0.94338155 11:0.066705614 12:0.066980578 13:0.40582961 14:0.12511177 15:0.086537346 16:0.090372235 17:0.15894219 18:0.58343196 19:0.07574676 20:0.038565822 21:0.93686116 22:0.15643181 23:0.11148146 24:0.22406472 25:0.10732327 26:0.089038931 27:0.14338815 28:0.12578806 29:0.1922984 30:0.13946439 31:0.094726682 32:0.013921053 33:0.74544168 34:0.038314357 35:0.22538599 36:0.32756168 37:0.036409214 38:0.12801181 39:0.020709248 40:0.050705798 41:0.56451261 42:0.26708367 43:0.77610087 44:0.039465137 45:0.13236474 46:0.037954491 47:0.54992187 48:0.029127613 49:0.2134054 50:0.039503872 
10.55606328618315 1:0.15896642 2:0.30099827 3:0.57520199 4:0.52646965 5:0.5594039 6:0.94715828 7:0.28197318 8:0.18471372 9:0.22601627 10:0.95245129 11:0.22317915 12:0.22418448 13:0.47533631 14:0.24599248 15:0.19890031 16:0.10873298 17:0.26299322 18:0.48047337 19:0.19645019 20:0.10264692 21:0.94084382 22:0.17152147 23:0.1127866 24:0.18488204 25:0.1653332 26:0.099750176 27:0.15421432 28:0.15359262 29:0.25039905 30:0.13918415 31:0.12725022 32:0.042501938 33:0.7838468 34:0.034356263 35:0.24165371 36:0.32261065 37:0.030852716 38:0.14690554 39:0.024675958 40:0.17949972 41:0.59197372 42:0.28628561 43:0.81341577 44:0.025042783 45:0.21299762 46:0.045481566 47:0.57155347 48:0.012425247 49:0.15102856 50:0.10401745 
10.55606328618315 1:0.23905173 2:0.22880873 3:0.53865778 4:0.4520303 5:0.64357632 6:0.94027489 7:0.22958447 8:0.17500468 9:0.16422763 10:0.94098556 11:0.081795834 12:0.081319384 13:0.36322871 14:0.087637089 15:0.048620846 16:0.13899416 17:0.11664845 18:0.4887574 19:0.042584464 20:0.034770988 21:0.93821752 22:0.057676155 23:0.083686329 24:0.077752791 25:0.1779265 26:0.091393597 27:0.18681513 28:0.031749908 29:0.12553155 30:0.11403099 31:0.21058342 32:0.027983353 33:0.72653484 34:0.088132903 35:0.12537128 36:0.32357183 37:0.017809514 38:0.12717603 39:0.019627806 40:0.060536362 41:0.6254195 42:0.24785985 43:0.76473916 44:0.025388366 45:0.094813831 46:0.020643903 47:0.55979663 48:0.059915606 49:0.061764833 50:0.035865217 
10.55606328618315 1:0.24389811 2:0.23315167 3:0.51821291 4:0.45759553 5:0.63270235 6:0.95286149 7:0.24602014 8:0.26844057 9:0.22276421 10:0.9509272 11:0.28569111 12:0.28588209 13:0.46636772 14:0.188326 15:0.23692346 16:0.26532632 17:0.26709759 18:0.44615385 19:0.17073253 20:0.057556555 21:0.94925326 22:0.15378663 23:0.18942522 24:0.13678803 25:0.2109497 26:0.21298166 27:0.25123456 28:0.19108804 29:0.17520449 30:0.19054641 31:0.24748851 32:0.036623385 33:0.70037454 34:0.036526561 35:0.2177024 36:0.27805561 37:0.014138303 38:0.26918289 39:0.052848689 40:0.15638469 41:0.39392018 42:0.23948155 43:0.753416 44:0.033179633 45:0.11876536 46:0.08286009 47:0.6620549 48:0.034755569 49:0.12717953 50:0.058025606 
10.55606328618315 1:0.15760303 2:0.25420997 3:0.51650292 4:0.48056677 5:0.64236808 6:0.96160871 7:0.26410753 8:0.16212375 9:0.19837399 10:0.955724 11:0.083572775 12:0.086631462 13:0.4573991 14:0.098329544 15:0.083876714 16:0.11073472 17:0.1258904 18:0.57633138 19:0.063338988 20:0.026742134 21:0.95830601 22:0.13507038 23:0.1117454 24:0.1695447 25:0.14129202 26:0.11063404 27:0.16173796 28:0.11151483 29:0.1181573 30:0.1342061 31:0.12307017 32:0.071497314 33:0.68135017 34:0.075990863 35:0.17256351 36:0.24919918 37:0.028147526 38:0.11838284 39:0.078611739 40:0.042358041 41:0.51044399 42:0.28413856 43:0.73683977 44:0.021588793 45:0.086111322 46:0.086228326 47:0.54531193 48:0.046474934 49:0.1817379 50:0.026975771 
10.55606328618315 1:0.33731979 2:0.2813673 3:0.61110395 4:0.50731319 5:0.67660081 6:0.96461171 7:0.2305356 8:0.29320112 9:0.20650408 10:0.96325952 11:0.47735867 12:0.47548762 13:0.38340807 14:0.25500894 15:0.36729109 16:0.27546054 17:0.4049589 18:0.54082847 19:0.22888792 20:0.096942037 21:0.95904464 22:0.15252078 23:0.16206142 24:0.19590092 25:0.25910461 26:0.18304604 27:0.30017033 28:0.25050879 29:0.214314 30:0.18246339 31:0.31135535 32:0.024047336 33:0.71997833 34:0.050555214 35:0.29578176 36:0.24756216 37:0.041737281 38:0.26810384 39:0.038570523 40:0.25332788 41:0.54107219 42:0.21288741 43:0.78021646 44:0.035099503 45:0.14228579 46:0.055232856 47:0.58791745 48:0.043858442 49:0.13781592 50:0.097291067 
10.55606328618315 1:0.20603417 2:0.32958084 3:0.54011589 4:0.54642832 5:0.53000402 6:0.9551937 7:0.28937885 8:0.32810211 9:0.22764228 10:0.9576593 11:0.27368703 12:0.27269927 13:0.56053811 14:0.23211883 15:0.27901953 16:0.20269127 17:0.33298615 18:0.63786983 19:0.19331788 20:0.076288521 21:0.94963926 22:0.20958336 23:0.22593869 24:0.2851747 25:0.16540843 26:0.16491544 27:0.25386655 28:0.26390961 29:0.26464465 30:0.2612541 31:0.17170231 32:0.033540983 33:0.77931428 34:0.025340516 35:0.3306753 36:0.30379283 37:0.025165075 38:0.27572408 39:0.022021582 40:0.17225462 41:0.60687089 42:0.28919241 43:0.81448257 44:0.022520589 45:0.24114847 46:0.02778003 47:0.56172615 48:0.039927252 49:0.24103487 50:0.076985762 
10.55606328618315 1:0.11206651 2:0.25826773 3:0.45452446 4:0.48308337 5:0.45428914 6:0.94951868 7:0.29232809 8:0.11179525 9:0.28292683 10:0.95346802 11:0.083401419 12:0.084375612 13:0.71076238 14:0.11040801 15:0.055612046 16:0.050939262 17:0.13266824 18:0.62721896 19:0.052110389 20:0.025636937 21:0.94916767 22:0.095884502 23:0.057450335 24:0.11619169 25:0.10576648 26:0.056889679 27:0.11231664 28:0.059055645 29:0.12089309 30:0.088121541 31:0.072583266 32:0.03711611 33:0.6756677 34:0.041055586 35:0.1627156 36:0.25370175 37:0.05573076 38:0.062564038 39:0.027015366 40:0.053371929 41:0.54757953 42:0.32870445 43:0.71602154 44:0.030302996 45:0.10603624 46:0.03095896 47:0.46603331 48:0.027132368 49:0.10291434 50:0.027951989 
10.55606328618315 1:0.13879308 2:0.24857675 3:0.46906781 4:0.47533563 5:0.4957712 6:0.94777697 7:0.2445717 8:0.18286274 9:0.26991871 10:0.95589644 11:0.13412462 12:0.13451971 13:0.66816139 14:0.12627697 15:0.1315113 16:0.10740992 17:0.15775996 18:0.66863906 19:0.10257435 20:0.046185143 21:0.94763672 22:0.11181507 23:0.098914385 24:0.17323552 25:0.12510954 26:0.08712744 27:0.1637287 28:0.13959588 29:0.1991583 30:0.12363732 31:0.099683478 32:0.026565356 33:0.69760102 34:0.086462028 35:0.17202139 36:0.2600911 37:0.025013326 38:0.13632421 39:0.039938387 40:0.086845972 41:0.21908398 42:0.32063091 43:0.74191433 44:0.020573175 45:0.15185669 46:0.03012914 47:0.52040803 48:0.047615211 49:0.13436687 50:0.046353903 
10.55606328618315 1:0.093745403 2:0.28307137 3:0.49288979 4:0.50806284 5:0.41804269 6:0.95094824 7:0.28369349 8:0.16211155 9:0.33821139 10:0.95753598 11:0.11251302 12:0.11602215 13:0.76681614 14:0.11657798 15:0.081498124 16:0.071844958 17:0.11542124 18:0.55739641 19:0.086544372 20:0.079358131 21:0.94981152 22:0.086941391 23:0.11483277 24:0.14176722 25:0.098515339 26:0.073125832 27:0.12385745 28:0.086576588 29:0.16951136 30:0.13784578 31:0.059471745 32:0.039133754 33:0.71303964 34:0.03080494 35:0.13821225 36:0.26483396 37:0.023982679 38:0.11946269 39:0.031535018 40:0.095400281 41:0.30189055 42:0.32200527 43:0.75194055 44:0.032417696 45:0.14172134 46:0.034022074 47:0.52066249 48:0.026776599 49:0.12080791 50:0.079197221 
10.55606328618315 1:0.19632858 2:0.33279675 3:0.61723739 4:0.55404466 5:0.53161496 6:0.96203542 7:0.2745603 8:0.3158204 9:0.23902439 10:0.96239406 11:0.17300031 12:0.17548627 13:0.61659193 14:0.17045881 15:0.15620978 16:0.20165126 17:0.20145522 18:0.57751483 19:0.13609619 20:0.071694307 21:0.95697176 22:0.20002462 23:0.22420736 24:0.36160168 25:0.16510884 26:0.17368411 27:0.23370931 28:0.22150692 29:0.32318142 30:0.24845652 31:0.1718294 32:0.046095438 33:0.77111155 34:0.040314507 35:0.28552797 36:0.28273681 37:0.03066971 38:0.28244227 39:0.037416864 40:0.11868852 41:0.49838889 42:0.23609373 43:0.81603342 44:0.021504814 45:0.24920407 46:0.052432775 47:0.57576549 48:0.035691284 49:0.3168039 50:0.071561173 
10.55606328618315 1:0.20687942 2:0.34948805 3:0.61332351 4:0.57155418 5:0.53040677 6:0.96509111 7:0.29010263 8:0.32190302 9:0.24390244 10:0.96648902 11:0.18435419 12:0.1889402 13:0.56726456 14:0.15850215 15:0.15328568 16:0.20472412 17:0.20026143 18:0.64260358 19:0.11815132 20:0.04827347 21:0.95996404 22:0.1727819 23:0.21308146 24:0.35294834 25:0.16496746 26:0.16218375 27:0.23938616 28:0.20850772 29:0.30911568 30:0.23906569 31:0.18262392 32:0.061573785 33:0.77125692 34:0.046629243 35:0.2768079 36:0.26806244 37:0.029464273 38:0.28375944 39:0.032656118 40:0.11530261 41:0.53060234 42:0.25202683 43:0.81775701 44:0.020081211 45:0.23188327 46:0.03757352 47:0.5689888 48:0.052640412 49:0.2817463 50:0.048546217 
10.55606328618315 1:0.17632602 2:0.29642731 3:0.58457345 4:0.52022934 5:0.55336285 6:0.96548927 7:0.24370106 8:0.27984986 9:0.27804878 10:0.96332031 11:0.14836405 12:0.14760807 13:0.60089689 14:0.17026304 15:0.17406452 16:0.16487826 17:0.22855251 18:0.56804734 19:0.12945929 20:0.045716342 21:0.96047926 22:0.15760598 23:0.1689177 24:0.24394481 25:0.1551207 26:0.13311797 27:0.21404481 28:0.19553608 29:0.27522361 30:0.19608663 31:0.13940629 32:0.017399894 33:0.7271769 34:0.043139141 35:0.25630718 36:0.25187349 37:0.03658827 38:0.23740773 39:0.028022209 40:0.089548737 41:0.47131571 42:0.18555222 43:0.78593743 44:0.025325703 45:0.20330001 46:0.029302377 47:0.54434967 48:0.029742861 49:0.19037794 50:0.047121342 
10.55606328618315 1:0.29359213 2:0.33030427 3:0.64781529 4:0.55438733 5:0.57390249 6:0.97030616 7:0.25239348 8:0.34479937 9:0.22439025 10:0.96636337 11:0.2617442 12:0.26050332 13:0.50896859 14:0.11577853 15:0.12805338 16:0.28929731 17:0.167262 18:0.53846157 19:0.09192542 20:0.08302106 21:0.96472281 22:0.077419139 23:0.23658936 24:0.13313837 25:0.26394206 26:0.24901427 27:0.30621895 28:0.088498168 29:0.29699016 30:0.24853627 31:0.26892245 32:0.086574517 33:0.72346586 34:0.060589045 35:0.14318444 36:0.23761301 37:0.031334799 38:0.32884413 39:0.0511983 40:0.15495117 41:0.60648006 42:0.22641529 43:0.78152204 44:0.037617449 45:0.214296 46:0.060779471 47:0.60888267 48:0.075617939 49:0.11079598 50:0.083071411 
10.55606328618315 1:0.38228616 2:0.34508738 3:0.65407181 4:0.56616396 5:0.60249692 6:0.96674359 7:0.2681672 8:0.38671166 9:0.2504065 10:0.96156305 11:0.25176886 12:0.25061804 13:0.48654708 14:0.14683001 15:0.16430068 16:0.36401856 17:0.21864599 18:0.52426034 19:0.10718273 20:0.062724531 21:0.96165061 22:0.1057358 23:0.27544987 24:0.1774289 25:0.35461506 26:0.31418428 27:0.37130266 28:0.13617043 29:0.29008609 30:0.27868846 31:0.35563523 32:0.076143064 33:0.7408635 34:0.076629996 35:0.19368759 36:0.26581806 37:0.042004567 38:0.38229498 39:0.072158076 40:0.13587147 41:0.64300555 42:0.25586328 43:0.78851056 44:0.027809756 45:0.21120758 46:0.081212789 47:0.6240136 48:0.056528695 49:0.13470739 50:0.065363213 
10.55606328618315 1:0.14682841 2:0.29231113 3:0.56877357 4:0.5177713 5:0.55739021 6:0.96234006 7:0.23148298 8:0.27572295 9:0.27479672 10:0.96319008 11:0.1318545 12:0.13182472 13:0.573991 14:0.15799573 15:0.17463797 16:0.15526205 17:0.21282017 18:0.57278103 19:0.12713543 20:0.041043345 21:0.96026838 22:0.16211414 23:0.16912311 24:0.31332618 25:0.12832902 26:0.11808459 27:0.18422234 28:0.23000526 29:0.30966589 30:0.18394957 31:0.12200438 32:0.032222107 33:0.72977829 34:0.098206706 35:0.27076513 36:0.25432476 37:0.028497459 38:0.25175244 39:0.020826213 40:0.083352298 41:0.5634982 42:0.3159816 43:0.78628594 44:0.02815515 45:0.21789628 46:0.062217753 47:0.60417074 48:0.027816759 49:0.23426212 50:0.041784473 
10.55606328618315 1:0.15499923 2:0.27513447 3:0.54777813 4:0.49941057 5:0.53362864 6:0.95944035 7:0.20900358 8:0.20353368 9:0.25203252 10:0.96022177 11:0.19487777 12:0.19685319 13:0.56278026 14:0.11989532 15:0.13485098 16:0.12006585 17:0.16465348 18:0.55621308 19:0.098205484 20:0.064866289 21:0.95661408 22:0.090088114 23:0.12120209 24:0.15343699 25:0.14506572 26:0.098284662 27:0.15308617 28:0.11009941 29:0.27908447 30:0.14193623 31:0.13540018 32:0.057012558 33:0.7339524 34:0.073262364 35:0.16597807 36:0.268563 37:0.039539788 38:0.16963641 39:0.031217678 40:0.12963293 41:0.56698954 42:0.28684852 43:0.78583783 44:0.025533084 45:0.1881277 46:0.03956455 47:0.62746292 48:0.055071969 49:0.11230664 50:0.063688755 
10.55606328618315 1:0.20973863 2:0.23803347 3:0.51990706 4:0.45834228 5:0.58074903 6:0.96175021 7:0.17249146 8:0.24984029 9:0.26341465 10:0.96007341 11:0.2688472 12:0.26841682 13:0.6748879 14:0.16638403 15:0.17840031 16:0.18081376 17:0.22199465 18:0.56804734 19:0.13595806 20:0.11324333 21:0.95947134 22:0.091504753 23:0.13911636 24:0.12010799 25:0.16819961 26:0.129412 27:0.22796097 28:0.11235084 29:0.15040852 30:0.1674884 31:0.17533621 32:0.03469798 33:0.68916202 34:0.037983689 35:0.17925212 36:0.23924486 37:0.029774906 38:0.20620166 39:0.030173879 40:0.17517725 41:0.58842587 42:0.24814194 43:0.75524253 44:0.046649732 45:0.10248446 46:0.031528354 47:0.60466325 48:0.040531188 49:0.091004081 50:0.11332455 
10.55606328618315 1:0.15614513 2:0.31921479 3:0.60233372 4:0.54133749 5:0.52879578 6:0.96301985 7:0.26482227 8:0.23285393 9:0.25691056 10:0.96255493 11:0.2285528 12:0.22770201 13:0.54932731 14:0.11800756 15:0.11160368 16:0.14582035 17:0.15661043 18:0.58934909 19:0.088476904 20:0.056084745 21:0.95835149 22:0.13549526 23:0.15646136 24:0.24268892 25:0.12203637 26:0.12995505 27:0.17768838 28:0.14417768 29:0.27413833 30:0.17928688 31:0.13243677 32:0.046903785 33:0.75451034 34:0.036234353 35:0.20365138 36:0.27236328 37:0.031262044 38:0.20359261 39:0.036992196 40:0.12707013 41:0.47943321 42:0.25360218 43:0.80267954 44:0.02135634 45:0.1922829 46:0.046017479 47:0.58385843 48:0.032075275 49:0.21545921 50:0.056147002 
10.55606328618315 1:0.33811703 2:0.3309713 3:0.61752087 4:0.55430859 5:0.61055171 6:0.95965469 7:0.24645746 8:0.37090752 9:0.18861789 10:0.95840299 11:0.45550621 12:0.45362964 13:0.4618834 14:0.25026014 15:0.29100671 16:0.32672322 17:0.34203321 18:0.48520708 19:0.21686861 20:0.11881582 21:0.95495689 22:0.16710648 23:0.26682046 24:0.18946351 25:0.29255337 26:0.28890103 27:0.34411979 28:0.19422433 29:0.2565136 30:0.28331321 31:0.31268474 32:0.082545199 33:0.7622512 34:0.093046978 35:0.25994787 36:0.29011798 37:0.05512106 38:0.35207328 39:0.039182931 40:0.27187741 41:0.5449968 42:0.27686444 43:0.801624 44:0.041038252 45:0.19497636 46:0.067140758 47:0.62183642 48:0.05302624 49:0.16338791 50:0.11968173 
10.55606328618315 1:0.29917699 2:0.31334221 3:0.58637905 4:0.53503519 5:0.5783326 6:0.96148062 7:0.23740529 8:0.45663321 9:0.19837399 10:0.96050149 11:0.21460196 12:0.21377756 13:0.4304933 14:0.25674912 15:0.32898003 16:0.34261698 17:0.37797245 18:0.59171599 19:0.22215785 20:0.054138619 21:0.95675176 22:0.27084464 23:0.29528236 24:0.36344582 25:0.25809342 26:0.27399951 27:0.37797633 28:0.36706397 29:0.34548998 30:0.31689623 31:0.26634905 32:0.049378589 33:0.75557292 34:0.074550629 35:0.42223403 36:0.27901068 37:0.033629593 38:0.4158538 39:0.051358324 40:0.11105555 41:0.54026842 42:0.1886237 43:0.80410075 44:0.043328032 45:0.23233461 46:0.044287927 47:0.5861246 48:0.038265299 49:0.29978573 50:0.054697067 
10.55606328618315 1:0.29705212 2:0.36089456 3:0.61746216 4:0.57672811 5:0.56786144 6:0.95514309 7:0.2640087 8:0.38079092 9:0.21300814 10:0.95722473 11:0.26073167 12:0.26008636 13:0.44843048 14:0.21970676 15:0.28599986 16:0.31602496 17:0.30701709 18:0.52426034 19:0.20297301 20:0.058982082 21:0.95024562 22:0.20520444 23:0.24351975 24:0.26574832 25:0.24456552 26:0.23752701 27:0.33765504 28:0.28388339 29:0.26146725 30:0.26239309 31:0.27573806 32:0.035485212 33:0.81064886 34:0.064625427 35:0.30822766 36:0.32172358 37:0.02650441 38:0.35038692 39:0.027550224 40:0.13872832 41:0.50549424 42:0.27458698 43:0.83928335 44:0.032839932 45:0.18944302 46:0.041174434 47:0.61189198 48:0.023975182 49:0.21846537 50:0.058359731 
10.55606328618315 1:0.265654 2:0.29710427 3:0.57668531 4:0.51699996 5:0.56866693 6:0.96027899 7:0.20692539 8:0.43173784 9:0.22601627 10:0.9568525 11:0.16820629 12:0.16770194 13:0.53811657 14:0.22197825 15:0.24386571 16:0.29907075 17:0.3004646 18:0.64733732 19:0.18213958 20:0.045987964 21:0.95644325 22:0.22278267 23:0.27637368 24:0.32881173 25:0.22268176 26:0.23393151 27:0.3460744 28:0.27861863 29:0.27462405 30:0.30369654 31:0.22427793 32:0.035340466 33:0.73943669 34:0.045281429 35:0.34663495 36:0.28250623 37:0.028886478 38:0.38653195 39:0.040431712 40:0.089646935 41:0.53214782 42:0.2226384 43:0.78740978 44:0.028967161 45:0.19050536 46:0.075541265 47:0.5730722 48:0.015932357 49:0.25779459 50:0.046756342 
10.55606328618315 1:0.13207719 2:0.31941271 3:0.51304585 4:0.53665715 5:0.4997986 6:0.94983083 7:0.27035496 8:0.12925217 9:0.29268292 10:0.95379555 11:0.15013283 12:0.15118714 13:0.60538119 14:0.15385629 15:0.10992792 16:0.086965039 17:0.17311592 18:0.59644973 19:0.10398744 20:0.082576439 21:0.94528037 22:0.13252287 23:0.086956687 24:0.15899652 25:0.13125442 26:0.095086679 27:0.13741729 28:0.1069088 29:0.12441783 30:0.10571952 31:0.095742159 32:0.043368701 33:0.79226154 34:0.030320238 35:0.19076173 36:0.32374072 37:0.019006168 38:0.090592772 39:0.029348677 40:0.10932217 41:0.49140814 42:0.31964773 43:0.82105434 44:0.023454392 45:0.11542942 46:0.067190453 47:0.59649771 48:0.036783684 49:0.15500879 50:0.084670737 
10.55606328618315 1:0.15322916 2:0.25999022 3:0.4330593 4:0.48464 5:0.45871928 6:0.93950278 7:0.28877804 8:0.14176472 9:0.19349594 10:0.94034249 11:0.12362393 12:0.12326189 13:0.56726456 14:0.16010512 15:0.12736154 16:0.087192535 17:0.19861163 18:0.66153842 19:0.11521848 20:0.067220137 21:0.93580794 22:0.14598364 23:0.075055994 24:0.17977339 25:0.1523571 26:0.086306974 27:0.15338124 28:0.12430952 29:0.096714914 30:0.11085073 31:0.11063544 32:0.053127035 33:0.70305622 34:0.049273241 35:0.22520602 36:0.311459 37:0.042236499 38:0.08552704 39:0.032345928 40:0.10524754 41:0.52589208 42:0.30788049 43:0.72962594 44:0.022696609 45:0.082928188 46:0.032864884 47:0.49023452 48:0.037111409 49:0.16723232 50:0.067867726 
10.55606328618315 1:0.16956668 2:0.30497044 3:0.47347143 4:0.52863264 5:0.48248082 6:0.95144361 7:0.30765739 8:0.18383364 9:0.23252033 10:0.95381147 11:0.13436784 12:0.1350483 13:0.53811657 14:0.14207062 15:0.12298805 16:0.11837544 17:0.19011347 18:0.70532548 19:0.094288871 20:0.053653441 21:0.94655693 22:0.12034295 23:0.10994935 24:0.20863383 25:0.16432069 26:0.11120967 27:0.18034403 28:0.12626833 29:0.14447883 30:0.13837232 31:0.12514262 32:0.032352842 33:0.73325652 34:0.037261497 35:0.22180472 36:0.28913006 37:0.020188864 38:0.13406116 39:0.034930561 40:0.0947496 41:0.57169014 42:0.29215047 43:0.76466542 44:0.027507609 45:0.11418152 46:0.048344269 47:0.50809503 48:0.041998334 49:0.16391203 50:0.054612678 
10.55606328618315 1:0.088422805 2:0.25986966 3:0.45693037 4:0.48665863 5:0.45348367 6:0.94842553 7:0.26825446 8:0.15072563 9:0.27804878 10:0.95110452 11:0.14585003 12:0.14866599 13:0.61434978 14:0.074131839 15:0.078937829 16:0.059841786 17:0.10302436 18:0.58106512 19:0.055618238 20:0.047656409 21:0.94429994 22:0.065774322 23:0.072153248 24:0.13763626 25:0.072235495 26:0.049099684 27:0.12520361 28:0.076329455 29:0.18790548 30:0.10649495 31:0.047937036 32:0.036889762 33:0.68401957 34:0.045107916 35:0.12346048 36:0.26669472 37:0.050322674 38:0.095028251 39:0.038293079 40:0.08653608 41:0.21942145 42:0.29524738 43:0.71972239 44:0.066781983 45:0.12466036 46:0.049710989 47:0.51229894 48:0.043800458 49:0.10871866 50:0.045899779 
10.55606328618315 1:0.32188821 2:0.30220234 3:0.59135568 4:0.52292812 5:0.6133709 6:0.95823425 7:0.21908468 8:0.38566324 9:0.19837399 10:0.95587403 11:0.32680261 12:0.32536599 13:0.4147982 14:0.23443557 15:0.32880336 16:0.3050918 17:0.36824533 18:0.53964502 19:0.21121374 20:0.082394458 21:0.95408696 22:0.19608666 23:0.22571896 24:0.25963423 25:0.25087169 26:0.21598089 27:0.34994999 28:0.28130546 29:0.26264381 30:0.25769296 31:0.28462943 32:0.061625656 33:0.75370073 34:0.061852902 35:0.33575779 36:0.29430422 37:0.032484129 38:0.33883515 39:0.037780888 40:0.17767137 41:0.49978966 42:0.18660718 43:0.79892719 44:0.043268114 45:0.19261441 46:0.047399502 47:0.57213873 48:0.037371695 49:0.2094011 50:0.081277117 
10.55606328618315 1:0.39290869 2:0.38132745 3:0.63287443 4:0.59495008 5:0.62746674 6:0.95266408 7:0.31669581 8:0.39634359 9:0.22439025 10:0.95394516 11:0.44712114 12:0.44540286 13:0.45515695 14:0.32610914 15:0.28478399 16:0.34556371 17:0.35098931 18:0.4781065 19:0.266431 20:0.18742003 21:0.94876093 22:0.19844516 23:0.29153258 24:0.27695531 25:0.38207793 26:0.29519168 27:0.36051875 28:0.22283521 29:0.30223003 30:0.2989293 31:0.36608449 32:0.046309758 33:0.8197878 34:0.042634331 35:0.28329504 36:0.33576533 37:0.034305595 38:0.38218802 39:0.029504949 40:0.34366262 41:0.55886263 42:0.27964771 43:0.84023756 44:0.01572882 45:0.25042877 46:0.041846823 47:0.6038447 48:0.044642042 49:0.23573196 50:0.19299604 
10.55606328618315 1:0.27687037 2:0.31381184 3:0.50197184 4:0.53404027 5:0.56262583 6:0.93843585 7:0.3451443 8:0.2366754 9:0.27479672 10:0.94063991 11:0.33658934 12:0.33530176 13:0.54035872 14:0.22212438 15:0.16085775 16:0.1940223 17:0.22728047 18:0.54792899 19:0.17438594 20:0.21720934 21:0.93612337 22:0.19758205 23:0.1761058 24:0.2084984 25:0.25023231 26:0.18719466 27:0.23489043 28:0.14129142 29:0.17461914 30:0.20261002 31:0.24744707 32:0.047970403 33:0.77246487 34:0.036557175 35:0.22312941 36:0.34955561 37:0.014713794 38:0.19674788 39:0.0258279 40:0.31884688 41:0.51940972 42:0.30719557 43:0.78904516 44:0.01842667 45:0.14319807 46:0.048821244 47:0.52855825 48:0.033614527 49:0.21758869 50:0.21971168 
10.55606328618315 1:0.37282065 2:0.41518435 3:0.62223303 4:0.62337261 5:0.5267821 6:0.94445825 7:0.35125253 8:0.45036259 9:0.28455284 10:0.95276058 11:0.31413436 12:0.31277055 13:0.59417039 14:0.31949839 15:0.34054372 16:0.39151999 17:0.38667601 18:0.48520708 19:0.27787012 20:0.078538686 21:0.93946475 22:0.29572991 23:0.33024982 24:0.30581677 25:0.33545741 26:0.33230576 27:0.4021244 28:0.3373 29:0.31960437 30:0.33919242 31:0.34798077 32:0.038493432 33:0.88211393 34:0.023222746 35:0.36574554 36:0.37240973 37:0.022988688 38:0.43599316 39:0.019499315 40:0.16887656 41:0.50828254 42:0.34177855 43:0.88467818 44:0.035492901 45:0.26590544 46:0.028615469 47:0.59958154 48:0.040911302 49:0.29514834 50:0.082693987 
10.55606328618315 1:0.096236661 2:0.2637814 3:0.44343549 4:0.48173612 5:0.44985902 6:0.93579024 7:0.31100434 8:0.13697606 9:0.31219512 10:0.93968701 11:0.071020484 12:0.070536658 13:0.5852018 14:0.079563268 15:0.054492846 16:0.053029511 17:0.10327023 18:0.62721896 19:0.048835449 20:0.018306425 21:0.93370652 22:0.08354836 23:0.073463537 24:0.13357247 25:0.090505876 26:0.052655611 27:0.11572399 28:0.073135726 29:0.12924615 30:0.10703002 31:0.055162087 32:0.031870186 33:0.73935872 34:0.045702331 35:0.1408228 36:0.33460468 37:0.027099421 38:0.087251835 39:0.032179881 40:0.034617051 41:0.25844917 42:0.25030226 43:0.7631911 44:0.058268268 45:0.10533211 46:0.046162412 47:0.49346322 48:0.05265158 49:0.11214237 50:0.018178239 
10.55606328618315 1:0.24516389 2:0.38554439 3:0.54225367 4:0.59723169 5:0.50865889 6:0.9389832 7:0.36037663 8:0.33750719 9:0.27317074 10:0.94759375 11:0.24912703 12:0.24970016 13:0.58295959 14:0.28194216 15:0.25904161 16:0.27628642 17:0.29861194 18:0.4994083 19:0.24886957 20:0.094518542 21:0.93419313 22:0.31621182 23:0.28335565 24:0.28731135 25:0.27997804 26:0.32624009 27:0.29397815 28:0.28438482 29:0.28547627 30:0.29232991 31:0.22500513 32:0.035762832 33:0.86359203 34:0.031159004 35:0.32894331 36:0.37747577 37:0.024463223 38:0.31524861 39:0.023727998 40:0.15838011 41:0.45380464 42:0.34295833 43:0.86442453 44:0.03778249 45:0.24482143 46:0.044251051 47:0.59433329 48:0.03697041 49:0.29585418 50:0.095295139 
10.55606328618315 1:0.26668054 2:0.35079131 3:0.57341516 4:0.5705089 5:0.54007244 6:0.94517618 7:0.31426087 8:0.44332689 9:0.29268292 10:0.94862837 11:0.2631807 12:0.26314107 13:0.54932731 14:0.28472984 15:0.29836085 16:0.33779362 17:0.3395882 18:0.58698231 19:0.25482205 20:0.069850475 21:0.94230175 22:0.30218193 23:0.35992184 24:0.24764127 25:0.25716454 26:0.34144208 27:0.34288549 28:0.31295204 29:0.37347314 30:0.37057951 31:0.25345311 32:0.0405773 33:0.815718 34:0.032322619 35:0.33688077 36:0.35056689 37:0.012304052 38:0.42748025 39:0.025502943 40:0.13807172 41:0.47012901 42:0.32886541 43:0.83277202 44:0.029862922 45:0.28822306 46:0.063864365 47:0.61813217 48:0.023084976 49:0.26004347 50:0.072573721 
10.55606328618315 1:0.30617771 2:0.34198213 3:0.56231153 4:0.55867088 5:0.55497384 6:0.95077205 7:0.31869403 8:0.26807451 9:0.26341465 10:0.95176482 11:0.37971801 12:0.37823361 13:0.52466363 14:0.2513707 15:0.19972743 16:0.23884013 17:0.26758635 18:0.55029589 19:0.19803737 20:0.19377029 21:0.94783896 22:0.18054785 23:0.19350559 24:0.21806188 25:0.27810553 26:0.20765582 27:0.26693755 28:0.17110898 29:0.16067469 30:0.21578628 31:0.28504038 32:0.054333221 33:0.78645438 34:0.041193984 35:0.24474478 36:0.32465538 37:0.024037166 38:0.23454277 39:0.034307871 40:0.3127948 41:0.49714985 42:0.32858211 43:0.81241882 44:0.01958821 45:0.13389573 46:0.044752147 47:0.58569777 48:0.044806529 49:0.21654102 50:0.19717972 
10.55606328618315 1:0.23542041 2:0.31248119 3:0.54448432 4:0.5354197 5:0.51590818 6:0.94235641 7:0.30116156 8:0.44369549 9:0.30243903 10:0.94504166 11:0.25678116 12:0.25817937 13:0.5784753 14:0.22924645 15:0.30677235 16:0.28120923 17:0.3422606 18:0.60000002 19:0.19345118 20:0.064171821 21:0.93854547 22:0.24904431 23:0.32364956 24:0.40653712 25:0.1899354 26:0.23846422 27:0.30948359 28:0.35759351 29:0.42173445 30:0.34861466 31:0.21435501 32:0.036175128 33:0.7892049 34:0.046044908 35:0.39301533 36:0.34669033 37:0.018700343 38:0.40496701 39:0.034637719 40:0.13582692 41:0.41028616 42:0.27372137 43:0.81088585 44:0.014516164 45:0.33521941 46:0.046265338 47:0.57172012 48:0.015276109 49:0.32852349 50:0.065474182 
10.55606328618315 1:0.32988012 2:0.36629954 3:0.58713859 4:0.58152002 5:0.53604507 6:0.94062471 7:0.31368673 8:0.43469509 9:0.28617886 10:0.94614524 11:0.31547105 12:0.31503224 13:0.573991 14:0.32580855 15:0.33111018 16:0.36661941 17:0.37825441 18:0.53254437 19:0.28835443 20:0.10174672 21:0.93826383 22:0.25398439 23:0.31570637 24:0.23272111 25:0.3242619 26:0.32983825 27:0.36725762 28:0.2849327 29:0.3434532 30:0.32101268 31:0.31764942 32:0.039656691 33:0.84756982 34:0.031392887 35:0.31599483 36:0.37450862 37:0.02559655 38:0.42285928 39:0.023220809 40:0.19947426 41:0.51167893 42:0.34591827 43:0.85396743 44:0.030120097 45:0.2771098 46:0.041987654 47:0.63295174 48:0.045815811 49:0.21588275 50:0.10524914 
10.55606328618315 1:0.20492436 2:0.34469876 3:0.53434044 4:0.56157631 5:0.53483683 6:0.94533098 7:0.35421419 8:0.22567855 9:0.27317074 10:0.95032632 11:0.3213796 12:0.32029182 13:0.49551567 14:0.25219446 15:0.21252382 16:0.16100523 17:0.26227793 18:0.53136098 19:0.21643725 20:0.19972196 21:0.940328 22:0.23310389 23:0.17651977 24:0.25891116 25:0.19870438 26:0.16500928 27:0.1936821 28:0.21281168 29:0.20302767 30:0.20158425 31:0.18249556 32:0.03548339 33:0.81227571 34:0.046149891 35:0.27365381 36:0.3432523 37:0.018226216 38:0.1926024 39:0.025399165 40:0.30187932 41:0.50496757 42:0.2331841 43:0.82940459 44:0.022001313 45:0.17649271 46:0.034944993 47:0.55636108 48:0.037618909 49:0.25923109 50:0.20134464 
10.55606328618315 1:0.10195284 2:0.27511838 3:0.47673777 4:0.49719593 5:0.49375752 6:0.93959534 7:0.29571405 8:0.1564621 9:0.31056911 10:0.94278359 11:0.11380292 12:0.11842174 13:0.68161434 14:0.088569649 15:0.072164081 16:0.081858344 17:0.10133123 18:0.652071 19:0.061000735 20:0.047567818 21:0.93770415 22:0.068991698 23:0.08370395 24:0.14702623 25:0.088828959 26:0.064788774 27:0.12825401 28:0.073191382 29:0.25721973 30:0.1058382 31:0.071206473 32:0.04373553 33:0.75244099 34:0.07719297 35:0.12132607 36:0.33378798 37:0.044632252 38:0.11762533 39:0.049419627 40:0.071912616 41:0.29406586 42:0.30297565 43:0.77723771 44:0.03544445 45:0.1756613 46:0.06704329 47:0.54893005 48:0.031535354 49:0.11305156 50:0.047046009 
10.55606328618315 1:0.10812486 2:0.21727242 3:0.40160629 4:0.43450022 5:0.513089 6:0.93580961 7:0.27603436 8:0.16748764 9:0.36422762 10:0.93607652 11:0.16385451 12:0.16402464 13:0.62780267 14:0.14111674 15:0.16245486 16:0.092062689 17:0.17965044 18:0.57751483 19:0.12469024 20:0.064509951 21:0.93644249 22:0.12520804 23:0.091181174 24:0.21568882 25:0.093261987 26:0.073090702 27:0.12957211 28:0.17185766 29:0.2812539 30:0.11035078 31:0.082417235 32:0.053927157 33:0.69108832 34:0.055122405 35:0.19044861 36:0.31521055 37:0.038814798 38:0.13599984 39:0.022433786 40:0.11015019 41:0.1956861 42:0.31052643 43:0.72653562 44:0.031836051 45:0.19444758 46:0.028737431 47:0.54241383 48:0.048459336 49:0.1632742 50:0.064349286 
10.55606328618315 1:0.28534338 2:0.30875173 3:0.58192581 4:0.52950686 5:0.56665319 6:0.95842963 7:0.22721782 8:0.43064547 9:0.24878049 10:0.95694351 11:0.17835906 12:0.17815059 13:0.55156952 14:0.2081756 15:0.24703978 16:0.32387912 17:0.29970255 18:0.56804734 19:0.17151099 20:0.041591004 21:0.95472342 22:0.21988299 23:0.27764511 24:0.34054965 25:0.23175794 26:0.25376695 27:0.36458719 28:0.286174 29:0.24527715 30:0.30722439 31:0.25014916 32:0.060400091 33:0.75863802 34:0.035946079 35:0.35267809 36:0.29294443 37:0.022029048 38:0.38565516 39:0.062612347 40:0.086610653 41:0.52493638 42:0.21988787 43:0.80160528 44:0.017726563 45:0.17082977 46:0.053868655 47:0.55670208 48:0.030178942 49:0.27477944 50:0.041817207 
10.55606328618315 1:0.19287409 2:0.33725965 3:0.53941554 4:0.55636591 5:0.55577928 6:0.94601667 7:0.34420139 8:0.24547711 9:0.24227645 10:0.95257103 11:0.30911177 12:0.30942741 13:0.5919283 14:0.20165581 15:0.17961845 16:0.18106396 17:0.21894655 18:0.60000002 19:0.16578795 20:0.096029103 21:0.94116861 22:0.21673924 23:0.18898821 24:0.25564575 25:0.18197235 26:0.1829422 27:0.2032036 28:0.19943252 29:0.2540094 30:0.19705634 31:0.1696555 32:0.026263501 33:0.8164171 34:0.046199199 35:0.24302326 36:0.33985388 37:0.025214624 38:0.22845641 39:0.022991316 40:0.18754147 41:0.37798229 42:0.28008652 43:0.8370356 44:0.015734354 45:0.18219846 46:0.035399046 47:0.60425293 48:0.033229087 49:0.24696043 50:0.097364761 
10.55606328618315 1:0.32785827 2:0.25452712 3:0.51130939 4:0.47230637 5:0.68868303 6:0.96150494 7:0.25271735 8:0.30650297 9:0.13821138 10:0.95278531 11:0.36435443 12:0.36298567 13:0.39910313 14:0.25191194 15:0.30992523 16:0.29805723 17:0.35498372 18:0.51479292 19:0.22548929 20:0.087853171 21:0.96009016 22:0.20987916 23:0.21899505 24:0.25384337 25:0.32857433 26:0.29693744 27:0.32500172 28:0.25412211 29:0.13363263 30:0.24560589 31:0.30665731 32:0.086098105 33:0.67503268 34:0.089574426 35:0.32142779 36:0.25191477 37:0.058711588 38:0.26911765 39:0.11125726 40:0.21038638 41:0.47564527 42:0.26317275 43:0.73057169 44:0.041911002 45:0.099163309 46:0.12420051 47:0.58103162 48:0.047023058 49:0.22465442 50:0.086994231 
10.55606328618315 1:0.35733786 2:0.29274184 3:0.57529259 4:0.51158655 5:0.6331051 6:0.95331848 7:0.28369784 8:0.33967903 9:0.14308943 10:0.94661748 11:0.33796731 12:0.33680156 13:0.39013454 14:0.26188853 15:0.2573393 16:0.31117788 17:0.31614134 18:0.47692311 19:0.21000604 20:0.1028146 21:0.94918627 22:0.17733496 23:0.24741612 24:0.20198971 25:0.35075191 26:0.28176492 27:0.33465829 28:0.2024547 29:0.21489029 30:0.25696281 31:0.32671872 32:0.1400442 33:0.72812182 34:0.044581138 35:0.2605862 36:0.30721259 37:0.030550351 38:0.31906807 39:0.077445999 40:0.21757591 41:0.51069528 42:0.27849108 43:0.76459277 44:0.029958943 45:0.1780452 46:0.10443941 47:0.58763349 48:0.13426526 49:0.17188796 50:0.10679983 
10.55606328618315 1:0.27665541 2:0.27139917 3:0.48156956 4:0.49471876 5:0.56343126 6:0.94105834 7:0.33284572 8:0.18705308 9:0.20487803 10:0.93748325 11:0.3372789 12:0.33611059 13:0.43946189 14:0.22050428 15:0.19010234 16:0.16827014 17:0.25413051 18:0.61656809 19:0.17747037 20:0.15703994 21:0.93727255 22:0.10802567 23:0.12592787 24:0.12509491 25:0.25898576 26:0.13940927 27:0.21280457 28:0.10358293 29:0.13377514 30:0.14926346 31:0.24227124 32:0.056798637 33:0.71235561 34:0.046616152 35:0.17873269 36:0.32484186 37:0.023533801 38:0.1498021 39:0.047729883 40:0.26829666 41:0.49561262 42:0.3297545 43:0.74047589 44:0.018223975 45:0.12809674 46:0.0657399 47:0.51451826 48:0.095704436 49:0.11927643 50:0.15975957 
10.55606328618315 1:0.087071925 2:0.20704605 3:0.41176721 4:0.42001814 5:0.50865889 6:0.94262779 7:0.27281368 8:0.16035315 9:0.31219512 10:0.93944806 11:0.12471242 12:0.12576923 13:0.73991036 14:0.097315915 15:0.10641412 16:0.077584065 17:0.12339059 18:0.62366867 19:0.079584152 20:0.054315217 21:0.94024098 22:0.098225676 23:0.089842424 24:0.17505099 25:0.072638832 26:0.063699201 27:0.1226385 28:0.13136217 29:0.21913329 30:0.11189368 31:0.057537042 32:0.053892035 33:0.63864952 34:0.1585442 35:0.15206237 36:0.27188656 37:0.11465903 38:0.12241367 39:0.028720031 40:0.086402029 41:0.17992008 42:0.34122926 43:0.67876047 44:0.087155119 45:0.14218752 46:0.062469542 47:0.52153438 48:0.030028204 49:0.13363384 50:0.05412697 
