svm_type c_svc
kernel_type rbf
gamma 1.52588e-05
nr_class 2
total_sv 3794
rho 0.7542
label 1 -1
probA -10.0956
probB -8.85995
nr_sv 1897 1897
SV
32 1:0.10480133 2:0.1133642 3:0.38935956 4:0.29899818 5:0.44462344 6:0.88356364 7:0.23064518 8:0.17269754 9:0.21626016 10:0.88914406 11:0.13803694 12:0.13720274 13:0.5919283 14:0.13538361 15:0.12722477 16:0.1141088 17:0.16027537 18:0.73727816 19:0.10816747 20:0.049452893 21:0.88058579 22:0.16303506 23:0.15906692 24:0.15523405 25:0.099341899 26:0.11611096 27:0.13067259 28:0.15259267 29:0.15038157 30:0.16904958 31:0.091412559 32:0.042556416 33:0.60690188 34:0.038098793 35:0.17979366 36:0.37536061 37:0.02817267 38:0.15772589 39:0.031617288 40:0.082589231 41:0.45431739 42:0.31094444 43:0.63725704 44:0.026514599 45:0.15125346 46:0.021698354 47:0.63777435 48:0.05478606 49:0.18324021 50:0.051056754 
32 1:0.10373082 2:0.090008438 3:0.38390628 4:0.26441258 5:0.45146999 6:0.8811987 7:0.17610005 8:0.13710321 9:0.22764228 10:0.88733631 11:0.18406282 12:0.18362248 13:0.5044843 14:0.1735995 15:0.12266523 16:0.085155778 17:0.19141111 18:0.78934914 19:0.1347364 20:0.12402391 21:0.87826061 22:0.13509563 23:0.10831974 24:0.15011433 25:0.12007942 26:0.095239371 27:0.11520834 28:0.10728751 29:0.13754167 30:0.12586729 31:0.082520254 32:0.056249797 33:0.5617404 34:0.063448951 35:0.19513664 36:0.3489041 37:0.099601202 38:0.11268464 39:0.046777964 40:0.15856762 41:0.28377298 42:0.22811127 43:0.60196412 44:0.083494425 45:0.12386531 46:0.052524015 47:0.61993152 48:0.045090623 49:0.13717194 50:0.12511723 
32 1:0.045289617 2:0.063362889 3:0.28021529 4:0.21253145 5:0.39387834 6:0.83952439 7:0.17584425 8:0.10029185 9:0.32357723 10:0.83738601 11:0.13659535 12:0.13576469 13:0.68161434 14:0.060541034 15:0.046225362 16:0.051710505 17:0.074449025 18:0.72426033 19:0.042980704 20:0.076626167 21:0.8358838 22:0.067075551 23:0.10572103 24:0.11779543 25:0.04555187 26:0.054698151 27:0.056981876 28:0.053683657 29:0.12152585 30:0.10927907 31:0.043558698 32:0.036957953 33:0.48368642 34:0.053526387 35:0.090347491 36:0.38764757 37:0.053327728 38:0.094346844 39:0.039375279 40:0.11231102 41:0.154433 42:0.29417676 43:0.51528764 44:0.12617496 45:0.12429968 46:0.049302731 47:0.65666968 48:0.054990664 49:0.15138566 50:0.076658383 
32 1:0.091207735 2:0.07933303 3:0.34903336 4:0.24354887 5:0.44703984 6:0.87285632 7:0.16938233 8:0.11560652 9:0.23577236 10:0.8764258 11:0.1577494 12:0.15789521 13:0.61434978 14:0.1587541 15:0.11681668 16:0.076616004 17:0.17828862 18:0.70887572 19:0.12481334 20:0.12305551 21:0.87065113 22:0.11377964 23:0.10427822 24:0.14357586 25:0.11077738 26:0.093260624 27:0.092813335 28:0.10286392 29:0.15714931 30:0.11375561 31:0.077175908 32:0.037976459 33:0.52989489 34:0.052050129 35:0.17690292 36:0.34883586 37:0.11613505 38:0.10547802 39:0.038207993 40:0.15341818 41:0.26326334 42:0.25379136 43:0.56970048 44:0.085947387 45:0.14168116 46:0.0369673 47:0.63827616 48:0.057646122 49:0.13228498 50:0.12384385 
32 1:0.19662732 2:0.16069111 3:0.49210614 4:0.36986455 5:0.46395487 6:0.90517324 7:0.29803288 8:0.2837745 9:0.21788618 10:0.90727335 11:0.2311217 12:0.23089039 13:0.46636772 14:0.23539405 15:0.22541437 16:0.19937295 17:0.26775038 18:0.723077 19:0.20411219 20:0.084096894 21:0.89961481 22:0.19701402 23:0.23150183 24:0.18079472 25:0.20930992 26:0.20314114 27:0.22460705 28:0.19885804 29:0.22501865 30:0.24841395 31:0.17649551 32:0.08690346 33:0.67637378 34:0.02603991 35:0.25391853 36:0.37897685 37:0.025561292 38:0.2561563 39:0.035990108 40:0.16031799 41:0.40178987 42:0.23845449 43:0.70291352 44:0.015497429 45:0.21312922 46:0.035803299 47:0.58096665 48:0.069324367 49:0.14579108 50:0.084546752 
32 1:0.2298898 2:0.13488197 3:0.47226137 4:0.33407074 5:0.43737411 6:0.88796866 7:0.24867509 8:0.24731474 9:0.24552846 10:0.89505011 11:0.28125456 12:0.27995434 13:0.47085202 14:0.19239238 15:0.15525335 16:0.21211499 17:0.20238321 18:0.83195269 19:0.16257381 20:0.1741098 21:0.88269961 22:0.10608199 23:0.18205772 24:0.10841041 25:0.22772452 26:0.19194975 27:0.23402363 28:0.096482828 29:0.17932081 30:0.1986734 31:0.21316873 32:0.049108129 33:0.65662068 34:0.032305211 35:0.16159682 36:0.3936424 37:0.010908044 38:0.21978736 39:0.033084422 40:0.23479691 41:0.39204192 42:0.26086625 43:0.68204159 44:0.018110353 45:0.18202686 46:0.039972041 47:0.60926366 48:0.063299127 49:0.10191409 50:0.17429923 
32 1:0.062959969 2:0.076077096 3:0.29496947 4:0.23743273 5:0.41039065 6:0.84239864 7:0.18661192 8:0.12780218 9:0.26666668 10:0.84395915 11:0.060886618 12:0.0611513 13:0.5784753 14:0.067351274 15:0.062020008 16:0.088099085 17:0.090514973 18:0.73491126 19:0.044762537 20:0.02436875 21:0.83795875 22:0.065056123 23:0.14837398 24:0.10200553 25:0.069156632 26:0.11971199 27:0.08707045 28:0.070682451 29:0.12297098 30:0.1489277 31:0.061698776 32:0.055257037 33:0.52843487 34:0.055279717 35:0.10997556 36:0.40867263 37:0.033507153 38:0.12825213 39:0.039564546 40:0.036996603 41:0.37981045 42:0.3267754 43:0.55644232 44:0.043733258 45:0.12261757 46:0.027937151 47:0.65621674 48:0.062296323 49:0.099987932 50:0.024625661 
32 1:0.16788137 2:0.12161523 3:0.42794174 4:0.31252667 5:0.41522348 6:0.87782347 7:0.23589386 8:0.17779465 9:0.22113821 10:0.88483924 11:0.24389459 12:0.24282323 13:0.60089689 14:0.20024422 15:0.16678599 16:0.15358958 17:0.21851653 18:0.70177519 19:0.1681885 20:0.14008571 21:0.87234205 22:0.11149174 23:0.16208626 24:0.13075958 25:0.19985977 26:0.19658636 27:0.16985491 28:0.11067298 29:0.17059729 30:0.1785467 31:0.15713431 32:0.05326359 33:0.6341905 34:0.023536284 35:0.17590554 36:0.40070108 37:0.015477353 38:0.15675908 39:0.037715714 40:0.19963953 41:0.32391384 42:0.27132922 43:0.65740275 44:0.020051757 45:0.17676468 46:0.028036414 47:0.61485952 48:0.077153206 49:0.11900843 50:0.14117278 
32 1:0.13786104 2:0.090746574 3:0.36560196 4:0.26265761 5:0.45146999 6:0.87428486 7:0.18203297 8:0.14221668 9:0.23089431 10:0.88049984 11:0.06020489 12:0.063541874 13:0.50672644 14:0.15990536 15:0.10651843 16:0.10714369 17:0.15348709 18:0.64497048 19:0.12181644 20:0.017584011 21:0.86768776 22:0.22601148 23:0.11952894 24:0.14637318 25:0.17492831 26:0.16524123 27:0.15254004 28:0.13624331 29:0.11077655 30:0.14307556 31:0.10980304 32:0.057788476 33:0.56894559 34:0.071869753 35:0.20421141 36:0.36689654 37:0.023205025 38:0.099353552 39:0.063661076 40:0.035140458 41:0.46810898 42:0.27068239 43:0.60418814 44:0.10874466 45:0.10581667 46:0.075384073 47:0.567729 48:0.037535813 49:0.17377846 50:0.018034287 
32 1:0.19149023 2:0.13559666 3:0.45042259 4:0.33504593 5:0.44865078 6:0.89306897 7:0.25942457 8:0.17892167 9:0.22439025 10:0.89957583 11:0.15567049 12:0.15559536 13:0.46636772 14:0.10618467 15:0.071644522 16:0.14539206 17:0.12224369 18:0.7431953 19:0.079130456 20:0.17958616 21:0.88924479 22:0.064198509 23:0.13075294 24:0.082105786 25:0.20217274 26:0.13072662 27:0.16623381 28:0.051976886 29:0.16461137 30:0.14864795 31:0.17815527 32:0.047257639 33:0.64857411 34:0.029086269 35:0.1169942 36:0.3798556 37:0.029414983 38:0.15494882 39:0.037629656 40:0.1732039 41:0.37914154 42:0.27107579 43:0.67596304 44:0.024291549 45:0.17627139 46:0.024145843 47:0.61290604 48:0.046178155 49:0.073274247 50:0.17987922 
32 1:0.15856262 2:0.15606256 3:0.41195685 4:0.36049899 5:0.46556583 6:0.95190698 7:0.24720833 8:0.14763245 9:0.28455284 10:0.95057905 11:0.19971375 12:0.19960578 13:0.40582961 14:0.2775633 15:0.19462629 16:0.10342346 17:0.23879766 18:0.70295858 19:0.2478475 20:0.15149501 21:0.95391321 22:0.19509827 23:0.098501414 24:0.13766323 25:0.19398938 26:0.12222784 27:0.16132934 28:0.14377452 29:0.096480384 30:0.12590317 31:0.11893504 32:0.088199422 33:0.58954722 34:0.060437456 35:0.20919628 36:0.20202841 37:0.023405736 38:0.099681064 39:0.056097239 40:0.19671427 41:0.26665989 42:0.27504143 43:0.6536935 44:0.03604668 45:0.092821822 46:0.047194988 47:0.55577439 48:0.075258307 49:0.15001561 50:0.15156855 
32 1:0.10406855 2:0.12063534 3:0.42565203 4:0.31056353 5:0.4885219 6:0.92933679 7:0.23114087 8:0.14694273 9:0.25203252 10:0.93085968 11:0.1461338 12:0.14680311 13:0.42152464 14:0.14020818 15:0.089843981 16:0.074624442 17:0.16037907 18:0.76686394 19:0.098933674 20:0.11653013 21:0.92987007 22:0.1288612 23:0.12399883 24:0.16225268 25:0.10595956 26:0.075486347 27:0.11307457 28:0.099589936 29:0.14996764 30:0.14282851 31:0.074628338 32:0.055889294 33:0.57127619 34:0.048087988 35:0.17863739 36:0.24989246 37:0.050945267 38:0.12026914 39:0.035345271 40:0.14605372 41:0.28431711 42:0.25496143 43:0.6287775 44:0.053398311 45:0.1355087 46:0.050568536 47:0.61691821 48:0.042856734 49:0.18550804 50:0.11908516 
32 1:0.32576674 2:0.16564174 3:0.57876837 4:0.36971378 5:0.52637935 6:0.94174057 7:0.2680659 8:0.31420001 9:0.23577236 10:0.94175124 11:0.22429308 12:0.22350198 13:0.367713 14:0.27532649 15:0.29600418 16:0.31947455 17:0.33666164 18:0.68047339 19:0.24415001 20:0.085339315 21:0.94008464 22:0.23525989 23:0.19551826 24:0.24132842 25:0.29040104 26:0.25877911 27:0.33936206 28:0.28260818 29:0.13415256 30:0.21511081 31:0.30911383 32:0.068506859 33:0.63605827 34:0.034667052 35:0.32862866 36:0.26372516 37:0.034473982 38:0.28033078 39:0.060663115 40:0.15704982 41:0.45615321 42:0.23014021 43:0.69425046 44:0.025004068 45:0.10620137 46:0.035269942 47:0.60881829 48:0.087660886 49:0.20020451 50:0.086169042 
32 1:0.31553572 2:0.13942182 3:0.52411968 4:0.33715063 5:0.52275473 6:0.92402744 7:0.25606167 8:0.38809153 9:0.26178864 10:0.92652214 11:0.27081496 12:0.27051014 13:0.40807176 14:0.35866582 15:0.39175868 16:0.3164871 17:0.44999185 18:0.72544378 19:0.31624851 20:0.080775768 21:0.92676514 22:0.3385824 23:0.26072869 24:0.33476549 25:0.28880358 26:0.28575692 27:0.37225011 28:0.38813254 29:0.21220846 30:0.29512814 31:0.2698074 32:0.05608118 33:0.61671638 34:0.065635882 35:0.45872867 36:0.29357827 37:0.050521638 38:0.33267763 39:0.049328711 40:0.1663502 41:0.3391718 42:0.21606418 43:0.66456294 44:0.019346667 45:0.169843 46:0.034908794 47:0.52523947 48:0.04990479 49:0.27932325 50:0.081390075 
32 1:0.15203065 2:0.078350805 3:0.39392763 4:0.24013777 5:0.46234393 6:0.88136804 7:0.21143669 8:0.27003911 9:0.28455284 10:0.87786192 11:0.15448633 12:0.15444383 13:0.46860987 14:0.17252721 15:0.16408682 16:0.1614794 17:0.21149039 18:0.71715981 19:0.14156182 20:0.10558885 21:0.88068491 22:0.17412609 23:0.19008891 24:0.29940903 25:0.13356245 26:0.1354607 27:0.20306344 28:0.21918064 29:0.2521362 30:0.21245514 31:0.11504853 32:0.036511555 33:0.50459027 34:0.096737511 35:0.25864595 36:0.32525322 37:0.037189323 38:0.23990221 39:0.054835808 40:0.15084426 41:0.24635813 42:0.30135 43:0.54626268 44:0.02842729 45:0.20647106 46:0.057477627 47:0.55634189 48:0.028513405 49:0.26550597 50:0.10814966 
32 1:0.2477105 2:0.084012352 3:0.45069674 4:0.25060561 5:0.46395487 6:0.87633419 7:0.23029819 8:0.3074618 9:0.2406504 10:0.86833721 11:0.37090126 12:0.3707 13:0.40134528 14:0.21402679 15:0.22949685 16:0.24151114 17:0.25301418 18:0.67928994 19:0.19953386 20:0.14678352 21:0.87560135 22:0.14052615 23:0.25978491 24:0.17043592 25:0.24371277 26:0.2665998 27:0.28646064 28:0.15276539 29:0.1825048 30:0.29409668 31:0.21425773 32:0.10532181 33:0.51569974 34:0.032792062 35:0.19921269 36:0.35260639 37:0.013838098 38:0.26069361 39:0.12820442 40:0.25376618 41:0.43915707 42:0.23069851 43:0.54895645 44:0.01444651 45:0.17919713 46:0.070065282 47:0.51758492 48:0.047103211 49:0.17370547 50:0.14521952 
32 1:0.14344704 2:0.12475716 3:0.42205161 4:0.31500846 5:0.47362059 6:0.93355912 7:0.24086191 8:0.22761063 9:0.23902439 10:0.93644732 11:0.19514681 12:0.19755588 13:0.39237669 14:0.21076006 15:0.18118955 16:0.10052569 17:0.22539513 18:0.7183432 19:0.18304929 20:0.069430821 21:0.93718684 22:0.17834571 23:0.1328077 24:0.22159924 25:0.1518822 26:0.096016489 27:0.16261455 28:0.16010793 29:0.30690041 30:0.17045844 31:0.10428514 32:0.023773547 33:0.57404137 34:0.05173447 35:0.24157012 36:0.23534846 37:0.035212304 38:0.17270502 39:0.033030815 40:0.13981247 41:0.29488102 42:0.24470705 43:0.63360167 44:0.043116674 45:0.25445542 46:0.036879186 47:0.5277614 48:0.026481399 49:0.19413157 50:0.068233229 
32 1:0.14126949 2:0.076453269 3:0.4243989 4:0.23761775 5:0.45831653 6:0.86411434 7:0.21484824 8:0.37574348 9:0.24878049 10:0.85504192 11:0.1591469 12:0.15844232 13:0.48654708 14:0.14778231 15:0.15977718 16:0.15618306 17:0.2017363 18:0.61538464 19:0.11826057 20:0.081972614 21:0.86114705 22:0.16184326 23:0.31587988 24:0.27072558 25:0.12555179 26:0.13267663 27:0.2046258 28:0.19595273 29:0.42318955 30:0.34177834 31:0.10644718 32:0.060400307 33:0.49767807 34:0.057815529 35:0.24444899 36:0.36461183 37:0.037297182 38:0.33279744 39:0.077459902 40:0.11927552 41:0.44866151 42:0.26846939 43:0.52885079 44:0.031301998 45:0.44781792 46:0.078822292 47:0.52216285 48:0.040019002 49:0.24391098 50:0.082262471 
32 1:0.18042251 2:0.11454405 3:0.44406539 4:0.30126929 5:0.47764802 6:0.91929162 7:0.23212199 8:0.35741684 9:0.26504067 10:0.9195928 11:0.16454208 12:0.16363348 13:0.4147982 14:0.18154219 15:0.17909409 16:0.19910772 17:0.2351907 18:0.7207101 19:0.14442304 20:0.1086891 21:0.92479891 22:0.22534934 23:0.25898978 24:0.40164766 25:0.16286038 26:0.17610343 27:0.25792429 28:0.26613805 29:0.29542157 30:0.28735054 31:0.13020977 32:0.041892078 33:0.56935632 34:0.10633281 35:0.3250519 36:0.27753747 37:0.03657585 38:0.31260595 39:0.046966784 40:0.15811963 41:0.28269836 42:0.2332664 43:0.6218785 44:0.03234753 45:0.23963942 46:0.052404352 47:0.52035159 48:0.029217761 49:0.38579008 50:0.11000411 
32 1:0.06110023 2:0.0335094 3:0.21235444 4:0.1353658 5:0.41683444 6:0.80854762 7:0.13671222 8:0.085029989 9:0.24552846 10:0.79287952 11:0.048746429 12:0.048205711 13:0.6704036 14:0.064125091 15:0.041515145 16:0.042570639 17:0.091087952 18:0.74201185 19:0.034117699 20:0.022088515 21:0.80776149 22:0.055065539 23:0.04833474 24:0.084649824 25:0.048410498 26:0.033955097 27:0.078045711 28:0.042873163 29:0.060133021 30:0.067022979 31:0.037287317 32:0.057363685 33:0.35627732 34:0.063121296 35:0.11118822 36:0.35338366 37:0.034053549 38:0.058482625 39:0.049241632 40:0.038612798 41:0.15086398 42:0.31106663 43:0.39278165 44:0.032791801 45:0.06008609 46:0.048531573 47:0.55123335 48:0.023358867 49:0.07761275 50:0.022420483 
32 1:0.099516869 2:0.044118296 3:0.2744973 4:0.17019346 5:0.46757951 6:0.82223564 7:0.17128932 8:0.10097557 9:0.18373983 10:0.81084448 11:0.11853487 12:0.12103711 13:0.45964125 14:0.14584444 15:0.11142727 16:0.08005596 17:0.15688905 18:0.64852077 19:0.11161517 20:0.057997551 21:0.81991893 22:0.096635424 23:0.072079137 24:0.141541 25:0.11610574 26:0.075836413 27:0.09179505 28:0.0882283 29:0.10031223 30:0.07764364 31:0.09110938 32:0.075491361 33:0.40647292 34:0.046416529 35:0.16241395 36:0.37000915 37:0.025275165 38:0.090766206 39:0.045640741 40:0.090360507 41:0.26255801 42:0.24502721 43:0.44231901 44:0.069443926 45:0.099704757 46:0.052754316 47:0.57794678 48:0.048555739 49:0.11444117 50:0.057726007 
32 1:0.25963098 2:0.1381859 3:0.44892985 4:0.33692893 5:0.45106724 6:0.92856699 7:0.26328483 8:0.29503575 9:0.26178864 10:0.92938524 11:0.32614785 12:0.32517788 13:0.45067263 14:0.30552447 15:0.35541362 16:0.24328081 17:0.38778368 18:0.68284023 19:0.28058457 20:0.08943861 21:0.9383108 22:0.22774744 23:0.2255318 24:0.22771105 25:0.24520269 26:0.22691788 27:0.27033249 28:0.28158039 29:0.18667884 30:0.24772896 31:0.23554282 32:0.071058415 33:0.61173451 34:0.049785729 35:0.32375935 36:0.28189865 37:0.040658221 38:0.26587808 39:0.055415917 40:0.19610842 41:0.31086484 42:0.25109133 43:0.66385615 44:0.035178486 45:0.16274197 46:0.05210387 47:0.56864518 48:0.061673131 49:0.19177958 50:0.089444861 
32 1:0.18667351 2:0.098494977 3:0.44735983 4:0.27739909 5:0.44744259 6:0.8927139 7:0.23056953 8:0.31862786 9:0.22276421 10:0.89865148 11:0.25752375 12:0.26106453 13:0.49551567 14:0.16018264 15:0.18393898 16:0.2040258 17:0.19864865 18:0.73491126 19:0.14657292 20:0.081104711 21:0.90247875 22:0.13798635 23:0.26645276 24:0.19165593 25:0.17800872 26:0.19364001 27:0.23124589 28:0.15551271 29:0.23731886 30:0.28273568 31:0.16455211 32:0.074193694 33:0.56797403 34:0.043628458 35:0.19008875 36:0.32652506 37:0.030185206 38:0.28981325 39:0.056330845 40:0.16429813 41:0.40845782 42:0.27076265 43:0.60964239 44:0.014876883 45:0.21747625 46:0.062016767 47:0.5656926 48:0.093699321 49:0.17035998 50:0.07925874 
32 1:0.092169121 2:0.064156696 3:0.32437536 4:0.21174373 5:0.43938783 6:0.85878837 7:0.20526288 8:0.091250584 9:0.29430893 10:0.86267096 11:0.067520127 12:0.067734286 13:0.56053811 14:0.055376906 15:0.034477096 16:0.064521439 17:0.054404411 18:0.7644971 19:0.041088197 20:0.032218989 21:0.85343599 22:0.03605229 23:0.068058811 24:0.0391449 25:0.09450344 26:0.069999352 27:0.089054301 28:0.023969773 29:0.099219024 30:0.080225408 31:0.076873459 32:0.072291858 33:0.48673043 34:0.038612131 35:0.057004947 36:0.34331191 37:0.040812261 38:0.070149042 39:0.026398161 40:0.05091098 41:0.40662473 42:0.29724655 43:0.52648008 44:0.028249107 45:0.089655779 46:0.044049852 47:0.59907728 48:0.032992739 49:0.039165635 50:0.031437922 
32 1:0.076567687 2:0.046592649 3:0.25659502 4:0.17278577 5:0.45066449 6:0.83346134 7:0.166657 8:0.088506714 9:0.23089431 10:0.82994479 11:0.11002056 12:0.10951485 13:0.56053811 14:0.10888524 15:0.084479265 16:0.063956521 17:0.10696501 18:0.7644971 19:0.092435375 20:0.084603548 21:0.82771796 22:0.056878909 23:0.063516453 24:0.078048721 25:0.079052038 26:0.052903768 27:0.07896205 28:0.062367901 29:0.09534771 30:0.070522882 31:0.064640194 32:0.055720877 33:0.42273626 34:0.026653526 35:0.09381523 36:0.35092241 37:0.045056466 38:0.078626335 39:0.040864587 40:0.10024707 41:0.25139144 42:0.27935898 43:0.4616912 44:0.11912847 45:0.099915236 46:0.038457967 47:0.58463144 48:0.045720037 49:0.064325608 50:0.084681123 
32 1:0.18741548 2:0.14719069 3:0.45193878 4:0.35108936 5:0.43737411 6:0.92939854 7:0.28877637 8:0.1633926 9:0.24227645 10:0.93188649 11:0.39973098 12:0.3986176 13:0.4304933 14:0.25891846 15:0.28005877 16:0.15160973 17:0.30825049 18:0.66745561 19:0.23608954 20:0.11969072 21:0.94021827 22:0.14976299 23:0.12787746 24:0.12576659 25:0.18626593 26:0.15081349 27:0.16561832 28:0.17291391 29:0.11982979 30:0.14150988 31:0.17750928 32:0.072423369 33:0.63318115 34:0.025413642 35:0.21056876 36:0.29074731 37:0.017493613 38:0.14551535 39:0.046491504 40:0.25491282 41:0.35371307 42:0.23528415 43:0.68507344 44:0.035216477 45:0.13515776 46:0.037386782 47:0.63167542 48:0.094886966 49:0.11159871 50:0.1197717 
32 1:0.11645827 2:0.066469729 3:0.28506818 4:0.21919303 5:0.50946438 6:0.87620908 7:0.20192093 8:0.12070598 9:0.21138212 10:0.87590832 11:0.13511705 12:0.13557582 13:0.51121074 14:0.14961044 15:0.12385599 16:0.10020518 17:0.17145929 18:0.65088755 19:0.11661893 20:0.063996091 21:0.87571722 22:0.11078729 23:0.0844661 24:0.16199198 25:0.13803065 26:0.098055117 27:0.11281323 28:0.10995002 29:0.092735194 30:0.094720066 31:0.11053001 32:0.068134032 33:0.4812181 34:0.064250432 35:0.18149123 36:0.31113866 37:0.039179876 38:0.10404499 39:0.05099031 40:0.09783566 41:0.31699458 42:0.23976825 43:0.52884334 44:0.090238735 45:0.096885733 46:0.042026497 47:0.57980961 48:0.064547531 49:0.13904071 50:0.063849948 
32 1:0.075659849 2:0.049943585 3:0.26820162 4:0.18086384 5:0.41844541 6:0.8399924 7:0.16082488 8:0.087322064 9:0.2504065 10:0.83844686 11:0.067391947 12:0.066791348 13:0.53811657 14:0.076051109 15:0.071060985 16:0.053540196 17:0.11712258 18:0.66153842 19:0.050568197 20:0.02970504 21:0.83341414 22:0.068824165 23:0.060744256 24:0.12137948 25:0.069803543 26:0.05079319 27:0.079657458 28:0.074757986 29:0.084351189 30:0.073947512 31:0.055777077 32:0.046976168 33:0.43701026 34:0.050887872 35:0.14052957 36:0.3480297 37:0.03354881 38:0.07028538 39:0.035985958 40:0.046503711 41:0.31149307 42:0.28635487 43:0.47701594 44:0.021896444 45:0.075224362 46:0.039476279 47:0.59837121 48:0.043766443 49:0.10509691 50:0.02923114 
32 1:0.051542349 2:0.043643679 3:0.28730544 4:0.16673632 5:0.45267817 6:0.80602103 7:0.16094302 8:0.084183872 9:0.23252033 10:0.79675698 11:0.066977911 12:0.066380702 13:0.55156952 14:0.068667717 15:0.055767011 16:0.053280067 17:0.099916659 18:0.67337281 19:0.041671615 20:0.030192753 21:0.80189705 22:0.068853341 23:0.084171414 24:0.094652005 25:0.063499786 26:0.063642539 27:0.061389033 28:0.056995399 29:0.083778553 30:0.092661671 31:0.04970647 32:0.052417118 33:0.41729745 34:0.051826075 35:0.11905644 36:0.40234876 37:0.027096145 38:0.073441513 39:0.048994016 40:0.042204168 41:0.29583687 42:0.26726797 43:0.45025215 44:0.031528983 45:0.088585876 46:0.066578723 47:0.60662675 48:0.037984006 49:0.096938208 50:0.030283749 
32 1:0.091350861 2:0.073039874 3:0.37253386 4:0.22784673 5:0.44502613 6:0.86599982 7:0.21391934 8:0.2933442 9:0.23577236 10:0.86132491 11:0.13081779 12:0.13014632 13:0.5695067 14:0.13538714 15:0.10460957 16:0.1033002 17:0.15194096 18:0.72426033 19:0.10445455 20:0.085829809 21:0.86132562 22:0.17786773 23:0.24664153 24:0.25711566 25:0.090826437 26:0.10720949 27:0.15207674 28:0.15633038 29:0.3561196 30:0.27009889 31:0.058201961 32:0.017268835 33:0.50248998 34:0.039213367 35:0.21452968 36:0.35707018 37:0.02646262 38:0.25202405 39:0.079960048 40:0.11855323 41:0.33916003 42:0.26432931 43:0.54013985 44:0.021439046 45:0.36141908 46:0.07687743 47:0.51277739 48:0.030138275 49:0.27295032 50:0.086537369 
32 1:0.13316591 2:0.081401676 3:0.37499493 4:0.24699976 5:0.47563428 6:0.88556385 7:0.22776258 8:0.15997659 9:0.21951219 10:0.88909364 11:0.16797501 12:0.16704443 13:0.52242148 14:0.14909127 15:0.12450407 16:0.11163437 17:0.15094742 18:0.66390532 19:0.13091166 20:0.071713097 21:0.88953221 22:0.14034007 23:0.16596189 24:0.11126877 25:0.16322754 26:0.143847 27:0.13163592 28:0.11261649 29:0.14512902 30:0.17988998 31:0.11782168 32:0.062394049 33:0.51924706 34:0.042360395 35:0.14143172 36:0.31270826 37:0.021729304 38:0.14250155 39:0.065166295 40:0.12341154 41:0.34735557 42:0.33056334 43:0.56174165 44:0.012910937 45:0.15794413 46:0.067757711 47:0.57486033 48:0.052647326 49:0.14447536 50:0.072198331 
32 1:0.0485202 2:0.066056818 3:0.29507142 4:0.2206206 5:0.46033022 6:0.87914133 7:0.17957592 8:0.090236031 9:0.2504065 10:0.87783849 11:0.067368619 12:0.067428842 13:0.64573991 14:0.067827702 15:0.040326554 16:0.053462662 17:0.054261331 18:0.70887572 19:0.057479512 20:0.032829862 21:0.90436888 22:0.05526929 23:0.08027821 24:0.066813648 25:0.072443649 26:0.072868802 27:0.059039753 28:0.040640432 29:0.13072811 30:0.079420403 31:0.044957735 32:0.051708877 33:0.47584987 34:0.036063675 35:0.064631954 36:0.30220896 37:0.024983177 38:0.08595141 39:0.031409863 40:0.04639069 41:0.25292489 42:0.30257317 43:0.52367043 44:0.026029171 45:0.10566537 46:0.02380747 47:0.63835412 48:0.037823986 49:0.073121794 50:0.032082289 
32 1:0.093765929 2:0.11863118 3:0.37286973 4:0.31085032 5:0.48650822 6:0.93222457 7:0.22491004 8:0.11368531 9:0.22601627 10:0.92998159 11:0.13777326 12:0.13694373 13:0.56053811 14:0.15303777 15:0.14001088 16:0.077249594 17:0.17125812 18:0.72662723 19:0.13343211 20:0.097914927 21:0.93651187 22:0.12105318 23:0.080850534 24:0.11375921 25:0.091383189 26:0.071235903 27:0.097957648 28:0.12671286 29:0.099335596 30:0.099216364 31:0.082559504 32:0.057741243 33:0.56104201 34:0.035275642 35:0.16648959 36:0.24347395 37:0.033881556 38:0.092435241 39:0.049582046 40:0.11883304 41:0.23832405 42:0.30229604 43:0.61922324 44:0.061700463 45:0.10160612 46:0.053351134 47:0.64105433 48:0.058951531 49:0.10552517 50:0.097415417 
32 1:0.11999746 2:0.19083701 3:0.5277704 4:0.40287161 5:0.539267 6:0.95078987 7:0.30356947 8:0.25152272 9:0.16910569 10:0.94888496 11:0.20900169 12:0.21174295 13:0.35650226 14:0.15244919 15:0.12583022 16:0.10390344 17:0.19857317 18:0.73846161 19:0.095739223 20:0.064440705 21:0.95155263 22:0.1213778 23:0.16196655 24:0.29564711 25:0.10946294 26:0.086247824 27:0.14665718 28:0.14124013 29:0.43288794 30:0.17831317 31:0.085331261 32:0.017664699 33:0.65169531 34:0.063227944 35:0.24305809 36:0.25380012 37:0.033397578 38:0.22212867 39:0.031771928 40:0.12849322 41:0.36993363 42:0.22100447 43:0.71113133 44:0.029545793 45:0.3561444 46:0.038109325 47:0.57432443 48:0.020338451 49:0.22604799 50:0.065670595 
32 1:0.046346959 2:0.069477059 3:0.25430045 4:0.2284169 5:0.46355212 6:0.90675944 7:0.17240512 8:0.053202778 9:0.24552846 10:0.89802384 11:0.088311858 12:0.087731026 13:0.64573991 14:0.062691927 15:0.041338883 16:0.029281927 17:0.078365535 18:0.75029588 19:0.043817319 20:0.037736747 21:0.94240648 22:0.048679553 23:0.031771872 24:0.064086728 25:0.047834229 26:0.030133661 27:0.048223775 28:0.031148419 29:0.075762056 30:0.039101694 31:0.034237303 32:0.03806524 33:0.45561376 34:0.065347679 35:0.084039614 36:0.23924795 37:0.035613276 38:0.040056199 39:0.02705125 40:0.059066489 41:0.1961818 42:0.301328 43:0.51090264 44:0.036867131 45:0.054135155 46:0.044117976 47:0.58492553 48:0.077817574 49:0.068408228 50:0.037240818 
32 1:0.19420548 2:0.10187069 3:0.42521673 4:0.27950469 5:0.42247277 6:0.89661425 7:0.2434593 8:0.15458211 9:0.22764228 10:0.90086704 11:0.18668365 12:0.18655159 13:0.47085202 14:0.12666468 15:0.084168606 16:0.15574197 17:0.10905574 18:0.79171598 19:0.10559943 20:0.14171547 21:0.90545839 22:0.085362025 23:0.11950208 24:0.085366532 25:0.22446081 26:0.17410383 27:0.18035552 28:0.067407794 29:0.088444285 30:0.1332074 31:0.17636929 32:0.074600786 33:0.57560086 34:0.021929104 35:0.10145644 36:0.32810658 37:0.017781679 38:0.1289041 39:0.041818991 40:0.16497548 41:0.36594439 42:0.25619841 43:0.61858708 44:0.019209657 45:0.089959979 46:0.042398985 47:0.59137762 48:0.050290678 49:0.098899163 50:0.14209215 
32 1:0.19394816 2:0.16413119 3:0.47129843 4:0.37249148 5:0.50624239 6:0.95137203 7:0.25685051 8:0.18495955 9:0.21138212 10:0.94359314 11:0.21318303 12:0.21334492 13:0.39237669 14:0.2516568 15:0.24574326 16:0.16175498 17:0.30808505 18:0.68994087 19:0.20732361 20:0.081806384 21:0.95611268 22:0.19784752 23:0.11327578 24:0.22243735 25:0.19858268 26:0.15868886 27:0.20292529 28:0.21646731 29:0.1161238 30:0.13586906 31:0.16471943 32:0.090993486 33:0.59967625 34:0.050397448 35:0.30259168 36:0.23260237 37:0.041016225 38:0.14596751 39:0.04900093 40:0.14561577 41:0.27794266 42:0.18414208 43:0.66362983 44:0.01606906 45:0.10484557 46:0.040293068 47:0.56275713 48:0.087436907 49:0.17318249 50:0.082520217 
32 1:0.184806 2:0.13342451 3:0.38803953 4:0.33320206 5:0.47925892 6:0.93993735 7:0.25251445 8:0.17167056 9:0.20487803 10:0.93040085 11:0.30083823 12:0.29992637 13:0.38116592 14:0.19406755 15:0.16403894 16:0.11505379 17:0.22307555 18:0.69467455 19:0.15423486 20:0.19695126 21:0.95341605 22:0.11481775 23:0.12621531 24:0.15988514 25:0.17667922 26:0.093158819 27:0.15569112 28:0.11394957 29:0.16302748 30:0.14815958 31:0.15713951 32:0.069174975 33:0.56710178 34:0.043876771 35:0.179968 36:0.24777612 37:0.042397078 38:0.13640194 39:0.043307047 40:0.25929952 41:0.24226445 42:0.15894397 43:0.62778199 44:0.025631802 45:0.17344114 46:0.047077514 47:0.55614275 48:0.070889704 49:0.1853916 50:0.19990352 
32 1:0.077480406 2:0.064409025 3:0.29343519 4:0.2108058 5:0.43374947 6:0.87828517 7:0.18139189 8:0.11878747 9:0.22276421 10:0.87314814 11:0.10682847 12:0.10627733 13:0.51793718 14:0.07734964 15:0.063807338 16:0.060067166 17:0.088359125 18:0.66153842 19:0.062188964 20:0.054401517 21:0.89931709 22:0.0407454 23:0.077747896 24:0.068240263 25:0.074061677 26:0.055758711 27:0.093370974 28:0.040597167 29:0.15221328 30:0.099879488 31:0.057241078 32:0.037824251 33:0.46869755 34:0.12948027 35:0.080751635 36:0.30683541 37:0.063949168 38:0.089875378 39:0.056860175 40:0.083627313 41:0.21801136 42:0.2313578 43:0.51642656 44:0.025928272 45:0.12607345 46:0.06656754 47:0.54778045 48:0.033079732 49:0.065213002 50:0.05375234 
32 1:0.049554139 2:0.038694963 3:0.22783084 4:0.15311269 5:0.47362059 6:0.80938929 7:0.14600754 8:0.08265201 9:0.2406504 10:0.80189979 11:0.060922921 12:0.063029744 13:0.48878923 14:0.065618396 15:0.056158863 16:0.042588256 17:0.078475595 18:0.67337281 19:0.046930261 20:0.016607681 21:0.83063579 22:0.058013719 23:0.079207093 24:0.070038013 25:0.061522432 26:0.060428958 27:0.052108075 28:0.050407153 29:0.11694233 30:0.08352308 31:0.043454312 32:0.044246741 33:0.39437699 34:0.0432618 35:0.09090361 36:0.37456939 37:0.034370542 38:0.076234654 39:0.077346526 40:0.037449725 41:0.25777581 42:0.22742125 43:0.43087679 44:0.11629485 45:0.11370736 46:0.082823098 47:0.59709716 48:0.080787838 49:0.052890997 50:0.015872505 
32 1:0.081743576 2:0.09579356 3:0.22715916 4:0.2694917 5:0.41441804 6:0.93589425 7:0.23756872 8:0.1169433 9:0.27804878 10:0.93152678 11:0.041654952 12:0.041137777 13:0.5784753 14:0.058230273 15:0.029793518 16:0.054263394 17:0.091016889 18:0.64023668 19:0.021249507 20:0.016573723 21:0.95088661 22:0.050853204 23:0.056590427 24:0.097550191 25:0.06832429 26:0.044257015 27:0.10169454 28:0.035053793 29:0.087406658 30:0.085234173 31:0.053489152 32:0.079346411 33:0.50088191 34:0.058344133 35:0.11810531 36:0.19018817 37:0.032887861 38:0.075559042 39:0.10545345 40:0.030590804 41:0.21250509 42:0.2035044 43:0.56545937 44:0.080678016 45:0.066629499 46:0.12067439 47:0.58061683 48:0.031571247 49:0.083586216 50:0.017005876 
32 1:0.065357395 2:0.034652319 3:0.23484641 4:0.13830303 5:0.48892465 6:0.7854324 7:0.1323107 8:0.076569393 9:0.22601627 10:0.78071231 11:0.046470974 12:0.046354506 13:0.48206279 14:0.084366158 15:0.039336111 16:0.042052832 17:0.095558979 18:0.59644973 19:0.046065304 20:0.021105718 21:0.79729062 22:0.064975426 23:0.053885091 24:0.075188555 25:0.072937399 26:0.050615083 27:0.065119773 28:0.034096833 29:0.093127899 30:0.065957032 31:0.050345588 32:0.047800876 33:0.38215509 34:0.084771417 35:0.11192884 36:0.39782187 37:0.024523366 38:0.059405535 39:0.058467306 40:0.029742243 41:0.24708048 42:0.22354797 43:0.41580099 44:0.086595118 45:0.094362907 46:0.077492446 47:0.54770333 48:0.091991156 49:0.061459161 50:0.021934748 
32 1:0.059448786 2:0.039339039 3:0.24331321 4:0.14989516 5:0.44341519 6:0.81906915 7:0.15031518 8:0.093120299 9:0.23577236 10:0.81077021 11:0.037746564 12:0.037751831 13:0.5852018 14:0.051684223 15:0.020769456 16:0.039082758 17:0.063672327 18:0.69704145 19:0.022268346 20:0.07411693 21:0.81145298 22:0.035960972 23:0.053435411 24:0.064639278 25:0.056404091 26:0.041213255 27:0.086113788 28:0.02247362 29:0.051290046 30:0.07546816 31:0.030596793 32:0.060558107 33:0.39097759 34:0.077509947 35:0.08408618 36:0.35706234 37:0.044576827 38:0.054279875 39:0.082658298 40:0.053274442 41:0.25290072 42:0.25033125 43:0.42776531 44:0.087328836 45:0.05227036 46:0.099302493 47:0.51626772 48:0.043684907 49:0.058535855 50:0.074363239 
32 1:0.10808136 2:0.05834185 3:0.32604909 4:0.19793098 5:0.45348367 6:0.85430056 7:0.19047181 8:0.097097233 9:0.22276421 10:0.85652423 11:0.094989829 12:0.094553888 13:0.51345289 14:0.062836364 15:0.049609829 16:0.062888227 17:0.084416591 18:0.72662723 19:0.042495646 20:0.039201453 21:0.85024458 22:0.042974394 23:0.056183677 24:0.061282009 25:0.089444406 26:0.051672608 27:0.10021302 28:0.039061163 29:0.1416114 30:0.06890098 31:0.075342484 32:0.080907084 33:0.46228099 34:0.078906111 35:0.081871532 36:0.33553743 37:0.043587811 38:0.077212878 39:0.040425591 40:0.064096838 41:0.37750089 42:0.3211076 43:0.503506 44:0.030059738 45:0.10381682 46:0.054731403 47:0.56986946 48:0.055344716 49:0.05221374 50:0.039419577 
32 1:0.24682851 2:0.058557641 3:0.33331183 4:0.19575578 5:0.49617395 6:0.85795808 7:0.20355356 8:0.40288013 9:0.21138212 10:0.84617466 11:0.19211505 12:0.19134672 13:0.43721974 14:0.1834418 15:0.18697079 16:0.27733186 17:0.23880951 18:0.71715981 19:0.14670245 20:0.05559051 21:0.8603406 22:0.14319958 23:0.30269474 24:0.16257638 25:0.22261235 26:0.25376457 27:0.32122305 28:0.15451558 29:0.26240048 30:0.33088681 31:0.20986757 32:0.039858762 33:0.44981807 34:0.089000881 35:0.22251783 36:0.34316954 37:0.020140437 38:0.35906345 39:0.094554953 40:0.12141819 41:0.37613451 42:0.25638372 43:0.48992932 44:0.020515515 45:0.22625901 46:0.076547377 47:0.49071604 48:0.01987512 49:0.14085722 50:0.056615233 
32 1:0.089783616 2:0.093891896 3:0.33568946 4:0.26696125 5:0.51188076 6:0.92526323 7:0.19459151 8:0.15073583 9:0.17235772 10:0.91727853 11:0.10436127 12:0.10376157 13:0.51121074 14:0.11617803 15:0.088554181 16:0.085339382 17:0.13587172 18:0.68875742 19:0.08504229 20:0.050313596 21:0.93658412 22:0.14840358 23:0.10960492 24:0.19612902 25:0.081428811 26:0.083037071 27:0.11761788 28:0.12979299 29:0.11393662 30:0.13258287 31:0.070694804 32:0.048170827 33:0.50837463 34:0.049903639 35:0.18964411 36:0.23657805 37:0.058998086 38:0.11969618 39:0.063986734 40:0.073667891 41:0.18143395 42:0.23974021 43:0.56795621 44:0.085731916 45:0.10498725 46:0.077374212 47:0.5771485 48:0.052922502 49:0.20647538 50:0.050520502 
32 1:0.11036091 2:0.032232173 3:0.22323135 4:0.13195017 5:0.43415222 6:0.7932083 7:0.12617289 8:0.083920434 9:0.26341465 10:0.78468984 11:0.077310286 12:0.07753069 13:0.60089689 14:0.079553634 15:0.054763906 16:0.071208484 17:0.11063698 18:0.70059174 19:0.043152496 20:0.022202075 21:0.78906584 22:0.062685117 23:0.060159001 24:0.087677449 25:0.11442514 26:0.076289862 27:0.096452765 28:0.041837443 29:0.075397104 30:0.074018031 31:0.091911592 32:0.054728482 33:0.36205569 34:0.14214891 35:0.12634926 36:0.37318987 37:0.044235189 38:0.065202601 39:0.19313791 40:0.042882361 41:0.23981822 42:0.2202872 43:0.39756209 44:0.027932571 45:0.071723424 46:0.1537988 47:0.54293478 48:0.14351568 49:0.079267457 50:0.022108695 
32 1:0.063950464 2:0.037198305 3:0.23209955 4:0.14295326 5:0.42891663 6:0.82892495 7:0.13304386 8:0.08396744 9:0.26504067 10:0.8201313 11:0.076698005 12:0.077967972 13:0.58295959 14:0.082286231 15:0.037721273 16:0.033418138 17:0.098175786 18:0.74792904 19:0.035880182 20:0.035924606 21:0.8224141 22:0.048555929 23:0.049728036 24:0.069278017 25:0.057738293 26:0.031808976 27:0.074866459 28:0.023923574 29:0.069490895 30:0.067418687 31:0.037242875 32:0.06382031 33:0.37589017 34:0.12871055 35:0.10848683 36:0.32612321 37:0.028064523 38:0.052273832 39:0.065833375 40:0.054543618 41:0.25708109 42:0.25525445 43:0.41708541 44:0.029983299 45:0.063156836 46:0.13366783 47:0.54522556 48:0.035389315 49:0.046024505 50:0.037264336 
32 1:0.19630404 2:0.14657792 3:0.38616544 4:0.35179177 5:0.47039869 6:0.94735855 7:0.24510798 8:0.15238149 9:0.19674797 10:0.93374324 11:0.31170768 12:0.31051993 13:0.4103139 14:0.22605994 15:0.2033135 16:0.1209796 17:0.26878706 18:0.65325445 19:0.18401651 20:0.16824628 21:0.96068704 22:0.11912646 23:0.091958188 24:0.16240948 25:0.19469026 26:0.098222464 27:0.16390206 28:0.13571233 29:0.14259763 30:0.11585175 31:0.16571575 32:0.0853213 33:0.56537974 34:0.053033467 35:0.21580622 36:0.23671484 37:0.053460039 38:0.11647967 39:0.051339168 40:0.24382097 41:0.20946158 42:0.16227549 43:0.62685943 44:0.039404843 45:0.14912046 46:0.044791929 47:0.55787879 48:0.084453911 49:0.14456289 50:0.17027621 
32 1:0.20701168 2:0.084691338 3:0.36734131 4:0.24966134 5:0.47200963 6:0.89513701 7:0.22147006 8:0.17802688 9:0.17073171 10:0.88441753 11:0.22834587 12:0.2272221 13:0.39910313 14:0.15227184 15:0.15587911 16:0.15459073 17:0.18863022 18:0.64497048 19:0.12977587 20:0.14516622 21:0.93759763 22:0.11769554 23:0.1282915 24:0.16636451 25:0.21567827 26:0.15432155 27:0.18318912 28:0.13666618 29:0.12346099 30:0.14942557 31:0.18545265 32:0.056291904 33:0.5134213 34:0.02747364 35:0.17124936 36:0.31851318 37:0.016780106 38:0.1510203 39:0.04293799 40:0.19036637 41:0.27108875 42:0.21106048 43:0.56004918 44:0.035113107 45:0.10178277 46:0.058842082 47:0.55684894 48:0.050046451 49:0.1635896 50:0.14580388 
32 1:0.058891028 2:0.096566528 3:0.15457928 4:0.27245203 5:0.39387834 6:0.95990992 7:0.15031762 8:0.064379036 9:0.28617886 10:0.93025285 11:0.031352203 12:0.031410363 13:0.88116592 14:0.073068388 15:0.01858335 16:0.018837811 17:0.093511149 18:0.6319527 19:0.021925628 20:0.016109414 21:0.975254 22:0.05575531 23:0.022820612 24:0.08252725 25:0.05402299 26:0.021839617 27:0.073971078 28:0.016404003 29:0.034837376 30:0.046955958 31:0.023440506 32:0.11433325 33:0.41573814 34:0.071351729 35:0.12142159 36:0.1132073 37:0.084870271 38:0.022558859 39:0.04584676 40:0.023987927 41:0.14291874 42:0.17350718 43:0.47958943 44:0.095625512 45:0.023965208 46:0.061005998 47:0.47549477 48:0.13149019 49:0.068755738 50:0.017810645 
32 1:0.057677545 2:0.041283794 3:0.16477124 4:0.16183171 5:0.37454689 6:0.87995243 7:0.13153891 8:0.065615736 9:0.27154472 10:0.84997874 11:0.062072314 12:0.062258389 13:0.80044842 14:0.06782797 15:0.045668662 16:0.025322901 17:0.083865851 18:0.69112432 19:0.04129095 20:0.030938009 21:0.92049891 22:0.041802973 23:0.026262889 24:0.059842654 25:0.052238934 26:0.018814109 27:0.063925475 28:0.029468743 29:0.05228173 30:0.042450972 31:0.03360581 32:0.028978039 33:0.34612998 34:0.081560127 35:0.087974139 36:0.23775245 37:0.073182218 38:0.035915446 39:0.068388857 40:0.047560778 41:0.16700563 42:0.18441892 43:0.39260006 44:0.045651153 45:0.045924585 46:0.05948313 47:0.51294321 48:0.028354982 49:0.051011186 50:0.030774051 
32 1:0.072324738 2:0.060751263 3:0.18505861 4:0.20565875 5:0.41643173 6:0.91178924 7:0.16613129 8:0.078513704 9:0.23577236 10:0.87896913 11:0.052716903 12:0.055554137 13:0.80269057 14:0.062304076 15:0.022463437 16:0.028014287 17:0.066676185 18:0.67573971 19:0.02768404 20:0.02787289 21:0.96799546 22:0.045712732 23:0.02933115 24:0.066447549 25:0.067654744 26:0.029467255 27:0.086673915 28:0.019642498 29:0.041493826 30:0.056498714 31:0.035613269 32:0.079037495 33:0.38691247 34:0.046788812 35:0.089585781 36:0.21827871 37:0.056636825 38:0.031805564 39:0.03327857 40:0.039869584 41:0.14769459 42:0.23417379 43:0.43737102 44:0.051376108 45:0.030289629 46:0.039501194 47:0.47047454 48:0.072992451 49:0.052695207 50:0.027887119 
32 1:0.057008091 2:0.037380114 3:0.18084878 4:0.15329731 5:0.40112764 6:0.86434788 7:0.16034992 8:0.096776076 9:0.26666668 10:0.83434081 11:0.040014822 12:0.039593261 13:0.63677132 14:0.062455993 15:0.054030124 16:0.051816955 17:0.078103945 18:0.70887572 19:0.047972035 20:0.019987168 21:0.90912884 22:0.078730866 23:0.059251044 24:0.11382765 25:0.046005089 26:0.048037563 27:0.082506061 28:0.076428227 29:0.06237264 30:0.077414051 31:0.038050178 32:0.039912038 33:0.33548695 34:0.029566959 35:0.11119714 36:0.25772494 37:0.053214908 38:0.070948437 39:0.052084617 40:0.029483713 41:0.11233448 42:0.18439315 43:0.37871066 44:0.028711181 45:0.050004531 46:0.044876345 47:0.58924103 48:0.056662053 49:0.11247636 50:0.019343438 
32 1:0.05102713 2:0.019566262 3:0.14817518 4:0.090543106 5:0.41482076 6:0.75255388 7:0.093030132 8:0.070473596 9:0.27642274 10:0.72263956 11:0.03963884 12:0.039179161 13:0.79596412 14:0.05729397 15:0.025338179 16:0.029403482 17:0.071022116 18:0.77396452 19:0.027382178 20:0.01450892 21:0.75730962 22:0.054344647 23:0.03308823 24:0.05898238 25:0.048474964 26:0.032740455 27:0.072995111 28:0.028147686 29:0.042053457 30:0.051297326 31:0.023186071 32:0.050039493 33:0.26688284 34:0.015163322 35:0.089779824 36:0.37141311 37:0.049094349 38:0.0367961 39:0.033745192 40:0.02559034 41:0.11942339 42:0.1570376 43:0.29631418 44:0.05012843 45:0.035410635 46:0.034918271 47:0.52171367 48:0.068249807 49:0.058338225 50:0.015093106 
32 1:0.070014745 2:0.045341529 3:0.25403711 4:0.17304786 5:0.38864273 6:0.85244662 7:0.17858489 8:0.15148015 9:0.31219512 10:0.84331232 11:0.05907692 12:0.059760597 13:0.73318386 14:0.062176008 15:0.051776033 16:0.067635924 17:0.065242842 18:0.72426033 19:0.054036546 20:0.025951885 21:0.8620134 22:0.075508423 23:0.11536682 24:0.093428686 25:0.070842884 26:0.069534242 27:0.10131902 28:0.061302315 29:0.15965928 30:0.13007282 31:0.048170105 32:0.10124025 33:0.40097058 34:0.083539858 35:0.09036801 36:0.30662778 37:0.046918232 38:0.12326299 39:0.063029312 40:0.042836003 41:0.19812869 42:0.23834944 43:0.44447336 44:0.016224667 45:0.14639448 46:0.079240322 47:0.48865956 48:0.053536959 49:0.099593058 50:0.024384633 
32 1:0.079430968 2:0.055930503 3:0.23673047 4:0.19812851 5:0.42851388 6:0.89138961 7:0.18843304 8:0.075397484 9:0.24715447 10:0.85508472 11:0.071694434 12:0.072010338 13:0.65695065 14:0.048748355 15:0.03934177 16:0.05583182 17:0.067906626 18:0.69230765 19:0.031108486 20:0.027393527 21:0.92934817 22:0.048431616 23:0.066706918 24:0.091415763 25:0.080949947 26:0.053860828 27:0.065556154 28:0.038481344 29:0.080690183 30:0.071007594 31:0.074612394 32:0.059405673 33:0.39024329 34:0.065792114 35:0.088862181 36:0.27285424 37:0.029712085 38:0.066032402 39:0.083498441 40:0.041941401 41:0.27362594 42:0.19109139 43:0.43678224 44:0.049732123 45:0.082529008 46:0.055166822 47:0.64926845 48:0.056615323 49:0.098370932 50:0.026432905 
32 1:0.10226852 2:0.027196424 3:0.20370561 4:0.11959665 5:0.39669752 6:0.79767728 7:0.1161039 8:0.10636169 9:0.27154472 10:0.77613974 11:0.084701329 12:0.084529378 13:0.6704036 14:0.079427168 15:0.066610835 16:0.086758651 17:0.11958976 18:0.74201185 19:0.049704436 20:0.033565249 21:0.80775964 22:0.05606322 23:0.068842493 24:0.082544349 25:0.095374584 26:0.079725921 27:0.10685103 28:0.052427284 29:0.079096667 30:0.083421186 31:0.088099904 32:0.057036716 33:0.31694108 34:0.073675066 35:0.12049399 36:0.34230855 37:0.038790017 38:0.089035802 39:0.019738954 40:0.060252853 41:0.2021876 42:0.22678614 43:0.35209608 44:0.022715135 45:0.070816167 46:0.021661466 47:0.58864206 48:0.10803753 49:0.071798883 50:0.034235984 
32 1:0.095784977 2:0.036083344 3:0.21484825 4:0.14890574 5:0.3995167 6:0.84293813 7:0.1273284 8:0.082164705 9:0.28455284 10:0.80395722 11:0.12776095 12:0.12701924 13:0.73542607 14:0.074643046 15:0.04811731 16:0.057051878 17:0.10220339 18:0.71952665 19:0.040779352 20:0.045513283 21:0.90961194 22:0.043130945 23:0.063290037 24:0.068162978 25:0.094817989 26:0.053368244 27:0.08360514 28:0.02459296 29:0.075679541 30:0.072585374 31:0.076285616 32:0.028548522 33:0.33464116 34:0.094726905 35:0.096450739 36:0.31352124 37:0.037367836 38:0.063876092 39:0.017108237 40:0.092737041 41:0.23452748 42:0.22519681 43:0.37289113 44:0.031548165 45:0.091297396 46:0.019453902 47:0.60083598 48:0.055216763 49:0.069640934 50:0.04639085 
32 1:0.09130539 2:0.093228318 3:0.25060314 4:0.26911771 5:0.36971405 6:0.93200254 7:0.22982579 8:0.1236565 9:0.3203252 10:0.9153747 11:0.070842125 12:0.070464723 13:0.81390136 14:0.085937835 15:0.054045334 16:0.069652408 17:0.11101506 18:0.67100596 19:0.046693429 20:0.023418441 21:0.95554781 22:0.06311062 23:0.066636682 24:0.091348678 25:0.078850262 26:0.059922934 27:0.11797357 28:0.048468944 29:0.069843575 30:0.090125121 31:0.06022533 32:0.05999792 33:0.48045349 34:0.037997335 35:0.12435056 36:0.21843116 37:0.027341038 38:0.08297541 39:0.036564309 40:0.045867842 41:0.28284588 42:0.20345391 43:0.54026103 44:0.031103969 45:0.057636645 46:0.032269262 47:0.57877958 48:0.080315471 49:0.073241994 50:0.02470031 
32 1:0.20876046 2:0.11627804 3:0.31708249 4:0.30372393 5:0.45187274 6:0.94775975 7:0.23606572 8:0.2563138 9:0.24227645 10:0.93662173 11:0.11202192 12:0.11216595 13:0.63452917 14:0.30610377 15:0.27348956 16:0.20851535 17:0.35735357 18:0.75739646 19:0.24543977 20:0.040033817 21:0.95352274 22:0.32940951 23:0.16274089 24:0.36295253 25:0.20957735 26:0.20890674 27:0.2630384 28:0.33630145 29:0.12927982 30:0.1943693 31:0.16743703 32:0.073626064 33:0.5153712 34:0.06352099 35:0.43484518 36:0.18726128 37:0.033572711 38:0.20630369 39:0.05501534 40:0.073510557 41:0.15738422 42:0.22977567 43:0.58208466 44:0.018229408 45:0.096594684 46:0.067136399 47:0.54341114 48:0.1240111 49:0.31180787 50:0.04243245 
32 1:0.062760286 2:0.043131601 3:0.1885287 4:0.1685255 5:0.406766 6:0.87731636 7:0.14789537 8:0.072388403 9:0.21300814 10:0.85652703 11:0.11876762 12:0.11879042 13:0.83632284 14:0.07273744 15:0.060613327 16:0.036753587 17:0.094918922 18:0.70414203 19:0.046457194 20:0.056334831 21:0.9017356 22:0.049599942 23:0.039232429 24:0.061576497 25:0.050418828 26:0.029866818 27:0.069121875 28:0.040262289 29:0.044422202 30:0.053186666 31:0.042168178 32:0.058418725 33:0.36624327 34:0.061249651 35:0.089261718 36:0.24572556 37:0.060861241 38:0.04745613 39:0.050472576 40:0.079327337 41:0.1678884 42:0.2135146 43:0.41383964 44:0.091243997 45:0.037620675 46:0.058447555 47:0.52849066 48:0.11112383 49:0.057029314 50:0.056448556 
32 1:0.06382364 2:0.092348725 3:0.19149865 4:0.26699579 5:0.38864273 6:0.95034778 7:0.16914454 8:0.064757742 9:0.28617886 10:0.92954189 11:0.057929724 12:0.059210215 13:0.84977573 14:0.070355862 15:0.046178877 16:0.0319684 17:0.087197803 18:0.69112432 19:0.037694458 20:0.015880803 21:0.96700227 22:0.051115848 23:0.022206441 24:0.063714854 25:0.059024416 26:0.028482199 27:0.071454816 28:0.038098942 29:0.052529529 30:0.039577309 31:0.040107533 32:0.060846336 33:0.44248456 34:0.070449114 35:0.097836815 36:0.14229177 37:0.055744078 38:0.032513179 39:0.11765484 40:0.034507498 41:0.19275111 42:0.17429957 43:0.50719386 44:0.056599945 45:0.039311752 46:0.096536174 47:0.58834821 48:0.053535871 49:0.046894871 50:0.016433043 
32 1:0.12366644 2:0.061196029 3:0.29511064 4:0.20787874 5:0.42730564 6:0.89242905 7:0.19988303 8:0.1628499 9:0.2292683 10:0.87860662 11:0.29606816 12:0.29477832 13:0.66143501 14:0.12974626 15:0.14285593 16:0.09934818 17:0.16966398 18:0.74556214 19:0.10743632 20:0.091766387 21:0.91714537 22:0.11027211 23:0.11623806 24:0.16727893 25:0.10667923 26:0.087456003 27:0.13299504 28:0.12958182 29:0.14857407 30:0.13193423 31:0.098676458 32:0.056870382 33:0.43467313 34:0.031652667 35:0.15741901 36:0.26544473 37:0.025832102 38:0.13627435 39:0.032818753 40:0.18965927 41:0.18600091 42:0.19749846 43:0.48598316 44:0.030269418 45:0.12660332 46:0.027719852 47:0.57283294 48:0.039595962 49:0.16625176 50:0.092593871 
32 1:0.10426041 2:0.049263284 3:0.26070341 4:0.18280891 5:0.39065644 6:0.85752338 7:0.18648829 8:0.20362134 9:0.30243903 10:0.84643114 11:0.055583928 12:0.055105239 13:0.77130044 14:0.097776622 15:0.096412249 16:0.11339833 17:0.12628627 18:0.81065094 19:0.074053429 20:0.025141153 21:0.87430161 22:0.1128655 23:0.15410022 24:0.15579587 25:0.091533922 26:0.10181717 27:0.15090489 28:0.1311271 29:0.17965965 30:0.16612688 31:0.072473094 32:0.077816583 33:0.41294867 34:0.067846246 35:0.16090983 36:0.31202549 37:0.024745554 38:0.17760298 39:0.047368731 40:0.035356976 41:0.191587 42:0.2244734 43:0.45681521 44:0.016361939 45:0.14799266 46:0.053405441 47:0.49376771 48:0.072986327 49:0.14550045 50:0.026128061 
32 1:0.13206485 2:0.28515494 3:0.58169204 4:0.50548196 5:0.47966167 6:0.95492405 7:0.35948038 8:0.13026273 9:0.18211381 10:0.94792604 11:0.19557045 12:0.19471894 13:0.46860987 14:0.12474771 15:0.14043064 16:0.10065784 17:0.15675284 18:0.67573971 19:0.1139946 20:0.04427674 21:0.95918047 22:0.11591252 23:0.085564777 24:0.1012986 25:0.11304321 26:0.091487542 27:0.12784144 28:0.12260201 29:0.12582693 30:0.10017063 31:0.11450328 32:0.074556172 33:0.74451554 34:0.079010576 35:0.14571647 36:0.31626999 37:0.047012508 38:0.10469975 39:0.10948341 40:0.10449316 41:0.60753912 42:0.18562447 43:0.78933138 44:0.047730226 45:0.10239433 46:0.17243282 47:0.58944613 48:0.085260689 49:0.098116264 50:0.043221548 
32 1:0.35293955 2:0.32075188 3:0.65962034 4:0.54209358 5:0.53040677 6:0.95847464 7:0.35761732 8:0.46621361 9:0.17723578 10:0.95394975 11:0.24752595 12:0.24718601 13:0.41255605 14:0.26055479 15:0.42491657 16:0.40181628 17:0.45514709 18:0.68284023 19:0.23191397 20:0.045394007 21:0.95804667 22:0.25885779 23:0.26323441 24:0.51390553 25:0.25650284 26:0.2583648 27:0.40192586 28:0.48122001 29:0.24026302 30:0.27251211 31:0.34515023 32:0.085824095 33:0.77548051 34:0.061681971 35:0.50317538 36:0.31431663 37:0.015991695 38:0.44632858 39:0.076552585 40:0.1127819 41:0.57958585 42:0.15224206 43:0.81974053 44:0.014817154 45:0.16025527 46:0.065258205 47:0.62283379 48:0.040416941 49:0.34757948 50:0.045602981 
32 1:0.300713 2:0.4436135 3:0.76398331 4:0.64536506 5:0.60088599 6:0.97453463 7:0.42682368 8:0.35373503 9:0.16747968 10:0.95533216 11:0.30881217 12:0.30742678 13:0.42376679 14:0.22087154 15:0.30947974 16:0.31881213 17:0.32968459 18:0.52544379 19:0.20867608 20:0.064558171 21:0.97813511 22:0.19918352 23:0.22951697 24:0.23855527 25:0.23628491 26:0.25388578 27:0.33368173 28:0.28285241 29:0.16416568 30:0.24923897 31:0.2834464 32:0.24437605 33:0.76279342 34:0.068226844 35:0.30583987 36:0.30242795 37:0.04357139 38:0.32893664 39:0.13340333 40:0.15271899 41:0.700827 42:0.16677862 43:0.80738705 44:0.029109074 45:0.10468372 46:0.14004935 47:0.58709192 48:0.090833649 49:0.20528381 50:0.063738778 
32 1:0.084662341 2:0.26254427 3:0.53384668 4:0.48277879 5:0.4925493 6:0.9504568 7:0.35568321 8:0.11245271 9:0.16422763 10:0.94367433 11:0.098211408 12:0.097544841 13:0.41704035 14:0.070348591 15:0.049077351 16:0.044217419 17:0.09692505 18:0.79763311 19:0.046061922 20:0.032960352 21:0.95915699 22:0.055427395 23:0.049048521 24:0.097400635 25:0.079493791 26:0.041853353 27:0.089732632 28:0.039768945 29:0.25468603 30:0.076808698 31:0.055600613 32:0.037323654 33:0.73497999 34:0.051506158 35:0.11269934 36:0.32318023 37:0.055419527 38:0.076419055 39:0.027866522 40:0.06269154 41:0.53949124 42:0.17455982 43:0.77985519 44:0.045498427 45:0.14681491 46:0.030016894 47:0.56937397 48:0.057779182 49:0.080911115 50:0.03260107 
32 1:0.20920208 2:0.26681507 3:0.58171475 4:0.48653364 5:0.45469189 6:0.94888604 7:0.30539232 8:0.17600709 9:0.19674797 10:0.94153643 11:0.20175339 12:0.20236894 13:0.42600894 14:0.146008 15:0.18056971 16:0.15129612 17:0.20267291 18:0.69704145 19:0.12938835 20:0.073424347 21:0.95255131 22:0.13599862 23:0.11672962 24:0.19210759 25:0.16498959 26:0.11598974 27:0.17236702 28:0.16925359 29:0.12945402 30:0.13534023 31:0.19601853 32:0.11504215 33:0.74044412 34:0.050177816 35:0.20613593 36:0.33210933 37:0.034069441 38:0.15110657 39:0.031319972 40:0.12525558 41:0.61865038 42:0.16071293 43:0.78102857 44:0.037112217 45:0.10120106 46:0.054870732 47:0.59963804 48:0.13378629 49:0.17106664 50:0.072216235 
32 1:0.34460682 2:0.35795417 3:0.68502605 4:0.57475924 5:0.53322589 6:0.9521907 7:0.34379506 8:0.36102784 9:0.13821138 10:0.93769079 11:0.2285876 12:0.22787552 13:0.38116592 14:0.25017652 15:0.27513191 16:0.3505007 17:0.32083502 18:0.64023668 19:0.21670797 20:0.050865468 21:0.95763838 22:0.23729733 23:0.2405442 24:0.25426385 25:0.28557572 26:0.28296512 27:0.35839847 28:0.26055625 29:0.14820564 30:0.25801694 31:0.33340219 32:0.11782143 33:0.80187666 34:0.03882619 35:0.31707859 36:0.37828285 37:0.028699221 38:0.33736643 39:0.089129172 40:0.11963318 41:0.60493505 42:0.15494239 43:0.81960392 44:0.018326014 45:0.10333604 46:0.073822521 47:0.60785067 48:0.082475185 49:0.20519662 50:0.051416323 
32 1:0.29334199 2:0.27226388 3:0.60297173 4:0.49357349 5:0.51751912 6:0.94963652 7:0.30191675 8:0.25489542 9:0.19186991 10:0.94405222 11:0.17370981 12:0.17298861 13:0.36098656 14:0.17551735 15:0.16371128 16:0.23499207 17:0.19529262 18:0.7207101 19:0.15290335 20:0.090335526 21:0.95085448 22:0.1224267 23:0.16100448 24:0.17717972 25:0.24308152 26:0.15856619 27:0.25138566 28:0.14625604 29:0.13475485 30:0.17847762 31:0.28099048 32:0.11149473 33:0.74966997 34:0.054188628 35:0.18690699 36:0.32961139 37:0.027097629 38:0.22958516 39:0.049602821 40:0.1236403 41:0.62613088 42:0.16683422 43:0.79039258 44:0.046913899 45:0.11999246 46:0.070982605 47:0.60556155 48:0.068172887 49:0.1660492 50:0.090546839 
32 1:0.25926906 2:0.22758283 3:0.54964 4:0.446392 5:0.41522348 6:0.93845618 7:0.30140701 8:0.16364796 9:0.18211381 10:0.93387157 11:0.20067894 12:0.2000569 13:0.54260087 14:0.19589765 15:0.22201329 16:0.19074132 17:0.23687904 18:0.78224856 19:0.1824902 20:0.060314626 21:0.94191813 22:0.12733008 23:0.098687768 24:0.13354592 25:0.23226942 26:0.14390954 27:0.2069113 28:0.17288528 29:0.10241232 30:0.10591614 31:0.24154732 32:0.0640359 33:0.73030764 34:0.03241935 35:0.19133843 36:0.3483046 37:0.016824011 38:0.1491293 39:0.052142814 40:0.11962733 41:0.44830069 42:0.15289347 43:0.76884907 44:0.022403423 45:0.080785565 46:0.051261779 47:0.59787869 48:0.057554979 49:0.10082425 50:0.060006019 
32 1:0.33303708 2:0.37915903 3:0.73139781 4:0.59311986 5:0.51147801 6:0.96729928 7:0.33713174 8:0.40884319 9:0.20975611 10:0.95956701 11:0.39504942 12:0.39344111 13:0.44618833 14:0.28233308 15:0.3846691 16:0.37003267 17:0.37802827 18:0.65562135 19:0.28657186 20:0.10333168 21:0.96728742 22:0.23189534 23:0.28689492 24:0.24496527 25:0.27218205 26:0.29168436 27:0.36156744 28:0.33453697 29:0.22769433 30:0.29417691 31:0.32904994 32:0.17394282 33:0.78434366 34:0.068524383 35:0.31887892 36:0.30049565 37:0.032453157 38:0.40108442 39:0.065681301 40:0.2238466 41:0.72681141 42:0.1994184 43:0.83076411 44:0.022148242 45:0.15860829 46:0.10405019 47:0.64934444 48:0.095331021 49:0.21613511 50:0.10186495 
32 1:0.307266 2:0.30838242 3:0.67947334 4:0.52920043 5:0.40475228 6:0.95469254 7:0.29258624 8:0.26886895 9:0.2 10:0.95201272 11:0.22215581 12:0.22104613 13:0.51121074 14:0.23719729 15:0.23463151 16:0.26649478 17:0.26404643 18:0.78343201 19:0.22043166 20:0.081633791 21:0.95353729 22:0.17376579 23:0.16431946 24:0.1879414 25:0.27051225 26:0.21150526 27:0.27817512 28:0.19646102 29:0.14964755 30:0.18200783 31:0.29673654 32:0.048360016 33:0.7822392 34:0.025927581 35:0.23513457 36:0.32444358 37:0.030106759 38:0.24594718 39:0.030106714 40:0.14017789 41:0.66241044 42:0.14104411 43:0.82315582 44:0.021681672 45:0.11359736 46:0.052866701 47:0.61605841 48:0.065241486 49:0.15463123 50:0.081147321 
32 1:0.12759419 2:0.21983892 3:0.52653229 4:0.44069687 5:0.40394682 6:0.94067335 7:0.19153252 8:0.26189145 9:0.21951219 10:0.93374622 11:0.068816595 12:0.06903781 13:0.53811657 14:0.097260647 15:0.10518711 16:0.17747523 17:0.12693271 18:0.74437869 19:0.070069201 20:0.019893199 21:0.94451851 22:0.11630538 23:0.23761785 24:0.22948432 25:0.1143462 26:0.15712453 27:0.17285618 28:0.15562853 29:0.26577881 30:0.23042281 31:0.12194514 32:0.028691053 33:0.70765758 34:0.068714134 35:0.16503991 36:0.33484393 37:0.054451186 38:0.26609933 39:0.058293272 40:0.040316541 41:0.35762292 42:0.17283541 43:0.75111216 44:0.011578469 45:0.21190509 46:0.060910162 47:0.73424518 48:0.025783703 49:0.22776362 50:0.022228375 
32 1:0.20475708 2:0.36542773 3:0.74996918 4:0.58221203 5:0.39508659 6:0.94918436 7:0.28158855 8:0.32147118 9:0.23089431 10:0.94931483 11:0.11692805 12:0.11899184 13:0.48206279 14:0.17546548 15:0.15437835 16:0.24986656 17:0.17976789 18:0.75147933 19:0.1502341 20:0.037735585 21:0.94723272 22:0.21129005 23:0.23189715 24:0.18229119 25:0.19568215 26:0.25005797 27:0.26360571 28:0.18301608 29:0.25141811 30:0.23750716 31:0.18803194 32:0.085115477 33:0.85561579 34:0.047275953 35:0.21379979 36:0.37355438 37:0.026650162 38:0.30342355 39:0.04702628 40:0.064902507 41:0.7533884 42:0.14604336 43:0.87197721 44:0.030982574 45:0.16502514 46:0.063103378 47:0.62313658 48:0.064003691 49:0.16527538 50:0.037955187 
32 1:0.21519189 2:0.34280643 3:0.74357969 4:0.56250936 5:0.39629477 6:0.94471204 7:0.25824529 8:0.30182752 9:0.23252033 10:0.94458395 11:0.15972814 12:0.16013484 13:0.44394618 14:0.16776492 15:0.15935715 16:0.24829306 17:0.18022345 18:0.75502956 19:0.1502413 20:0.058308069 21:0.94327629 22:0.18087082 23:0.2155598 24:0.17903757 25:0.20228234 26:0.24753511 27:0.25740367 28:0.17332727 29:0.23918304 30:0.22384092 31:0.20348918 32:0.081693858 33:0.84589076 34:0.050938923 35:0.20107013 36:0.38226861 37:0.023438403 38:0.28526175 39:0.036700197 40:0.094479956 41:0.78757083 42:0.13334796 43:0.86072862 44:0.028618917 45:0.1518276 46:0.055438533 47:0.64521259 48:0.057415903 49:0.15586558 50:0.057642974 
32 1:0.34954041 2:0.31246337 3:0.66717267 4:0.53224814 5:0.46798226 6:0.95150274 7:0.28258502 8:0.31527579 9:0.20325202 10:0.95160866 11:0.26198179 12:0.26079607 13:0.40807176 14:0.22699605 15:0.22304542 16:0.28675303 17:0.26534221 18:0.70295858 19:0.19252338 20:0.10429718 21:0.94991887 22:0.13398038 23:0.19362658 24:0.21395516 25:0.31183216 26:0.20059325 27:0.29387271 28:0.17739901 29:0.25362733 30:0.20162478 31:0.33699358 32:0.072438918 33:0.80007333 34:0.05862096 35:0.21495153 36:0.33531314 37:0.03971957 38:0.3013722 39:0.037197921 40:0.18262351 41:0.67634523 42:0.14677985 43:0.83555245 44:0.041305419 45:0.19390164 46:0.064775869 47:0.63017517 48:0.062404722 49:0.16562517 50:0.10721894 
32 1:0.28082711 2:0.3495574 3:0.65559363 4:0.56812811 5:0.43374947 6:0.96268654 7:0.32306454 8:0.22139238 9:0.21626016 10:0.96190882 11:0.24267803 12:0.24154963 13:0.53811657 14:0.22284099 15:0.25265387 16:0.22655535 17:0.28515559 18:0.71597636 19:0.20311154 20:0.080046713 21:0.95973384 22:0.16463096 23:0.13700411 24:0.19570142 25:0.23426063 26:0.16680367 27:0.23351736 28:0.21664222 29:0.13980199 30:0.15177837 31:0.27225024 32:0.032087669 33:0.80210769 34:0.030033832 35:0.25413856 36:0.30271095 37:0.020295611 38:0.20739736 39:0.031620376 40:0.1438885 41:0.6177457 42:0.16466984 43:0.84917355 44:0.020013111 45:0.11443548 46:0.030685855 47:0.62396359 48:0.080984779 49:0.1490992 50:0.079959407 
32 1:0.18910018 2:0.39687055 3:0.77048719 4:0.6121996 5:0.44542888 6:0.96810675 7:0.3222906 8:0.27922553 9:0.25691056 10:0.97048163 11:0.10671278 12:0.10743451 13:0.53587443 14:0.15930369 15:0.15079199 16:0.21594162 17:0.17569412 18:0.73727816 19:0.13458264 20:0.025656395 21:0.96425194 22:0.19831863 23:0.19964758 24:0.19279718 25:0.17353661 26:0.20680155 27:0.21989989 28:0.18157314 29:0.23860474 30:0.20067526 31:0.17982791 32:0.087947153 33:0.83060145 34:0.039144818 35:0.20645145 36:0.28683075 37:0.034191374 38:0.27098322 39:0.04174136 40:0.051001031 41:0.73447764 42:0.14872234 43:0.88164598 44:0.032929596 45:0.17472179 46:0.05976706 47:0.63398546 48:0.098365434 49:0.17226477 50:0.026424743 
32 1:0.19090554 2:0.40067109 3:0.77078676 4:0.61512095 5:0.43656865 6:0.96851385 7:0.32442591 8:0.27981395 9:0.2504065 10:0.97073489 11:0.1104373 12:0.11084172 13:0.55156952 14:0.16043228 15:0.15384911 16:0.2147418 17:0.17969532 18:0.73964494 19:0.13546871 20:0.025700387 21:0.96463585 22:0.20069143 23:0.20115872 24:0.19980711 25:0.17357565 26:0.20384076 27:0.2184812 28:0.18515627 29:0.24012411 30:0.20279177 31:0.18188532 32:0.09138187 33:0.8314994 34:0.039979953 35:0.21037915 36:0.28625166 37:0.046780374 38:0.27177948 39:0.04356065 40:0.053035047 41:0.73003322 42:0.15349562 43:0.88217497 44:0.035619341 45:0.1788702 46:0.06414099 47:0.63425046 48:0.10406663 49:0.18072933 50:0.02664051 
32 1:0.12889363 2:0.40206996 3:0.6547327 4:0.61072099 5:0.33789769 6:0.95734024 7:0.43866795 8:0.17657679 9:0.25365853 10:0.94640106 11:0.067907043 12:0.067333288 13:0.60313898 14:0.10855426 15:0.12213089 16:0.16446161 17:0.13942464 18:0.67218935 19:0.097671196 20:0.024229277 21:0.96121168 22:0.13956727 23:0.14781007 24:0.1494865 25:0.12430673 26:0.15447371 27:0.1522193 28:0.15140618 29:0.13238302 30:0.14517801 31:0.13210101 32:0.16115595 33:0.82973111 34:0.059698328 35:0.17123821 36:0.36976025 37:0.026728597 38:0.1830686 39:0.057213012 40:0.039492793 41:0.56654471 42:0.14444214 43:0.84671098 44:0.0086847916 45:0.098007679 46:0.07720007 47:0.61473107 48:0.1309693 49:0.14114569 50:0.023336617 
32 1:0.089321986 2:0.32789594 3:0.57763875 4:0.54934776 5:0.45912203 6:0.96370667 7:0.37826544 8:0.10312473 9:0.20650408 10:0.96564686 11:0.33756775 12:0.33810052 13:0.47309417 14:0.096088924 15:0.11705379 16:0.063521758 17:0.12597071 18:0.73491126 19:0.098300964 20:0.12139048 21:0.96073341 22:0.071020119 23:0.078534469 24:0.079630554 25:0.079178073 26:0.058758959 27:0.083162725 28:0.075214617 29:0.11829885 30:0.091820374 31:0.076508351 32:0.051312186 33:0.7869367 34:0.03667324 35:0.088892668 36:0.28142944 37:0.059548616 38:0.087093748 39:0.024302544 40:0.20526323 41:0.25874519 42:0.1209389 43:0.84130383 44:0.049353018 45:0.098245807 46:0.024159696 47:0.56828207 48:0.071926884 49:0.096592754 50:0.12000698 
32 1:0.15473178 2:0.44294453 3:0.77441382 4:0.65043622 5:0.46194118 6:0.97196341 7:0.342585 8:0.30042359 9:0.25853658 10:0.97368401 11:0.15312712 12:0.15286833 13:0.50896859 14:0.14215063 15:0.17098184 16:0.20684467 17:0.20506145 18:0.76094675 19:0.11556172 20:0.039869357 21:0.96808475 22:0.14279735 23:0.22364242 24:0.26314211 25:0.12705077 26:0.18482451 27:0.205834 28:0.19261988 29:0.27868932 30:0.22047649 31:0.14817865 32:0.1499753 33:0.84707445 34:0.039405599 35:0.23248048 36:0.28280333 37:0.052961651 38:0.29744431 39:0.059722107 40:0.080507375 41:0.67661738 42:0.14212123 43:0.89819276 44:0.03832322 45:0.19024505 46:0.06639383 47:0.64603096 48:0.090876952 49:0.20380543 50:0.040118162 
32 1:0.20221508 2:0.11784843 3:0.39498699 4:0.30492836 5:0.49295205 6:0.90098906 7:0.15009825 8:0.25615945 9:0.22439025 10:0.89959419 11:0.16314639 12:0.16463371 13:0.49103138 14:0.16420542 15:0.16289002 16:0.17191227 17:0.21730088 18:0.64615381 19:0.12497372 20:0.057809491 21:0.90112138 22:0.14359614 23:0.17189983 24:0.19509783 25:0.18691978 26:0.14418599 27:0.20472665 28:0.15043038 29:0.22943264 30:0.19450994 31:0.18039775 32:0.056328163 33:0.60736334 34:0.062609442 35:0.2322762 36:0.35455474 37:0.027172361 38:0.22101395 39:0.033446476 40:0.11272985 41:0.36972496 42:0.16588867 43:0.65198421 44:0.041433208 45:0.18843485 46:0.050047413 47:0.60801554 48:0.063763872 49:0.16540383 50:0.058048338 
32 1:0.25361872 2:0.21328813 3:0.5348835 4:0.4307937 5:0.48248082 6:0.93261373 7:0.27230406 8:0.31764576 9:0.20975611 10:0.93186122 11:0.22487664 12:0.22376142 13:0.43273544 14:0.23915282 15:0.24806938 16:0.23339465 17:0.31056413 18:0.59881657 19:0.19917791 20:0.097353026 21:0.93669945 22:0.17181247 23:0.19387493 24:0.24140489 25:0.24062881 26:0.1963861 27:0.28594464 28:0.21950877 29:0.22070982 30:0.22175069 31:0.2110215 32:0.058401775 33:0.72655743 34:0.062579952 35:0.29950362 36:0.3501372 37:0.043791313 38:0.27098575 39:0.028778866 40:0.16038211 41:0.36800367 42:0.24836354 43:0.76330197 44:0.021980435 45:0.1764847 46:0.050703909 47:0.51999229 48:0.028096167 49:0.1781791 50:0.098327413 
32 1:0.34808376 2:0.16345856 3:0.51462919 4:0.37348846 5:0.50342321 6:0.9215526 7:0.19289504 8:0.34468204 9:0.2292683 10:0.92062169 11:0.21750015 12:0.2185169 13:0.54932731 14:0.23446472 15:0.22216499 16:0.2795153 17:0.2879335 18:0.67337281 19:0.18818724 20:0.099895574 21:0.9169451 22:0.16742571 23:0.21009596 24:0.24115747 25:0.33009541 26:0.21393454 27:0.31994414 28:0.18820858 29:0.25144562 30:0.23340113 31:0.31134391 32:0.082683139 33:0.6696924 34:0.038845681 35:0.28569162 36:0.34493718 37:0.034420621 38:0.30740038 39:0.062310997 40:0.16609843 41:0.47671202 42:0.19825308 43:0.71268964 44:0.028687863 45:0.18831551 46:0.053911146 47:0.5587917 48:0.054725807 49:0.18796952 50:0.10048747 
32 1:0.066582374 2:0.078311712 3:0.29427654 4:0.23852783 5:0.41159883 6:0.8667118 7:0.13976233 8:0.10017472 9:0.27479672 10:0.86055607 11:0.019846732 12:0.019541664 13:0.50896859 14:0.039892402 15:0.0080696344 16:0.031444374 17:0.0607954 18:0.72662723 19:0.0061793481 20:0.0032536138 21:0.8755455 22:0.030735053 23:0.05235694 24:0.050381184 25:0.056908358 26:0.029169749 27:0.088378914 28:0.0061572292 29:0.10906397 30:0.075025409 31:0.02744076 32:0.036977116 33:0.52463484 34:0.064844407 35:0.081302084 36:0.37774995 37:0.032932188 38:0.059048783 39:0.011602931 40:0.01135968 41:0.31682065 42:0.19131032 43:0.56456316 44:0.028831713 45:0.087761223 46:0.023406373 47:0.57309651 48:0.061620649 49:0.040474202 50:0.0038449427 
32 1:0.21992506 2:0.26926401 3:0.53256917 4:0.49066755 5:0.43334675 6:0.93972003 7:0.28529069 8:0.30582124 9:0.26991871 10:0.94208807 11:0.15668663 12:0.15608424 13:0.53587443 14:0.18746457 15:0.21414198 16:0.22217332 17:0.28275943 18:0.71360946 19:0.13970199 20:0.033390608 21:0.93838263 22:0.16212028 23:0.17274286 24:0.26748517 25:0.18930081 26:0.16653025 27:0.26026008 28:0.23078105 29:0.2192836 30:0.19723283 31:0.19320203 32:0.046819575 33:0.77918017 34:0.039133042 35:0.29902127 36:0.35172531 37:0.055372491 38:0.2633754 39:0.058606897 40:0.081623942 41:0.33199662 42:0.25068608 43:0.8079223 44:0.041893743 45:0.14757839 46:0.05749863 47:0.54061192 48:0.016064849 49:0.18686092 50:0.035845786 
32 1:0.16240349 2:0.18833101 3:0.53625077 4:0.4050273 5:0.46677405 6:0.92526215 7:0.23006052 8:0.15061806 9:0.22601627 10:0.9265582 11:0.27833864 12:0.2770901 13:0.53363228 14:0.14824098 15:0.16482048 16:0.11346278 17:0.20754804 18:0.75739646 19:0.11422339 20:0.12300018 21:0.92322755 22:0.11383766 23:0.13837564 24:0.18947671 25:0.11890125 26:0.087016053 27:0.12420284 28:0.1423514 29:0.18410659 30:0.13790724 31:0.14520192 32:0.04486198 33:0.70868367 34:0.034680743 35:0.18216513 36:0.35367301 37:0.029991418 38:0.15064049 39:0.060653973 40:0.17961304 41:0.542422 42:0.20400672 43:0.7477833 44:0.013657436 45:0.17068863 46:0.063787714 47:0.64962232 48:0.037916239 49:0.19364853 50:0.12520343 
32 1:0.22412732 2:0.11447572 3:0.3936713 4:0.30469275 5:0.44744259 6:0.89777541 7:0.1766692 8:0.24345714 9:0.27154472 10:0.8758052 11:0.29851702 12:0.29870799 13:0.46412557 14:0.21593875 15:0.24587427 16:0.19125795 17:0.29189503 18:0.69822484 19:0.18445297 20:0.10638715 21:0.9123463 22:0.15970224 23:0.16293614 24:0.23733509 25:0.20520192 26:0.1624822 27:0.22381188 28:0.19584388 29:0.15588027 30:0.18704255 31:0.20023954 32:0.035875939 33:0.5682134 34:0.065459527 35:0.26846892 36:0.3781313 37:0.05380756 38:0.20962171 39:0.028918901 40:0.2071422 41:0.42830512 42:0.16186084 43:0.60515165 44:0.027219499 45:0.12580384 46:0.030239286 47:0.5777117 48:0.052074213 49:0.21239467 50:0.10594582 
32 1:0.30430463 2:0.21865535 3:0.54759544 4:0.44035488 5:0.42931935 6:0.93321961 7:0.29508811 8:0.27391034 9:0.27317074 10:0.92868578 11:0.40565628 12:0.40561721 13:0.53363228 14:0.21136169 15:0.26352638 16:0.23155807 17:0.29649818 18:0.75266278 19:0.18663906 20:0.14055896 21:0.93974721 22:0.12948698 23:0.17085838 24:0.18732554 25:0.2470286 26:0.16401833 27:0.25182191 28:0.1729385 29:0.17657551 30:0.1901421 31:0.29208082 32:0.079022095 33:0.7145313 34:0.062648453 35:0.22997776 36:0.35113254 37:0.032572847 38:0.24261591 39:0.071314506 40:0.27129439 41:0.53011209 42:0.30478072 43:0.74742693 44:0.021523675 45:0.14404048 46:0.090254702 47:0.57599533 48:0.046797987 49:0.15326354 50:0.13957211 
32 1:0.30115783 2:0.22304089 3:0.56236768 4:0.44268093 5:0.43374947 6:0.92947692 7:0.27572235 8:0.26610431 9:0.23902439 10:0.92539215 11:0.35627249 12:0.35478812 13:0.69730937 14:0.20603253 15:0.2529155 16:0.24555571 17:0.28164798 18:0.72426033 19:0.18865351 20:0.13224493 21:0.93260527 22:0.14824347 23:0.1794996 24:0.21013878 25:0.24690156 26:0.1789066 27:0.25616387 28:0.20159177 29:0.17215097 30:0.19647044 31:0.29312775 32:0.069662794 33:0.73203331 34:0.038975589 35:0.24273273 36:0.3699148 37:0.026627906 38:0.24387698 39:0.073471032 40:0.22892547 41:0.50131333 42:0.28336403 43:0.75944299 44:0.025406132 45:0.15411554 46:0.080634475 47:0.60729772 48:0.049722359 49:0.18536794 50:0.13152534 
32 1:0.27754459 2:0.22770467 3:0.55790305 4:0.44677296 5:0.42931935 6:0.92838687 7:0.273886 8:0.25903443 9:0.30081302 10:0.9265669 11:0.31363428 12:0.31248569 13:0.65695065 14:0.19154514 15:0.22463365 16:0.24027407 17:0.2494778 18:0.71952665 19:0.17368391 20:0.12230596 21:0.93020403 22:0.14824283 23:0.19584119 24:0.22535168 25:0.24028715 26:0.19117625 27:0.24357273 28:0.20027909 29:0.16992323 30:0.20750274 31:0.27408183 32:0.053988423 33:0.74293399 34:0.040931385 35:0.23188367 36:0.37345284 37:0.02254843 38:0.24317883 39:0.059407629 40:0.20557152 41:0.47833911 42:0.28924128 43:0.76794511 44:0.025463346 45:0.16324601 46:0.081732877 47:0.62154728 48:0.047094721 49:0.20581645 50:0.12215508 
32 1:0.37160671 2:0.15672071 3:0.46845287 4:0.36584914 5:0.45630282 6:0.9144755 7:0.24648935 8:0.39352378 9:0.21951219 10:0.90838456 11:0.2155176 12:0.21568997 13:0.54260087 14:0.31666261 15:0.31947568 16:0.33812371 17:0.37370381 18:0.68757397 19:0.2809757 20:0.084645085 21:0.91731083 22:0.26410943 23:0.25119171 24:0.30701903 25:0.36787614 26:0.28978562 27:0.37331867 28:0.2977767 29:0.29580161 30:0.27200171 31:0.33454928 32:0.064348273 33:0.65474141 34:0.13851473 35:0.37517479 36:0.36444104 37:0.039203554 38:0.35959235 39:0.044484533 40:0.14722398 41:0.40511823 42:0.25873515 43:0.68931103 44:0.034982316 45:0.22768182 46:0.062948279 47:0.54492623 48:0.033502765 49:0.25638255 50:0.084444016 
32 1:0.20709465 2:0.1827023 3:0.49562943 4:0.39902174 5:0.42770839 6:0.92306149 7:0.24827893 8:0.12840791 9:0.26016262 10:0.91975057 11:0.4571887 12:0.45534739 13:0.58744401 14:0.19928673 15:0.23033068 16:0.13395229 17:0.25614518 18:0.70769238 19:0.18322977 20:0.17352551 21:0.92640203 22:0.13237603 23:0.11474788 24:0.14249173 25:0.18435958 26:0.12968415 27:0.13963838 28:0.14692731 29:0.13214995 30:0.12602732 31:0.20325845 32:0.10955484 33:0.68822861 34:0.033655148 35:0.18592411 36:0.35695875 37:0.016533779 38:0.11860482 39:0.075422108 40:0.31492785 41:0.44329864 42:0.24478504 43:0.72239774 44:0.018069994 45:0.13826028 46:0.07176353 47:0.6330322 48:0.035328619 49:0.14838915 50:0.17291272 
32 1:0.23269255 2:0.13068289 3:0.38752794 4:0.33054867 5:0.42327827 6:0.88771296 7:0.17902172 8:0.19012871 9:0.27479672 10:0.89032465 11:0.35046935 12:0.34904599 13:0.58744401 14:0.22334832 15:0.29551539 16:0.17921148 17:0.32539222 18:0.77751482 19:0.20315869 20:0.096025027 21:0.88763821 22:0.17570543 23:0.11212643 24:0.20270191 25:0.20571518 26:0.14442517 27:0.21558437 28:0.24556884 29:0.11432628 30:0.1321062 31:0.20288652 32:0.055453714 33:0.6511572 34:0.086387567 35:0.27793083 36:0.40178904 37:0.038920563 38:0.15859456 39:0.029736657 40:0.20534799 41:0.20258604 42:0.22247592 43:0.67756385 44:0.037961677 45:0.092820592 46:0.055998281 47:0.5929994 48:0.12521827 49:0.16663 50:0.095877104 
32 1:0.32205984 2:0.1251293 3:0.40065643 4:0.31909901 5:0.52637935 6:0.89445662 7:0.16190888 8:0.34900999 9:0.20162602 10:0.88541818 11:0.182275 12:0.18377635 13:0.49551567 14:0.27470395 15:0.25862831 16:0.28930607 17:0.30995303 18:0.64970422 19:0.23927072 20:0.071609035 21:0.89899504 22:0.2268112 23:0.21503288 24:0.27042949 25:0.31298563 26:0.24000163 27:0.32847029 28:0.24650887 29:0.26072103 30:0.236982 31:0.28456846 32:0.080554165 33:0.61931586 34:0.16521595 35:0.32227242 36:0.39198339 37:0.041662034 38:0.31323862 39:0.053438071 40:0.13325328 41:0.38141999 42:0.18978351 43:0.65234387 44:0.031512067 45:0.19601899 46:0.097834721 47:0.56859642 48:0.028104223 49:0.22183716 50:0.071227223 
32 1:0.058470447 2:0.16389155 3:0.41340071 4:0.36823928 5:0.46959323 6:0.92295295 7:0.25294194 8:0.048870932 9:0.24715447 10:0.90402043 11:0.11397208 12:0.11365581 13:0.50224215 14:0.074379206 15:0.04290916 16:0.016183658 17:0.096613035 18:0.55029589 19:0.03824326 20:0.049818799 21:0.93887478 22:0.040673506 23:0.013579465 24:0.058547702 25:0.048673116 26:0.013794687 27:0.061174944 28:0.019331029 29:0.030011017 30:0.034426272 31:0.029693414 32:0.046982553 33:0.63644773 34:0.028429097 35:0.097052366 36:0.36237982 37:0.019658392 38:0.015495969 39:0.020987898 40:0.089767411 41:0.48215517 42:0.18430029 43:0.67411387 44:0.045600723 45:0.031656954 46:0.020403713 47:0.53556347 48:0.052317884 49:0.044648964 50:0.050348572 
32 1:0.10331712 2:0.25937554 3:0.55526018 4:0.47890934 5:0.47764802 6:0.93535781 7:0.27212191 8:0.23996073 9:0.19349594 10:0.93393075 11:0.08597333 12:0.087493509 13:0.43497759 14:0.11370634 15:0.093000837 16:0.12636024 17:0.10994196 18:0.68402368 19:0.096907787 20:0.042211719 21:0.93596232 22:0.15498799 23:0.21568872 24:0.29759192 25:0.11825384 26:0.1381871 27:0.14635895 28:0.16483827 29:0.26579157 30:0.22579017 31:0.088282131 32:0.078375824 33:0.77548718 34:0.046166833 35:0.18432355 36:0.37236714 37:0.021471456 38:0.22049223 39:0.042286001 40:0.0646246 41:0.49418646 42:0.19641154 43:0.79972404 44:0.018836148 45:0.25531986 46:0.048252825 47:0.59512967 48:0.031351935 49:0.3103959 50:0.041949436 
32 1:0.066810638 2:0.18347761 3:0.43980417 4:0.39514413 5:0.47845343 6:0.9307338 7:0.27198431 8:0.070551403 9:0.25203252 10:0.91699469 11:0.11387371 12:0.11335055 13:0.48430493 14:0.12614954 15:0.082239635 16:0.040336587 17:0.13671415 18:0.6343196 19:0.089795232 20:0.054302868 21:0.94202316 22:0.10576953 23:0.040378854 24:0.10488209 25:0.071384698 26:0.050466403 27:0.07677485 28:0.073819451 29:0.065443225 30:0.058305435 31:0.042956695 32:0.031486385 33:0.6618396 34:0.025969747 35:0.14906009 36:0.34767887 37:0.027888969 38:0.042714387 39:0.028267587 40:0.080140173 41:0.40230143 42:0.20830852 43:0.7015689 44:0.016191503 45:0.042708173 46:0.027239855 47:0.54202682 48:0.081721537 49:0.10210446 50:0.054936673 
32 1:0.18769285 2:0.16735069 3:0.45565692 4:0.37868521 5:0.47966167 6:0.91275275 7:0.20514584 8:0.12629353 9:0.25365853 10:0.91455781 11:0.40975261 12:0.40822816 13:0.47982064 14:0.18068165 15:0.20206945 16:0.11471827 17:0.23953955 18:0.61538464 19:0.14827389 20:0.126634 21:0.91301394 22:0.11542223 23:0.11117759 24:0.13576421 25:0.14470865 26:0.08817555 27:0.12516195 28:0.13739972 29:0.13020055 30:0.10833216 31:0.16873118 32:0.099586293 33:0.69295645 34:0.065258212 35:0.16804409 36:0.37303865 37:0.023540689 38:0.12894392 39:0.08654768 40:0.2525914 41:0.41354814 42:0.20710084 43:0.72640473 44:0.011555537 45:0.11752056 46:0.090949729 47:0.66014975 48:0.060012341 49:0.13325277 50:0.12966076 
32 1:0.052466638 2:0.23226437 3:0.56626517 4:0.45121258 5:0.48207811 6:0.94542748 7:0.29052514 8:0.060072511 9:0.19349594 10:0.92743599 11:0.071894273 12:0.071737558 13:0.52466363 14:0.064983003 15:0.027605617 16:0.012473471 17:0.099787869 18:0.60946745 19:0.022637187 20:0.037939187 21:0.95415294 22:0.043928184 23:0.022144837 24:0.069751956 25:0.036588516 26:0.0094160242 27:0.063277878 28:0.019484587 29:0.11300498 30:0.047486231 31:0.018465079 32:0.041870516 33:0.68401659 34:0.035212494 35:0.11297671 36:0.3354575 37:0.027426712 38:0.024090745 39:0.020621577 40:0.058590032 41:0.66026467 42:0.23890476 43:0.72384924 44:0.035631482 45:0.066884696 46:0.020979216 47:0.54665112 48:0.037111469 49:0.060341742 50:0.03883604 
32 1:0.078828387 2:0.21317224 3:0.48194268 4:0.43511337 5:0.38703179 6:0.92965782 7:0.292209 8:0.12594728 9:0.21300814 10:0.92451668 11:0.073036283 12:0.072955117 13:0.43721974 14:0.071252495 15:0.043700349 16:0.040580217 17:0.098794959 18:0.71715981 19:0.039021421 20:0.036869254 21:0.93941432 22:0.068950042 23:0.065575741 24:0.13130952 25:0.067300811 26:0.03856384 27:0.10129149 28:0.049604114 29:0.19487694 30:0.10255545 31:0.040401075 32:0.035908435 33:0.72010356 34:0.039144557 35:0.13699071 36:0.36572814 37:0.062540486 38:0.077098742 39:0.021838911 40:0.056610085 41:0.63723785 42:0.26047736 43:0.75270009 44:0.029867448 45:0.15617517 46:0.044645853 47:0.51324886 48:0.039093006 49:0.1118375 50:0.036313992 
32 1:0.22480941 2:0.13130938 3:0.47338539 4:0.32865867 5:0.51711637 6:0.90578485 7:0.16585906 8:0.33106855 9:0.2682927 10:0.90388256 11:0.12194403 12:0.12193029 13:0.56278026 14:0.14214192 15:0.18300554 16:0.28124347 17:0.2141201 18:0.55266273 19:0.11723049 20:0.031996723 21:0.907538 22:0.13287503 23:0.24289319 24:0.22033468 25:0.19161229 26:0.22926711 27:0.27093789 28:0.19895779 29:0.29414684 30:0.24268074 31:0.2221984 32:0.042978965 33:0.62856448 34:0.11101933 35:0.23670056 36:0.35826868 37:0.08014445 38:0.33179858 39:0.071532205 40:0.066392906 41:0.49278739 42:0.19966473 43:0.67039192 44:0.022585673 45:0.21321277 46:0.059151579 47:0.70223016 48:0.035520706 49:0.16912939 50:0.03202612 
32 1:0.10307826 2:0.2053116 3:0.50738561 4:0.42577314 5:0.46919048 6:0.93055278 7:0.29680654 8:0.21925738 9:0.16910569 10:0.92046452 11:0.04223375 12:0.042998873 13:0.39910313 14:0.069557317 15:0.021087585 16:0.093715467 17:0.091843635 18:0.62721896 19:0.017655538 20:0.020710014 21:0.94053847 22:0.058866955 23:0.14398532 24:0.1250793 25:0.090525374 26:0.088136867 27:0.14645527 28:0.032940295 29:0.28740036 30:0.17617133 31:0.068652868 32:0.034880213 33:0.70366246 34:0.059239816 35:0.1300676 36:0.3650988 37:0.050741028 38:0.17375928 39:0.022868993 40:0.03443874 41:0.65486997 42:0.22342618 43:0.739268 44:0.068507954 45:0.1984714 46:0.040154967 47:0.5070439 48:0.021138499 49:0.10611108 50:0.022838924 
32 1:0.32747054 2:0.15537663 3:0.35939214 4:0.35842532 5:0.54450262 6:0.92186117 7:0.24905491 8:0.26329872 9:0.18699187 10:0.8935017 11:0.42815605 12:0.42649934 13:0.33632287 14:0.32425526 15:0.27951884 16:0.24310024 17:0.33977154 18:0.62366867 19:0.28904864 20:0.24451719 21:0.93297493 22:0.15771618 23:0.15953808 24:0.12981413 25:0.34122086 26:0.26260367 27:0.32529366 28:0.14733601 29:0.064524464 30:0.2109984 31:0.2696228 32:0.070385978 33:0.58393121 34:0.078648165 35:0.23145224 36:0.34567463 37:0.050095815 38:0.18699415 39:0.047265235 40:0.36408162 41:0.2764909 42:0.22047684 43:0.61648703 44:0.054551985 45:0.04688916 46:0.047995735 47:0.38455442 48:0.08159323 49:0.11749905 50:0.24503317 
32 1:0.16885765 2:0.18578032 3:0.50618219 4:0.40084594 5:0.58719289 6:0.91832125 7:0.22519131 8:0.24998571 9:0.15121952 10:0.90993661 11:0.33767462 12:0.3373166 13:0.24663676 14:0.19034792 15:0.16920245 16:0.15689765 17:0.19499402 18:0.59289944 19:0.17548424 20:0.11854248 21:0.91542453 22:0.14366736 23:0.24462207 24:0.14624877 25:0.19803445 26:0.22983326 27:0.19451065 28:0.10651276 29:0.27965903 30:0.27483168 31:0.14918268 32:0.13726766 33:0.67621487 34:0.027992958 35:0.15618865 36:0.37183723 37:0.027316082 38:0.20486565 39:0.083321191 40:0.22814001 41:0.40721667 42:0.1807927 43:0.70116174 44:0.032185208 45:0.29326263 46:0.095388256 47:0.56129682 48:0.049977135 49:0.19394548 50:0.11704355 
32 1:0.18252984 2:0.14250837 3:0.41052637 4:0.34222695 5:0.52879578 6:0.90621763 7:0.19890174 8:0.26660717 9:0.16422763 10:0.88772577 11:0.10329729 12:0.10404157 13:0.30493274 14:0.19976354 15:0.14447948 16:0.16455153 17:0.22448882 18:0.67455626 19:0.14622983 20:0.046687361 21:0.90815252 22:0.2067536 23:0.20707656 24:0.24576785 25:0.21591555 26:0.19600284 27:0.22442397 28:0.16775024 29:0.19449177 30:0.23995577 31:0.14009459 32:0.033633772 33:0.60604 34:0.056122065 35:0.28018183 36:0.37687385 37:0.030313559 38:0.21355681 39:0.015511156 40:0.079552688 41:0.49101731 42:0.16088502 43:0.63288873 44:0.069237784 45:0.18562095 46:0.020898083 47:0.48208302 48:0.10281986 49:0.24272238 50:0.047469534 
32 1:0.13102549 2:0.13946638 3:0.41653991 4:0.34436235 5:0.52557385 6:0.89481938 7:0.19725166 8:0.12358433 9:0.12520325 10:0.88310683 11:0.23094514 12:0.23093899 13:0.22421524 14:0.22057368 15:0.14171223 16:0.070032619 17:0.18176998 18:0.73254442 19:0.19517139 20:0.15685137 21:0.89165008 22:0.1523025 23:0.065339066 24:0.12301838 25:0.15667893 26:0.097516924 27:0.12639564 28:0.096413061 29:0.11007155 30:0.10102148 31:0.097734548 32:0.018862953 33:0.62338829 34:0.041484885 35:0.16257268 36:0.39676625 37:0.023875535 38:0.07303521 39:0.060826417 40:0.22370806 41:0.48249516 42:0.14383766 43:0.64692473 44:0.013410768 45:0.096209057 46:0.044359941 47:0.51047575 48:0.036955714 49:0.12953071 50:0.15633662 
32 1:0.12469809 2:0.1157864 3:0.27755311 4:0.30230919 5:0.42730564 6:0.88938814 7:0.20998682 8:0.15001014 9:0.21951219 10:0.86248636 11:0.051323049 12:0.052277282 13:0.48654708 14:0.091949679 15:0.036568269 16:0.070773788 17:0.12778173 18:0.58698231 19:0.028140187 20:0.018778281 21:0.92093891 22:0.073741823 23:0.058946256 24:0.12627473 25:0.1051231 26:0.066719599 27:0.16587511 28:0.03663839 29:0.054573134 30:0.10676251 31:0.062679574 32:0.092102364 33:0.56728303 34:0.13420197 35:0.16578074 36:0.40183896 37:0.12571728 38:0.072048753 39:0.069995746 40:0.036885172 41:0.12556121 42:0.31264845 43:0.59496313 44:0.25145769 45:0.046002693 46:0.070989594 47:0.39932653 48:0.24537294 49:0.095919296 50:0.020862086 
32 1:0.22112161 2:0.17973687 3:0.45434147 4:0.39217973 5:0.53000402 6:0.9257769 7:0.23119709 8:0.34344995 9:0.18211381 10:0.91473883 11:0.25894699 12:0.25787637 13:0.30941704 14:0.22713438 15:0.18254767 16:0.23142575 17:0.21328434 18:0.66745561 19:0.20759977 20:0.097801901 21:0.92840248 22:0.19565837 23:0.31370547 24:0.13852856 25:0.2336444 26:0.25749767 27:0.27455494 28:0.14210457 29:0.261693 30:0.34131086 31:0.18557177 32:0.065565407 33:0.6538564 34:0.033983342 35:0.17642702 36:0.3477909 37:0.023783112 38:0.30322438 39:0.051620238 40:0.18540569 41:0.36259821 42:0.21614367 43:0.68588203 44:0.035869814 45:0.2739614 46:0.053313881 47:0.52775002 48:0.055442624 49:0.21848701 50:0.098435678 
32 1:0.2196456 2:0.18439835 3:0.46326444 4:0.39417461 5:0.59645587 6:0.92851394 7:0.2316466 8:0.36591488 9:0.1495935 10:0.92611033 11:0.1639853 12:0.16470695 13:0.34080717 14:0.19412102 15:0.21687692 16:0.21929038 17:0.27837124 18:0.65562135 19:0.147958 20:0.034174114 21:0.92543763 22:0.18813938 23:0.28042877 24:0.27223766 25:0.18844013 26:0.19731021 27:0.2778706 28:0.23077808 29:0.29809466 30:0.31547096 31:0.17524345 32:0.080994509 33:0.67137289 34:0.065117002 35:0.312123 36:0.33113274 37:0.016371047 38:0.31287292 39:0.098887719 40:0.084565438 41:0.45210344 42:0.28220624 43:0.70773304 44:0.016835202 45:0.28542879 46:0.1346377 47:0.58325547 48:0.085460372 49:0.21286233 50:0.035307392 
32 1:0.34871972 2:0.20117569 3:0.42502227 4:0.41336384 5:0.55094641 6:0.92899221 7:0.29284763 8:0.3883163 9:0.18373983 10:0.91857553 11:0.40426949 12:0.40262917 13:0.35874441 14:0.26330185 15:0.23887165 16:0.34217593 17:0.28051531 18:0.60473371 19:0.23555042 20:0.15067685 21:0.93157971 22:0.14387977 23:0.30369064 24:0.10368425 25:0.34319934 26:0.34823978 27:0.38906541 28:0.12130453 29:0.18501845 30:0.33825409 31:0.30970713 32:0.084079497 33:0.6635921 34:0.068811528 35:0.17522267 36:0.34334952 37:0.048338208 38:0.33682695 39:0.073666543 40:0.29726559 41:0.43615517 42:0.28668544 43:0.6896497 44:0.026192732 45:0.18553692 46:0.12600745 47:0.5301047 48:0.13213491 49:0.14249963 50:0.15178175 
32 1:0.43327862 2:0.20967959 3:0.40330136 4:0.42306414 5:0.56906968 6:0.92808104 7:0.36492664 8:0.43937621 9:0.16260162 10:0.90500259 11:0.55667061 12:0.55552816 13:0.51569504 14:0.58315736 15:0.54473609 16:0.38557857 17:0.61338109 18:0.60710061 19:0.5283466 20:0.21968192 21:0.93170619 22:0.36045289 23:0.31280768 24:0.23679219 25:0.44843024 26:0.39041474 27:0.46202978 28:0.36631632 29:0.19236684 30:0.35856593 31:0.37229255 32:0.041689295 33:0.64438623 34:0.083657436 35:0.45326069 36:0.36059982 37:0.039681859 38:0.36411369 39:0.035311662 40:0.39509103 41:0.31055057 42:0.19544716 43:0.66766971 44:0.058930803 45:0.16188772 46:0.062053867 47:0.40866107 48:0.040790316 49:0.18778197 50:0.22154416 
32 1:0.072966293 2:0.14559093 3:0.30863738 4:0.3453685 5:0.46919048 6:0.91200155 7:0.27342781 8:0.13705158 9:0.20325202 10:0.89847696 11:0.078115694 12:0.079001002 13:0.56278026 14:0.095225945 15:0.041392077 16:0.047243267 17:0.11527584 18:0.59408283 19:0.039101042 20:0.035530332 21:0.92410916 22:0.094479628 23:0.095749922 24:0.16260345 25:0.068840042 26:0.052217331 27:0.1080741 28:0.063429475 29:0.16177538 30:0.11905909 31:0.030714139 32:0.089148045 33:0.60128039 34:0.24204499 35:0.16004863 36:0.34907523 37:0.094595633 38:0.092088506 39:0.063787818 40:0.057497472 41:0.083187483 42:0.32573628 43:0.63325316 44:0.044997055 45:0.14784195 46:0.082434125 47:0.54952919 48:0.094701789 49:0.15940559 50:0.037732534 
32 1:0.11056042 2:0.16359864 3:0.34662133 4:0.37153035 5:0.52356023 6:0.91312861 7:0.30132243 8:0.13336995 9:0.20813009 10:0.89011532 11:0.19754955 12:0.19849199 13:0.44843048 14:0.10874293 15:0.089768417 16:0.064528555 17:0.14224571 18:0.67100596 19:0.070167989 20:0.06326019 21:0.92821878 22:0.081657365 23:0.055713542 24:0.13790286 25:0.10003078 26:0.054829121 27:0.1327647 28:0.079848699 29:0.06805867 30:0.089692652 31:0.068671219 32:0.095351242 33:0.616346 34:0.085443839 35:0.15905198 36:0.37891084 37:0.053660411 38:0.074469224 39:0.041159533 40:0.11979878 41:0.099356614 42:0.26601449 43:0.64051294 44:0.039514475 45:0.051555973 46:0.045350719 47:0.49893844 48:0.060432002 49:0.10347996 50:0.063840941 
32 1:0.074757859 2:0.14990345 3:0.36499873 4:0.3510024 5:0.51671368 6:0.90333629 7:0.23911683 8:0.12330852 9:0.16422763 10:0.90549374 11:0.18659298 12:0.18729989 13:0.3878924 14:0.1081916 15:0.071807601 16:0.039574917 17:0.12162999 18:0.70769238 19:0.073559582 20:0.095465988 21:0.90808076 22:0.076877013 23:0.078222714 24:0.12835056 25:0.071683772 26:0.041104969 27:0.091033861 28:0.056144133 29:0.17044923 30:0.10746551 31:0.044778585 32:0.06149682 33:0.65230614 34:0.14638205 35:0.1329657 36:0.36991146 37:0.05048212 38:0.078967705 39:0.07254447 40:0.1331681 41:0.15673441 42:0.25278825 43:0.6779142 44:0.039748158 45:0.1633898 46:0.096729815 47:0.61599356 48:0.043350965 49:0.12279848 50:0.095476113 
32 1:0.34211099 2:0.19956081 3:0.42225966 4:0.41301289 5:0.53765607 6:0.92849147 7:0.29660457 8:0.41477296 9:0.19186991 10:0.91686469 11:0.36676636 12:0.36581311 13:0.32735425 14:0.24662247 15:0.23561388 16:0.34813279 17:0.26647109 18:0.6130178 19:0.22524907 20:0.13025206 21:0.93087089 22:0.17434853 23:0.32847628 24:0.13037913 25:0.33762842 26:0.35083762 27:0.3954711 28:0.14667717 29:0.19792645 30:0.36517721 31:0.30471742 32:0.08319784 33:0.65806496 34:0.067899048 35:0.19563466 36:0.3437286 37:0.049313042 38:0.35986182 39:0.077120729 40:0.25958771 41:0.41657653 42:0.27673125 43:0.68311298 44:0.027522027 45:0.20257172 46:0.13371201 47:0.52082956 48:0.1333009 49:0.17022142 50:0.12961933 
32 1:0.25084865 2:0.1059792 3:0.37742677 4:0.29279327 5:0.52154648 6:0.87314552 7:0.15672913 8:0.19880575 9:0.13495935 10:0.86167455 11:0.14427504 12:0.14346142 13:0.2556054 14:0.17832568 15:0.13214055 16:0.1510769 17:0.21541689 18:0.7207101 19:0.12431012 20:0.087990209 21:0.87112528 22:0.13874131 23:0.11163801 24:0.16125016 25:0.30171835 26:0.18116142 27:0.23602024 28:0.11202118 29:0.10782652 30:0.15704417 31:0.19521041 32:0.039588772 33:0.57863516 34:0.037816796 35:0.21638966 36:0.40776372 37:0.086513266 38:0.12334467 39:0.048984487 40:0.11608414 41:0.44244441 42:0.15909584 43:0.60290253 44:0.05555898 45:0.092340097 46:0.05496785 47:0.48097879 48:0.052616563 49:0.15707646 50:0.089880325 
32 1:0.2637423 2:0.15311925 3:0.49755377 4:0.35683012 5:0.57229155 6:0.91285819 7:0.16592175 8:0.35126376 9:0.16422763 10:0.90378934 11:0.23187032 12:0.23176304 13:0.37443945 14:0.19096731 15:0.22199956 16:0.24089003 17:0.27694678 18:0.62485206 19:0.15204933 20:0.056228388 21:0.90863591 22:0.17129485 23:0.28053465 24:0.23446922 25:0.21924782 26:0.2211383 27:0.29534543 28:0.20340505 29:0.24456912 30:0.31316754 31:0.22064236 32:0.057691194 33:0.63839418 34:0.047009706 35:0.28194347 36:0.36369732 37:0.024030304 38:0.30170614 39:0.075239524 40:0.13131168 41:0.51084906 42:0.20827813 43:0.67117095 44:0.022042455 45:0.23329762 46:0.10765729 47:0.5786925 48:0.09411443 49:0.19431204 50:0.056472551 
32 1:0.29460075 2:0.17188875 3:0.46604466 4:0.38070399 5:0.53805882 6:0.92147559 7:0.2227028 8:0.4442119 9:0.18861789 10:0.91300702 11:0.34974533 12:0.35024539 13:0.44843048 14:0.27150661 15:0.25322142 16:0.29751939 17:0.30075818 18:0.58343196 19:0.23524344 20:0.10737738 21:0.92299038 22:0.23358274 23:0.37998793 24:0.19322927 25:0.2875025 26:0.32646042 27:0.36422107 28:0.18913551 29:0.32015941 30:0.42217454 31:0.24490659 32:0.11802751 33:0.6501677 34:0.10212413 35:0.2592434 36:0.34818384 37:0.048792362 38:0.37783214 39:0.080515064 40:0.22919601 41:0.39375642 42:0.21181853 43:0.67948037 44:0.035623636 45:0.33502942 46:0.11878535 47:0.50234348 48:0.072763167 49:0.22914074 50:0.10761987 
32 1:0.11487377 2:0.071314491 3:0.21714421 4:0.22765645 5:0.49899316 6:0.86458135 7:0.13143682 8:0.21447019 9:0.2292683 10:0.86020666 11:0.10151897 12:0.10138287 13:0.39910313 14:0.12898105 15:0.088513471 16:0.084610306 17:0.16929245 18:0.64378703 19:0.072924383 20:0.036652897 21:0.87967205 22:0.14440523 23:0.13907136 24:0.26145145 25:0.099181734 26:0.086041629 27:0.16833547 28:0.12430171 29:0.217206 30:0.17816827 31:0.057714805 32:0.11529019 33:0.49612567 34:0.069997773 35:0.22856861 36:0.35419941 37:0.0468482 38:0.14786495 39:0.05862328 40:0.066223063 41:0.05454826 42:0.24234992 43:0.53346419 44:0.061025534 45:0.20699875 46:0.063101232 47:0.50255591 48:0.11612539 49:0.25563774 50:0.038503602 
32 1:0.087512702 2:0.12314107 3:0.3783696 4:0.31520489 5:0.53846151 6:0.89782506 7:0.16573752 8:0.20983218 9:0.18699187 10:0.89104962 11:0.12916395 12:0.12891065 13:0.39237669 14:0.079495013 15:0.055644087 16:0.066897959 17:0.10857896 18:0.59053254 19:0.043561433 20:0.052030824 21:0.89980567 22:0.065165922 23:0.1414625 24:0.16803594 25:0.077284478 26:0.058504831 27:0.12947501 28:0.061701968 29:0.29577193 30:0.17015433 31:0.046220135 32:0.085414618 33:0.59960198 34:0.069574974 35:0.13676682 36:0.36673793 37:0.079329625 38:0.15940358 39:0.05299525 40:0.092386879 41:0.21556184 42:0.20041068 43:0.63000309 44:0.027003994 45:0.26959398 46:0.081937797 47:0.5622822 48:0.060910631 49:0.13625592 50:0.052290898 
32 1:0.11885957 2:0.12218747 3:0.39314893 4:0.3122808 5:0.52074099 6:0.88595587 7:0.16262157 8:0.10744198 9:0.11707317 10:0.88075542 11:0.20578411 12:0.2067606 13:0.19955157 14:0.12846741 15:0.090822019 16:0.049313169 17:0.14807385 18:0.60828406 19:0.086711518 20:0.087286159 21:0.88813013 22:0.1017226 23:0.044254769 24:0.11047631 25:0.11599847 26:0.056800436 27:0.118526 28:0.064271227 29:0.07782089 30:0.076420985 31:0.076350719 32:0.041268114 33:0.61629313 34:0.082421094 35:0.14961472 36:0.3970311 37:0.023627238 38:0.049362056 39:0.017281596 40:0.15222749 41:0.48441353 42:0.16955636 43:0.64171296 44:0.028943138 45:0.059516333 46:0.03349844 47:0.53479892 48:0.037238695 49:0.1004731 50:0.08762107 
32 1:0.33087683 2:0.17009604 3:0.45507088 4:0.37839115 5:0.55859846 6:0.92305189 7:0.22054575 8:0.38890523 9:0.23414634 10:0.91386724 11:0.38799116 12:0.38707247 13:0.44170403 14:0.30611032 15:0.26513362 16:0.30003855 17:0.3060104 18:0.62248522 19:0.2781544 20:0.14098403 21:0.92460698 22:0.23867054 23:0.32768124 24:0.17928484 25:0.34971777 26:0.34022745 27:0.36378518 28:0.17578216 29:0.24175292 30:0.37269711 31:0.28502503 32:0.097902402 33:0.64256543 34:0.082689434 35:0.2380352 36:0.34115198 37:0.023847155 38:0.32249326 39:0.061247282 40:0.28362888 41:0.40059388 42:0.21262509 43:0.67361087 44:0.044631999 45:0.26705739 46:0.079512447 47:0.50388283 48:0.091710106 49:0.24641396 50:0.14067543 
32 1:0.18417749 2:0.11968064 3:0.27903673 4:0.30945486 5:0.44744259 6:0.89343536 7:0.28180653 8:0.21747953 9:0.31544718 10:0.87646925 11:0.1370396 12:0.13621274 13:0.62780267 14:0.16343747 15:0.15249281 16:0.13564034 17:0.19064073 18:0.55266273 19:0.13696206 20:0.036012784 21:0.90747535 22:0.2120962 23:0.17517133 24:0.18151499 25:0.17611948 26:0.13616382 27:0.18695167 28:0.1844303 29:0.16474658 30:0.20417291 31:0.14844117 32:0.083882175 33:0.57468325 34:0.11512325 35:0.22364442 36:0.38013902 37:0.034943059 38:0.17289723 39:0.13691972 40:0.079099171 41:0.24174021 42:0.26184291 43:0.60160363 44:0.046662558 45:0.16971497 46:0.11621583 47:0.49505943 48:0.12438233 49:0.21855383 50:0.036654118 
32 1:0.1078953 2:0.168292 3:0.42980272 4:0.37566894 5:0.51832455 6:0.91045231 7:0.27377099 8:0.28004608 9:0.25203252 10:0.91316676 11:0.083339065 12:0.083208285 13:0.40582961 14:0.091791198 15:0.068270922 16:0.13041604 17:0.12601124 18:0.56213015 19:0.050687734 20:0.042471942 21:0.90919179 22:0.11756843 23:0.19659486 24:0.28131217 25:0.090646498 26:0.1180529 27:0.18706927 28:0.13346946 29:0.28883028 30:0.22354089 31:0.067152776 32:0.070777677 33:0.68523771 34:0.11984944 35:0.20552431 36:0.37171194 37:0.070625663 38:0.2326301 39:0.054656986 40:0.067563228 41:0.30875328 42:0.2539987 43:0.71087515 44:0.054584336 45:0.23517439 46:0.072550148 47:0.56794804 48:0.074429326 49:0.24204232 50:0.043292895 
32 1:0.26323572 2:0.15930603 3:0.40765798 4:0.36596307 5:0.54772449 6:0.90009022 7:0.2721296 8:0.12027286 9:0.17723578 10:0.90196949 11:0.42828622 12:0.42651036 13:0.29372197 14:0.42900619 15:0.38202646 16:0.15622456 17:0.42283115 18:0.6130178 19:0.40646812 20:0.18344504 21:0.8970778 22:0.3096121 23:0.096701734 24:0.17307331 25:0.32581672 26:0.19792315 27:0.1929078 28:0.26676801 29:0.059774235 30:0.11558353 31:0.23236763 32:0.035220727 33:0.6782642 34:0.09850239 35:0.32191941 36:0.38973466 37:0.041776188 38:0.092066221 39:0.02623098 40:0.3232837 41:0.36671916 42:0.20632708 43:0.6998741 44:0.024968514 45:0.045391355 46:0.021913746 47:0.59401816 48:0.045887001 49:0.19386929 50:0.18308872 
32 1:0.30164459 2:0.22480689 3:0.43340209 4:0.44305214 5:0.49859041 6:0.92985594 7:0.39528891 8:0.37479991 9:0.23252033 10:0.92664886 11:0.29914123 12:0.29889917 13:0.40582961 14:0.33270982 15:0.29071403 16:0.32206377 17:0.33032537 18:0.63668638 19:0.3064459 20:0.15252575 21:0.93012691 22:0.28727642 23:0.31317636 24:0.26627904 25:0.32554376 26:0.37422901 27:0.3652986 28:0.25795877 29:0.20186645 30:0.34689981 31:0.26550373 32:0.085152298 33:0.71132869 34:0.065510996 35:0.31591162 36:0.35115099 37:0.041638426 38:0.32695144 39:0.062708974 40:0.23336326 41:0.32750648 42:0.2380887 43:0.7360341 44:0.024974788 45:0.19116262 46:0.084741861 47:0.50505817 48:0.13049957 49:0.29785118 50:0.15190154 
32 1:0.27021858 2:0.21190283 3:0.41557536 4:0.42774957 5:0.48892465 6:0.92894274 7:0.37485638 8:0.32123116 9:0.24552846 10:0.92493904 11:0.29721758 12:0.29586026 13:0.39910313 14:0.24381588 15:0.18399419 16:0.27073786 17:0.22937031 18:0.67455626 19:0.21120758 20:0.13416548 21:0.93002063 22:0.18374734 23:0.26671311 24:0.13486192 25:0.29167178 26:0.31452987 27:0.31636852 28:0.13013124 29:0.19154957 30:0.29497856 31:0.23139335 32:0.10552104 33:0.69600606 34:0.071377262 35:0.18331493 36:0.34722131 37:0.040205531 38:0.27747962 39:0.07100223 40:0.23012947 41:0.39168987 42:0.24412645 43:0.72235823 44:0.028540362 45:0.18819825 46:0.089324042 47:0.50777233 48:0.13298871 49:0.19399352 50:0.13597326 
32 1:0.10324192 2:0.12279399 3:0.32959172 4:0.31489179 5:0.48892465 6:0.89922744 7:0.25332093 8:0.10661158 9:0.14634146 10:0.88625872 11:0.098434553 12:0.097728901 13:0.49103138 14:0.09667097 15:0.053244453 16:0.0418575 17:0.12721901 18:0.71124262 19:0.047987405 20:0.075201161 21:0.91774613 22:0.062044747 23:0.038074519 24:0.10340724 25:0.08497607 26:0.030142292 27:0.12050916 28:0.046578694 29:0.065595523 30:0.073182128 31:0.046992786 32:0.077847995 33:0.58052438 34:0.11028666 35:0.14040788 36:0.36332214 37:0.059085734 38:0.050823662 39:0.030904384 40:0.093313053 41:0.14600231 42:0.29879698 43:0.6096639 44:0.069090828 45:0.055439658 46:0.034532364 47:0.53445089 48:0.10252957 49:0.08638557 50:0.077269748 
32 1:0.11373658 2:0.081571653 3:0.23197645 4:0.24613908 5:0.49134111 6:0.85528821 7:0.22255464 8:0.19483396 9:0.16422763 10:0.83327508 11:0.094049595 12:0.093986496 13:0.4192825 14:0.11695473 15:0.073780641 16:0.091892652 17:0.15188651 18:0.72781068 19:0.064936683 20:0.044712048 21:0.88903052 22:0.11950368 23:0.11075437 24:0.18917872 25:0.097813725 26:0.096847571 27:0.17527398 28:0.095679805 29:0.12935096 30:0.15630487 31:0.059527941 32:0.21255757 33:0.50993651 34:0.1127223 35:0.20320536 36:0.41398731 37:0.093254708 38:0.12410139 39:0.13762262 40:0.060704827 41:0.11378596 42:0.26725185 43:0.5343886 44:0.10175309 45:0.10146138 46:0.20416136 47:0.47896543 48:0.19382676 49:0.16549504 50:0.046268649 
32 1:0.31496581 2:0.18029788 3:0.42744753 4:0.39177787 5:0.47402334 6:0.91734636 7:0.30368021 8:0.39889941 9:0.23414634 10:0.90353632 11:0.29474446 12:0.29499415 13:0.42600894 14:0.30504569 15:0.27467582 16:0.33051595 17:0.32112488 18:0.64023668 19:0.27188241 20:0.1224415 21:0.92498803 22:0.27630955 23:0.32234493 24:0.25335827 25:0.33068383 26:0.38266546 27:0.3908717 28:0.23913257 29:0.19835518 30:0.36620942 31:0.27030343 32:0.10547066 33:0.6516574 34:0.088187419 35:0.30592045 36:0.37043068 37:0.079222083 38:0.33303133 39:0.09428376 40:0.21894926 41:0.35414004 42:0.24203625 43:0.67110211 44:0.034865886 45:0.2033889 46:0.10266156 47:0.45607495 48:0.083134174 49:0.2891956 50:0.12220325 
32 1:0.076932728 2:0.10843213 3:0.33037779 4:0.29247218 5:0.49859041 6:0.87557089 7:0.20990154 8:0.11747739 9:0.19349594 10:0.8755008 11:0.13111097 12:0.13029909 13:0.40134528 14:0.098968968 15:0.059987471 16:0.032644469 17:0.12042708 18:0.71479291 19:0.065467656 20:0.082516767 21:0.88109702 22:0.072889388 23:0.06361489 24:0.12209535 25:0.074572429 26:0.034055941 27:0.093616374 28:0.046502043 29:0.14454682 30:0.0967637 31:0.039393093 32:0.07506384 33:0.59674251 34:0.083465226 35:0.13507849 36:0.39704534 37:0.058440402 38:0.067832656 39:0.08492171 40:0.11096311 41:0.12043948 42:0.25567558 43:0.61881042 44:0.050306894 45:0.12804802 46:0.11652457 47:0.58578819 48:0.032768991 49:0.12650773 50:0.082516983 
32 1:0.24901161 2:0.17725821 3:0.4707402 4:0.39032575 5:0.45992747 6:0.91181344 7:0.28048185 8:0.24518083 9:0.2796748 10:0.9018895 11:0.34372452 12:0.34302294 13:0.39461884 14:0.14616495 15:0.13424806 16:0.18637337 17:0.1749502 18:0.59053254 19:0.12475536 20:0.11993003 21:0.91962475 22:0.093959346 23:0.22649463 24:0.13057676 25:0.29733494 26:0.24331033 27:0.23272489 28:0.075929031 29:0.25932148 30:0.25235754 31:0.21190672 32:0.089238457 33:0.67231727 34:0.10331452 35:0.15172262 36:0.38666829 37:0.024092766 38:0.20630521 39:0.059686467 40:0.23253918 41:0.46239814 42:0.23457834 43:0.69329977 44:0.026467225 45:0.28748593 46:0.0638659 47:0.52652079 48:0.081491441 49:0.15720297 50:0.11842472 
32 1:0.33156791 2:0.17351553 3:0.42099884 4:0.3837221 5:0.45227543 6:0.91777891 7:0.29854205 8:0.32920802 9:0.27804878 10:0.90075225 11:0.30768645 12:0.30634665 13:0.43721974 14:0.2756494 15:0.21921177 16:0.30887893 17:0.2735036 18:0.75147933 19:0.23841986 20:0.11985108 21:0.92706895 22:0.21457478 23:0.25309324 24:0.15302607 25:0.36242029 26:0.35891101 27:0.36963665 28:0.15822893 29:0.15449369 30:0.29233816 31:0.28298327 32:0.094113857 33:0.63654763 34:0.10517108 35:0.22152114 36:0.36707211 37:0.083885461 38:0.26989231 39:0.086597987 40:0.22749133 41:0.39830971 42:0.25334758 43:0.65875602 44:0.027633673 45:0.16247 46:0.083229169 47:0.45701137 48:0.084756084 49:0.21136986 50:0.12182526 
32 1:0.3025535 2:0.12869312 3:0.28925824 4:0.32004142 5:0.51711637 6:0.91027898 7:0.29145375 8:0.15826961 9:0.24227645 10:0.85564691 11:0.037744213 12:0.039770082 13:0.48206279 14:0.070345633 15:0.022193581 16:0.14879374 17:0.0971203 18:0.61893499 19:0.018129794 20:0.015092998 21:0.93694693 22:0.053125981 23:0.06298703 24:0.10392612 25:0.3217274 26:0.14136848 27:0.23489426 28:0.018254293 29:0.05425423 30:0.10870672 31:0.2429921 32:0.074595027 33:0.51788962 34:0.11276219 35:0.13333936 36:0.37903914 37:0.054032464 38:0.086775325 39:0.079443976 40:0.026960598 41:0.41856408 42:0.33892748 43:0.54684764 44:0.07441067 45:0.044792775 46:0.096465036 47:0.40287149 48:0.10559456 49:0.078026175 50:0.016070623 
32 1:0.097283982 2:0.19221212 3:0.42892987 4:0.40774119 5:0.51550543 6:0.9101699 7:0.30882892 8:0.090725139 9:0.17560977 10:0.90216249 11:0.19209693 12:0.19109449 13:0.30717489 14:0.10858627 15:0.058342349 16:0.030306412 17:0.12247682 18:0.65562135 19:0.068285167 20:0.1425364 21:0.91161174 22:0.06360922 23:0.035683561 24:0.077315189 25:0.10051258 26:0.037164442 27:0.10132441 28:0.029315051 29:0.071486548 30:0.072813638 31:0.051226914 32:0.051063683 33:0.67911714 34:0.038010262 35:0.11649917 36:0.38895801 37:0.019213041 38:0.035763476 39:0.029591374 40:0.17282778 41:0.48712999 42:0.12540121 43:0.69890374 44:0.012545245 45:0.064405464 46:0.04426188 47:0.45530131 48:0.026005212 49:0.071779102 50:0.14353852 
32 1:0.29347318 2:0.13039306 3:0.41703123 4:0.32566205 5:0.49496576 6:0.88575923 7:0.23745559 8:0.23232993 9:0.18536586 10:0.86310142 11:0.4257251 12:0.42721424 13:0.39686099 14:0.52638745 15:0.47541669 16:0.22931308 17:0.51764286 18:0.69467455 19:0.49882427 20:0.21110705 21:0.89192617 22:0.47581202 23:0.19642022 24:0.31576902 25:0.36766437 26:0.30933073 27:0.28931734 28:0.41212967 29:0.094411299 30:0.23248027 31:0.25166777 32:0.079199977 33:0.60467249 34:0.060506541 35:0.47878349 36:0.42304423 37:0.054020081 38:0.17294824 39:0.091519408 40:0.33867812 41:0.36002541 42:0.23282097 43:0.62342238 44:0.052764308 45:0.10455274 46:0.06557855 47:0.49050987 48:0.06799455 49:0.35008216 50:0.20968834 
